svm_type c_svc
kernel_type linear
nr_class 2
total_sv 2841
rho -2.0851970369676913e-06
label 1 -1
nr_sv 1414 1427
SV
0.001 1:0.19134075 2:0.205563 3:0.26278981 4:0.044297945 5:0.17647059 6:0.13296244 7:0.17069718 8:0.22116949 9:0.1829441 
0.001 1:0.10858003 2:0.044589253 3:0.086779967 4:0.41037878 5:0.17647059 6:0.35023923 7:0.19195071 8:0.092307276 9:0.12693945 
0.001 1:0.29148671 2:0.32139188 3:0.22877019 4:-0.12008017 5:0.17647059 6:0.031278926 7:0.21684056 8:0.26971235 9:0.17236425 
0.001 1:0.1979012 2:0.10883614 3:0.14969861 4:0.31806499 5:0.17647059 6:0.29025045 7:0.15083866 8:0.07178151 9:0.12439314 
0.001 1:0.04660896 2:0.067801543 3:-0.03542847 4:0.23030366 5:0.17647059 6:0.16485953 7:0.29921926 8:0.39702908 9:0.24137114 
0.001 1:0.20587304 2:0.24862461 3:0.27827399 4:-0.045355015 5:0.17647059 6:0.059548558 7:0.1990179 8:0.23984487 9:0.22593675 
0.001 1:0.050497258 2:0.060482331 3:-0.099584299 4:0.2731199 5:0.17647059 6:0.17338374 7:0.30396764 8:0.3817612 9:0.26813693 
0.001 1:0.15021599 2:0.050047428 3:0.14625743 4:0.3411475 5:0.17647059 6:0.31596603 7:0.16886267 8:0.089026437 9:0.15024122 
0.001 1:0.31665877 2:0.43385851 3:0.35367294 4:-0.19861027 5:0.23529412 6:0.028947147 7:0.30389788 8:0.394271 9:0.24965698 
0.001 1:0.15634722 2:0.066271092 3:0.14144214 4:0.35938818 5:0.17647059 6:0.34831535 7:0.14890858 8:0.073955734 9:0.11713641 
0.001 1:0.19311496 2:0.24930673 3:0.2217412 4:0.0017609871 5:0.17647059 6:0.072331753 7:0.18649296 8:0.2664669 9:0.22054921 
0.001 1:0.131727 2:0.032789162 3:0.063940744 4:0.2205614 5:0.17647059 6:0.19165012 7:0.2683691 8:0.20924762 9:0.29347956 
0.001 1:0.064577426 2:0.096559896 3:-0.025305671 4:0.19987423 5:0.17647059 6:0.14313692 7:0.29436841 8:0.38385737 9:0.25469612 
0.001 1:0.17852809 2:0.065967734 3:0.14302296 4:0.33466261 5:0.17647059 6:0.28770753 7:0.17949639 8:0.093058336 9:0.12932105 
0.001 1:0.23582451 2:0.33192887 3:0.2393497 4:-0.10116817 5:0.17647059 6:0.0043804731 7:0.22884354 8:0.2868615 9:0.18574429 
0.001 1:0.0078459684 2:0.012599661 3:-0.093792441 4:0.27127285 5:0.17647059 6:0.15024922 7:0.32382815 8:0.43147857 9:0.30828273 
0.001 1:-0.14626257 2:-0.032872653 3:0.17514309 4:0.14050411 5:0.17647059 6:0.31191493 7:0.23540582 8:0.34199879 9:0.38593319 
0.001 1:-0.096794059 2:0.0033934528 3:0.15674974 4:0.15689 5:0.17647059 6:0.26951477 7:0.2331217 8:0.33776667 9:0.35112243 
0.001 1:0.14896065 2:0.055000023 3:0.14210599 4:0.31282655 5:0.17647059 6:0.3217517 7:0.18513776 8:0.096793877 9:0.14918816 
0.001 1:-0.096802946 2:-0.023771251 3:0.19149352 4:0.13650239 5:0.17647059 6:0.29693203 7:0.22733592 8:0.32593004 9:0.354145 
0.001 1:0.10217376 2:0.0099093388 3:0.022424561 4:0.44793366 5:0.17647059 6:0.37582956 7:0.19056711 8:0.098668122 9:0.16425859 
0.001 1:0.21343731 2:0.13605383 3:0.094518522 4:0.30670754 5:0.17647059 6:0.15407107 7:0.15174217 8:0.074114083 9:-0.051995746 
0.001 1:0.35454751 2:0.42042657 3:0.32080909 4:-0.18022949 5:0.23529412 6:-0.022160123 7:0.30408989 8:0.4166244 9:0.26824509 
0.001 1:0.13360665 2:0.022130976 3:0.065616444 4:0.19393916 5:0.17647059 6:0.19314363 7:0.28340702 8:0.23612409 9:0.28379673 
0.001 1:0.23218216 2:0.29445804 3:0.18897728 4:-0.0037130184 5:0.17647059 6:0.068810595 7:0.1609452 8:0.26173741 9:0.20836703 
0.001 1:0.13916804 2:-0.0027148303 3:0.036131851 4:0.23306039 5:0.17647059 6:0.1749393 7:0.30711613 8:0.22860997 9:0.29545386 
0.001 1:0.082598246 2:0.073565665 3:-0.059577313 4:0.25289237 5:0.17647059 6:0.17025356 7:0.28926885 8:0.3523296 9:0.25043372 
0.001 1:0.15736652 2:-0.027269859 3:-0.0042459892 4:0.24914762 5:0.17647059 6:0.16406833 7:0.32456722 8:0.22593209 9:0.32219877 
0.001 1:0.14658231 2:-0.039537772 3:0.0090913278 4:0.25747426 5:0.17647059 6:0.16529775 7:0.31466583 8:0.22954941 9:0.32864159 
0.001 1:0.15951433 2:0.052639049 3:0.14677428 4:0.36813535 5:0.17647059 6:0.33924744 7:0.16122149 8:0.037839016 9:0.14639375 
0.001 1:0.15704262 2:-0.033989973 3:-0.016989355 4:0.26137526 5:0.17647059 6:0.15903098 7:0.33553179 8:0.23591564 9:0.31384774 
0.001 1:0.20709852 2:0.13578658 3:0.088244725 4:0.28590629 5:0.17647059 6:0.18423405 7:0.15750393 8:0.08099329 9:-0.04078206 
0.001 1:0.14212348 2:0.11492864 3:0.11074114 4:0.26905755 5:0.17647059 6:0.24108307 7:0.19957738 8:0.16669705 9:0.1675564 
0.001 1:0.18712945 2:0.052234494 3:0.11799433 4:0.33472511 5:0.17647059 6:0.29390677 7:0.18892541 8:0.087566996 9:0.14928214 
0.001 1:0.20879487 2:0.05806381 3:0.063421984 4:0.3136279 5:0.17647059 6:0.31199165 7:0.20403759 8:0.099943745 9:0.15188316 
0.001 1:0.15054452 2:0.0060198152 3:0.046022997 4:0.24486406 5:0.17647059 6:0.16175804 7:0.27971038 8:0.21634964 9:0.30649526 
0.001 1:0.1745477 2:0.23689301 3:0.25759925 4:0.019771649 5:0.17647059 6:0.098870353 7:0.17945364 8:0.24887397 9:0.19575514 
0.001 1:0.03443331 2:0.096237861 3:-0.081988574 4:0.22884119 5:0.17647059 6:0.16648673 7:0.29743425 8:0.40045783 9:0.26986211 
0.001 1:0.26420048 2:0.3559087 3:0.25790196 4:-0.14573937 5:0.17647059 6:-0.026723228 7:0.2106313 8:0.31655344 9:0.17903142 
0.001 1:0.22379677 2:0.27286397 3:0.31005897 4:-0.15440504 5:0.17647059 6:-0.044566147 7:0.25609091 8:0.25969882 9:0.28822646 
0.001 1:0.26081315 2:0.30931906 3:0.31143104 4:-0.16870339 5:0.17647059 6:-0.055698096 7:0.20994189 8:0.26941012 9:0.27525094 
0.001 1:0.29782653 2:0.33874316 3:0.24397646 4:-0.15819494 5:0.17647059 6:-0.029803072 7:0.22124802 8:0.30759001 9:0.19037855 
0.001 1:0.11466532 2:-0.0097529374 3:0.031196212 4:0.47829026 5:0.17647059 6:0.39525621 7:0.20523261 8:0.060527079 9:0.13634996 
0.001 1:0.28562712 2:0.39242922 3:0.26113755 4:-0.18081192 5:0.17647059 6:-0.04016592 7:0.2068244 8:0.30779977 9:0.17892448 
0.001 1:0.14292691 2:-0.035407737 3:0.0018200445 4:0.244832 5:0.17647059 6:0.20067934 7:0.3332167 8:0.21322482 9:0.31047263 
0.001 1:0.20842332 2:0.25107735 3:0.28165494 4:-0.040722391 5:0.17647059 6:0.066559733 7:0.17685483 8:0.27165964 9:0.19625729 
0.001 1:0.16699849 2:0.058374637 3:0.1574498 4:0.33490924 5:0.17647059 6:0.31042184 7:0.17451685 8:0.076642538 9:0.13245131 
0.001 1:-0.086909042 2:0.00050223235 3:0.17343797 4:0.16736255 5:0.17647059 6:0.27090748 7:0.22227547 8:0.31311268 9:0.35107536 
0.001 1:0.16153885 2:-0.0052220166 3:-0.0064063789 4:0.25078155 5:0.17647059 6:0.17486857 7:0.30979912 8:0.22897747 9:0.29742753 
0.001 1:0.11722093 2:0.087001613 3:0.081737587 4:0.1856549 5:0.11764706 6:0.178516 7:0.11487964 8:0.090992332 9:0.085173468 
0.001 1:0.15310714 2:0.13454442 3:0.14997065 4:0.24338353 5:0.17647059 6:0.23913639 7:0.16873704 8:0.15389022 9:0.16899531 
0.001 1:0.11427511 2:0.057432783 3:-0.07313242 4:0.24586302 5:0.17647059 6:0.15097148 7:0.31928593 8:0.35097497 9:0.24609384 
0.001 1:0.15193083 2:-0.002126923 3:0.05873939 4:0.22323532 5:0.17647059 6:0.18720795 7:0.28807247 8:0.21792536 9:0.28678031 
0.001 1:0.19444981 2:0.062385702 3:0.043194303 4:0.3506816 5:0.17647059 6:0.30573682 7:0.23584431 8:0.10065522 9:0.11881694 
0.001 1:0.27895459 2:0.31099321 3:0.23238787 4:-0.097908381 5:0.17647059 6:0.0063931701 7:0.22952063 8:0.26725109 9:0.18417254 
0.001 1:0.21232037 2:0.096308332 3:0.071757125 4:0.30187572 5:0.17647059 6:0.33841939 7:0.19832524 8:0.074503585 9:0.11825495 
0.001 1:-0.05618757 2:0.029516537 3:0.17158062 4:0.15071742 5:0.17647059 6:0.2522954 7:0.22533955 8:0.3114389 9:0.32706385 
0.001 1:0.27221056 2:0.27727648 3:0.2881091 4:-0.091626984 5:0.17647059 6:-0.0090323014 7:0.19038368 8:0.24279603 9:0.24164815 
0.001 1:0.21539749 2:0.26384877 3:0.27538377 4:-0.030385977 5:0.17647059 6:0.06415362 7:0.16865887 8:0.21882251 9:0.23588565 
0.001 1:0.16480318 2:0.054030862 3:0.13445482 4:0.35274801 5:0.17647059 6:0.33726333 7:0.13853767 8:0.086960044 9:0.14296679 
0.001 1:-0.1192422 2:-0.034308805 3:0.15821597 4:0.13502088 5:0.17647059 6:0.28513741 7:0.24400192 8:0.35911546 9:0.38382407 
0.001 1:0.31752871 2:0.36392259 3:0.23729377 4:-0.2036928 5:0.17647059 6:-0.039026803 7:0.23649741 8:0.32193557 9:0.17730625 
0.001 1:0.17745187 2:0.054144573 3:0.10809473 4:0.36905889 5:0.17647059 6:0.33365723 7:0.16821214 8:0.073374212 9:0.12777106 
0.001 1:0.096786062 2:-0.042704125 3:0.0064178887 4:0.52785936 5:0.17647059 6:0.42304997 7:0.17878763 8:0.097947099 9:0.12362083 
0.001 1:0.03835738 2:-0.0049886318 3:-0.1698946 4:0.28554181 5:0.17647059 6:0.20861775 7:0.328329 8:0.43265147 9:0.29315053 
0.001 1:0.10623943 2:0.047893915 3:0.082060374 4:0.44275332 5:0.17647059 6:0.42310944 7:0.1046066 8:0.049667277 9:0.15543434 
0.001 1:0.24625395 2:0.34785856 3:0.42364651 4:-0.24848603 5:0.17647059 6:-0.14027289 7:0.2336319 8:0.30350722 9:0.24562548 
0.001 1:-0.096681622 2:-0.18587472 3:-0.084244867 4:0.34831756 5:0.17647059 6:0.21807093 7:0.3564204 8:0.39694039 9:0.45881663 
0.001 1:0.11714169 2:0.38062813 3:0.21107963 4:-0.22264206 5:0.17647059 6:-0.050375267 7:0.17760307 8:0.45963022 9:0.33869929 
0.001 1:0.20693164 2:0.087289229 3:0.01830189 4:0.46699419 5:0.17647059 6:0.33828249 7:0.21092663 8:0.024133336 9:0.058905304 
0.001 1:0.17876055 2:0.059787632 3:0.1192069 4:0.34485729 5:0.17647059 6:0.30259558 7:0.17346711 8:0.091423424 9:0.14166622 
0.001 1:0.10091375 2:0.019219747 3:0.067732879 4:0.42073057 5:0.17647059 6:0.35721537 7:0.18967383 8:0.090479864 9:0.16579869 
0.001 1:0.22210313 2:0.24849064 3:0.20931963 4:0.045335755 5:0.17647059 6:0.1071472 7:0.17446522 8:0.22630834 9:0.1785948 
0.001 1:0.13801538 2:0.16029686 3:0.15593721 4:0.0042714999 5:0.11764706 6:0.038917405 7:0.14374058 8:0.15373592 9:0.14626161 
0.001 1:0.26282438 2:0.19934672 3:0.23018509 4:0.39700064 5:0.17647059 6:0.29667509 7:0.060546473 8:-0.052852822 9:0.018039141 
0.001 1:0.094436429 2:0.039537492 3:0.12164697 4:0.33187234 5:0.17647059 6:0.31034966 7:0.19246217 8:0.12553193 9:0.19592771 
0.001 1:-0.11454015 2:-0.0052304848 3:0.16771596 4:0.15496136 5:0.17647059 6:0.29705304 7:0.23563107 8:0.31327709 9:0.36289683 
0.001 1:0.099334783 2:-0.013839593 3:0.05901163 4:0.53291103 5:0.17647059 6:0.43688211 7:0.18831405 8:0.028415112 9:0.080735583 
0.001 1:0.18004334 2:-0.035282477 3:-0.065608048 4:0.28841288 5:0.17647059 6:0.14080845 7:0.36129818 8:0.24051547 9:0.30157691 
0.001 1:0.23863638 2:0.35788565 3:0.3048847 4:-0.2156872 5:0.17647059 6:-0.029536478 7:0.20062038 8:0.29893297 9:0.2560283 
0.001 1:-0.10378862 2:-0.12057693 3:0.29936382 4:0.32198894 5:0.17647059 6:0.51937445 7:0.038772753 8:0.037163134 9:0.41946715 
0.001 1:-0.0377778 2:-0.049474939 3:-0.24533016 4:0.32516969 5:0.17647059 6:0.21056366 7:0.36594988 8:0.50237108 9:0.3402933 
0.001 1:-0.17329773 2:-0.095479696 3:0.36109619 4:0.29558708 5:0.17647059 6:0.55322302 7:0.0031245944 8:0.13327922 9:0.33423202 
0.001 1:0.31406865 2:0.42238466 3:0.30568022 4:-0.406942 5:0.17647059 6:-0.0238304 7:0.16895076 8:0.40241252 9:0.22904029 
0.001 1:0.22147877 2:0.11829489 3:0.0021199913 4:0.52247219 5:0.17647059 6:0.20768299 7:0.29473236 8:0.16233418 9:-0.11735067 
0.001 1:0.17913616 2:0.2835993 3:0.27914282 4:-0.09762735 5:0.17647059 6:-0.028902198 7:0.24479986 8:0.27231525 9:0.27930087 
0.001 1:0.16101922 2:-0.036755696 3:-0.033010289 4:0.2704913 5:0.17647059 6:0.13767043 7:0.36355888 8:0.238634 9:0.31015685 
0.001 1:0.041310047 2:0.060134395 3:-0.092892331 4:0.26747454 5:0.17647059 6:0.17380664 7:0.31295878 8:0.38770253 9:0.2612701 
0.001 1:0.15291152 2:0.058669193 3:0.1407243 4:0.32413141 5:0.17647059 6:0.31417528 7:0.17538175 8:0.087953303 9:0.15781795 
0.001 1:0.34300361 2:0.50102276 3:0.34890146 4:-0.2412152 5:0.23529412 6:0.0085726093 7:0.25550362 8:0.45428142 9:0.21228266 
0.001 1:0.095740532 2:0.037269857 3:0.0020701187 4:0.17290775 5:0.11764706 6:0.10034504 7:0.21330667 8:0.1563246 9:0.1632119 
0.001 1:0.12445695 2:0.072373481 3:0.14495725 4:0.32579906 5:0.17647059 6:0.31145906 7:0.16579924 8:0.10252408 9:0.1643956 
0.001 1:0.21140717 2:0.27447202 3:0.17569662 4:0.0010221944 5:0.17647059 6:0.070720787 7:0.19453858 8:0.27635077 9:0.20755655 
0.001 1:0.066790304 2:0.097968796 3:-0.024328383 4:0.22777817 5:0.17647059 6:0.16490075 7:0.28594111 8:0.35820696 9:0.23450699 
0.001 1:-0.063474751 2:0.013006729 3:0.1745257 4:0.16786943 5:0.17647059 6:0.28523928 7:0.22982657 8:0.28386623 9:0.32090552 
0.001 1:0.21796226 2:0.26750383 3:0.29412993 4:-0.0075810005 5:0.17647059 6:0.057782837 7:0.16066195 8:0.22467851 9:0.1966264 
0.001 1:0.062067514 2:0.056957681 3:-0.09392237 4:0.24935442 5:0.17647059 6:0.16360809 7:0.30663293 8:0.39659549 9:0.27047095 
0.001 1:0.027384764 2:0.06642657 3:-0.097528189 4:0.23286256 5:0.17647059 6:0.15619311 7:0.33378676 8:0.41421786 9:0.27842127 
0.001 1:-0.11339394 2:-0.032608345 3:0.18566839 4:0.13893485 5:0.17647059 6:0.32180849 7:0.21862747 8:0.31665993 9:0.37606787 
0.001 1:-0.12089972 2:0.0086301318 3:0.17461301 4:0.14056572 5:0.17647059 6:0.28456606 7:0.23492467 8:0.32199067 9:0.36737416 
0.001 1:0.10638337 2:0.0065590163 3:0.0398396 4:0.46205372 5:0.17647059 6:0.39886454 7:0.20913294 8:0.057504598 9:0.13142692 
0.001 1:0.20715202 2:0.28957311 3:0.29210774 4:-0.12545364 5:0.17647059 6:-0.010253488 7:0.22887849 8:0.30135659 9:0.2284039 
0.001 1:0.19845947 2:0.046009437 3:0.1399511 4:0.32774363 5:0.17647059 6:0.32679049 7:0.15812954 8:0.078311293 9:0.13636975 
0.001 1:0.27559351 2:0.33693106 3:0.24119647 4:-0.16582037 5:0.17647059 6:0.0032645846 7:0.20877354 8:0.32334279 9:0.18848313 
0.001 1:-0.12119037 2:-0.04382587 3:0.16046968 4:0.16780901 5:0.17647059 6:0.30434474 7:0.27284613 8:0.30788117 9:0.36343021 
0.001 1:0.26043795 2:0.2438026 3:0.22035584 4:0.47361742 5:0.17647059 6:0.38160637 7:-0.018814544 8:-0.080660398 9:-0.068580531 
0.001 1:0.22879891 2:0.39498659 3:0.31921098 4:-0.32807712 5:0.17647059 6:-0.026346617 7:0.25031955 8:0.38550022 9:0.18737219 
0.001 1:0.15502659 2:0.054629249 3:0.13037373 4:0.33622693 5:0.17647059 6:0.33891253 7:0.15684426 8:0.10210419 9:0.13764723 
0.001 1:-0.10125484 2:-0.00031468831 3:0.16691024 4:0.14992439 5:0.17647059 6:0.28603894 7:0.22857651 8:0.33973222 9:0.34215193 
0.001 1:0.056739634 2:0.086267359 3:-0.053621147 4:0.22936284 5:0.17647059 6:0.15904456 7:0.29284758 8:0.37293393 9:0.26818995 
0.001 1:0.087415054 2:-0.09140206 3:0.012149883 4:0.27685624 5:0.17647059 6:0.18115063 7:0.33182495 8:0.24566148 9:0.36810852 
0.001 1:0.064595833 2:0.093418318 3:0.17933372 4:0.16945932 5:0.17647059 6:0.22627736 7:0.20275368 8:0.22840257 9:0.2475239 
0.001 1:0.17006904 2:0.13409539 3:0.13711 4:0.24278632 5:0.17647059 6:0.23734478 7:0.1734812 8:0.15579642 9:0.16108157 
0.001 1:0.10409842 2:0.11935807 3:0.21171606 4:0.1994655 5:0.17647059 6:0.25628567 7:0.13243712 8:0.16122892 9:0.22717495 
0.001 1:0.38320838 2:0.47439794 3:0.34677581 4:-0.29027881 5:0.23529412 6:-0.007453135 7:0.29494226 8:0.43135198 9:0.24940851 
0.001 1:0.15495919 2:0.10659817 3:0.1823279 4:0.2715892 5:0.17647059 6:0.26791234 7:0.15153202 8:0.13662025 9:0.14022565 
0.001 1:0.19546015 2:0.24095821 3:0.1845376 4:0.034849612 5:0.17647059 6:0.10309491 7:0.14815793 8:0.28681814 9:0.21788814 
0.001 1:0.18256555 2:0.075645872 3:0.17519376 4:0.30753174 5:0.17647059 6:0.28855255 7:0.16040323 8:0.1005124 9:0.12135961 
0.001 1:0.21438462 2:0.23439474 3:0.2391889 4:0.032840606 5:0.17647059 6:0.10353071 7:0.16185678 8:0.22155193 9:0.20401642 
0.001 1:0.10059992 2:-0.012886452 3:0.058989046 4:0.40208637 5:0.17647059 6:0.3592488 7:0.20695519 8:0.10709609 9:0.18967574 
0.001 1:0.16275628 2:0.063191121 3:0.13090891 4:0.32582254 5:0.17647059 6:0.30660854 7:0.16086705 8:0.094702428 9:0.16690784 
0.001 1:0.19294933 2:0.21368168 3:0.26382125 4:-0.069853322 5:0.17647059 6:0.10369809 7:0.19397087 8:0.28056681 9:0.23293 
0.001 1:0.23458917 2:-0.0058431194 3:0.073492564 4:0.38922965 5:0.17647059 6:0.30275946 7:0.097099625 8:0.11696252 9:0.20347484 
0.001 1:0.058360007 2:-0.009100022 3:0.052010959 4:0.42454018 5:0.17647059 6:0.42041096 7:0.15433964 8:0.089384583 9:0.2218184 
0.001 1:0.26983811 2:0.043467964 3:-0.049708086 4:0.3624724 5:0.17647059 6:0.32481179 7:0.26477876 8:0.11370084 9:0.082402923 
0.001 1:-0.18231732 2:-0.012075184 3:0.18232476 4:0.1950261 5:0.17647059 6:0.32024467 7:0.22666584 8:0.34401141 9:0.33788443 
0.001 1:0.16310354 2:0.034438927 3:0.17678442 4:0.36328838 5:0.17647059 6:0.33261115 7:0.19028885 8:0.068557976 9:0.082691465 
0.001 1:-0.0037924799 2:0.038399321 3:0.2261394 4:0.30746612 5:0.17647059 6:0.38115519 7:0.006120935 8:0.096916539 9:0.35935969 
0.001 1:-0.0028573733 2:0.0068945946 3:-0.091021844 4:0.24769154 5:0.17647059 6:0.15371647 7:0.36092863 8:0.45948876 9:0.27692392 
0.001 1:-0.21132381 2:-0.20183043 3:0.21518976 4:0.19344008 5:0.17647059 6:0.29778557 7:0.34335411 8:0.38938452 9:0.3857649 
0.001 1:-0.10822681 2:-0.22021122 3:-0.11473724 4:0.36750736 5:0.23529412 6:0.36659747 7:0.5863331 8:0.44092638 9:0.5641639 
0.001 1:0.18765109 2:0.44972175 3:0.24184987 4:-0.37799408 5:0.11764706 6:0.10732485 7:-0.067595729 8:0.15379746 9:0.24642126 
0.001 1:0.16499272 2:0.0025282741 3:-0.0029869674 4:0.24523609 5:0.17647059 6:0.15955806 7:0.32434459 8:0.22592048 9:0.29217146 
0.001 1:-0.1004837 2:0.0083428139 3:0.17927891 4:0.13678153 5:0.17647059 6:0.28738215 7:0.22403969 8:0.3097767 9:0.3666466 
0.001 1:0.17290055 2:0.071439045 3:0.16176711 4:0.30649191 5:0.17647059 6:0.30964263 7:0.1588247 8:0.06890015 9:0.16179862 
0.001 1:-0.078651667 2:0.018636394 3:0.18749684 4:0.13826126 5:0.17647059 6:0.26013159 7:0.23493761 8:0.3066786 9:0.34427408 
0.001 1:0.19888377 2:0.24337561 3:0.20215688 4:0.044962268 5:0.17647059 6:0.11054486 7:0.18798123 8:0.23720746 9:0.18665263 
0.001 1:0.13212924 2:0.10683474 3:0.12147982 4:0.27977653 5:0.17647059 6:0.26264169 7:0.18676861 8:0.14543083 9:0.17670324 
0.001 1:0.073244679 2:0.054634556 3:0.018494124 4:0.15646104 5:0.11764706 6:0.12459641 7:0.1744907 8:0.19350699 9:0.14574797 
0.001 1:0.10853539 2:0.07383834 3:0.089477595 4:0.19540621 5:0.11764706 6:0.1877934 7:0.095557051 8:0.082728692 9:0.1078398 
0.001 1:0.15831367 2:0.062406634 3:-0.098420214 4:0.25101185 5:0.17647059 6:0.12168293 7:0.33572907 8:0.36085424 9:0.22018653 
0.001 1:0.091120723 2:0.11014034 3:0.040173185 4:0.20961105 5:0.17647059 6:0.17530918 7:0.2504251 8:0.30073251 9:0.23425261 
0.001 1:-0.025402105 2:0.044864868 3:0.19417448 4:0.15407695 5:0.17647059 6:0.25081038 7:0.21299303 8:0.27043421 9:0.30981289 
0.001 1:0.26865097 2:0.28933125 3:0.28386571 4:-0.1325571 5:0.17647059 6:-0.0058260791 7:0.19228746 8:0.24643686 9:0.26957563 
0.001 1:-0.09805349 2:0.014241247 3:0.16200052 4:0.12913626 5:0.17647059 6:0.26380029 7:0.22924054 8:0.32843271 9:0.38296663 
0.001 1:-0.12932492 2:-0.032547364 3:0.17308102 4:0.12852592 5:0.17647059 6:0.30443131 7:0.23771533 8:0.33722659 9:0.39265683 
0.001 1:0.29606166 2:0.31617556 3:0.14076254 4:0.11465884 5:0.17647059 6:-0.2138323 7:0.27144665 8:0.44262177 9:0.043870002 
0.001 1:0.26338942 2:0.3521298 3:0.25457533 4:-0.15816842 5:0.17647059 6:0.012794449 7:0.203694 8:0.30876558 9:0.17458455 
0.001 1:-0.11319735 2:0.011807167 3:0.17399423 4:0.13865578 5:0.17647059 6:0.28572623 7:0.25403614 8:0.31468476 9:0.34605774 
0.001 1:-0.065206649 2:0.036061719 3:0.37314134 4:0.2333003 5:0.17647059 6:0.45462944 7:0.048951504 8:0.084792077 9:0.24609497 
0.001 1:0.2743819 2:0.29340945 3:0.28450534 4:-0.1854304 5:0.17647059 6:-0.089362069 7:0.19946419 8:0.30588783 9:0.32890847 
0.001 1:0.277512 2:0.37923807 3:0.37024159 4:-0.31221595 5:0.17647059 6:-0.17003339 7:0.21038742 8:0.33681789 9:0.31981707 
0.001 1:0.2947997 2:0.43124916 3:0.35179176 4:-0.35341986 5:0.17647059 6:-0.14069215 7:0.18621089 8:0.36581936 9:0.27600585 
0.001 1:-0.054560753 2:-0.14314733 3:0.36556705 4:0.32783932 5:0.17647059 6:0.61503272 7:-0.050963226 8:-0.054678853 9:0.40667579 
0.001 1:-0.12702358 2:-0.44285115 3:0.023422606 4:0.30147148 5:0.17647059 6:0.34690317 7:0.51653018 8:0.3136119 9:0.4797001 
0.001 1:0.18477168 2:0.021365136 3:0.0078631569 4:0.35042277 5:0.17647059 6:0.33593773 7:0.26046222 8:0.11131681 9:0.1396252 
0.001 1:0.20518063 2:0.16181569 3:0.20086149 4:0.35156132 5:0.17647059 6:0.31336902 7:0.089624957 8:0.020724529 9:0.068627067 
0.001 1:0.012793194 2:0.20289161 3:0.11889223 4:0.041158254 5:0.17647059 6:0.20747827 7:0.21860411 8:0.31687172 9:0.29307533 
0.001 1:0.12642194 2:0.15087193 3:0.13489229 4:0.032913853 5:0.11764706 6:0.060592652 7:0.12778402 8:0.15816182 9:0.14953796 
0.001 1:0.10028925 2:0.079336612 3:0.10333704 4:0.1741665 5:0.11764706 6:0.19203614 7:0.09776635 8:0.090470679 9:0.10377389 
0.001 1:0.13269636 2:0.10979634 3:0.070532358 4:0.22079712 5:0.17647059 6:0.17196771 7:0.23889522 8:0.25865183 9:0.20842776 
0.001 1:0.13831537 2:0.1124094 3:0.070285817 4:0.21353536 5:0.17647059 6:0.18333353 7:0.23435074 8:0.25043692 9:0.20909756 
0.001 1:0.14173164 2:0.15813544 3:0.11718248 4:0.048488685 5:0.11764706 6:0.045205359 7:0.099839873 8:0.17504415 9:0.15554885 
0.001 1:0.15630582 2:0.10867361 3:0.15091374 4:0.27874489 5:0.17647059 6:0.28373612 7:0.15364894 8:0.12212389 9:0.15761768 
0.001 1:0.10816357 2:0.061525639 3:0.074559661 4:0.35276276 5:0.17647059 6:0.30224178 7:0.20575492 8:0.13109219 9:0.17566418 
0.001 1:0.12831783 2:0.088678331 3:0.18457235 4:0.27105183 5:0.17647059 6:0.2902643 7:0.22137115 8:0.091122468 9:0.13638645 
0.001 1:0.10839843 2:0.036317544 3:0.10883805 4:0.38270257 5:0.17647059 6:0.3498461 7:0.18508575 8:0.089456029 9:0.15112022 
0.001 1:0.29245322 2:0.32050192 3:0.23082823 4:-0.069655135 5:0.17647059 6:0.0087047434 7:0.20127913 8:0.26911388 9:0.15853871 
0.001 1:0.167557 2:0.061139005 3:0.14652462 4:0.31950964 5:0.17647059 6:0.32782934 7:0.17064017 8:0.076111095 9:0.14245383 
0.001 1:-0.1310114 2:0.040903797 3:0.19550923 4:0.12073791 5:0.17647059 6:0.27497854 7:0.20843358 8:0.33051391 9:0.37169913 
0.001 1:0.15201741 2:-0.029398475 3:-0.023441591 4:0.24942251 5:0.17647059 6:0.14826838 7:0.33267508 8:0.25836432 9:0.32385707 
0.001 1:0.074343438 2:0.055351942 3:-0.06737568 4:0.25075732 5:0.17647059 6:0.17983744 7:0.29899372 8:0.38275107 9:0.23710547 
0.001 1:0.1881466 2:0.099622835 3:0.10087743 4:0.31749124 5:0.17647059 6:0.30539668 7:0.16605049 8:0.10463727 9:0.12954215 
0.001 1:0.041588198 2:0.045562455 3:-0.088570107 4:0.21225113 5:0.17647059 6:0.16503019 7:0.34406 8:0.42860719 9:0.26323565 
0.001 1:0.17067723 2:0.29629147 3:0.19627103 4:-0.082747159 5:0.17647059 6:0.025159061 7:0.25318622 8:0.29505776 9:0.25786911 
0.001 1:0.021267256 2:-0.10366932 3:0.060569861 4:0.208092 5:0.17647059 6:0.21846989 7:0.37618682 8:0.31687123 9:0.31397696 
0.001 1:0.21913459 2:0.14177917 3:0.079434305 4:0.34878032 5:0.17647059 6:0.31950302 7:0.16328337 8:0.091940414 9:0.047909515 
0.001 1:0.13976431 2:-0.032825618 3:-0.0303834 4:0.24848861 5:0.17647059 6:0.14686847 7:0.40455719 8:0.22758504 9:0.3077101 
0.001 1:-0.13387825 2:-0.045798378 3:0.18012179 4:0.1717098 5:0.17647059 6:0.22651538 7:0.28771453 8:0.36460782 9:0.360772 
0.001 1:0.24309617 2:0.2870908 3:0.21662117 4:-0.04856291 5:0.17647059 6:-0.013492335 7:0.13457285 8:0.37212292 9:0.22031604 
0.001 1:0.19545499 2:-0.076867177 3:-0.24000484 4:0.44869335 5:0.17647059 6:0.0179594 7:0.44148343 8:0.2704873 9:0.35455826 
0.001 1:-0.12406469 2:-0.20499343 3:-0.14422746 4:0.2217764 5:0.17647059 6:0.24491099 7:0.46973529 8:0.38685829 9:0.56176933 
0.001 1:-0.0018306847 2:-0.1906013 3:-0.32442325 4:0.40192899 5:0.17647059 6:0.25429089 7:0.42239144 8:0.5055214 9:0.34448723 
0.001 1:-0.016403325 2:-0.24653382 3:-0.34067751 4:0.42811797 5:0.17647059 6:0.20261474 7:0.47220877 8:0.52077888 9:0.39165901 
0.001 1:-0.17104139 2:-0.27813462 3:-0.24660815 4:0.31233474 5:0.17647059 6:0.32279405 7:0.5316333 8:0.40153376 9:0.53925301 
0.001 1:-0.063885372 2:-0.032652203 3:0.17864628 4:0.19344601 5:0.17647059 6:0.29117966 7:0.25277226 8:0.23752307 9:0.354735 
0.001 1:0.24176068 2:0.30899107 3:0.22141159 4:-0.098871656 5:0.17647059 6:0.013829679 7:0.25013932 8:0.31394615 9:0.16055787 
0.001 1:0.22069632 2:0.1634935 3:0.19902763 4:0.32650829 5:0.17647059 6:0.33120117 7:0.067434635 8:0.035689575 9:0.067713576 
0.001 1:0.100869 2:0.031167524 3:0.010899495 4:0.17042591 5:0.11764706 6:0.10253856 7:0.21605984 8:0.15931143 9:0.14990471 
0.001 1:0.060447187 2:0.052996268 3:0.028827629 4:0.13564376 5:0.11764706 6:0.12393422 7:0.17875551 8:0.20146825 9:0.15910366 
0.001 1:0.067708477 2:0.052710574 3:0.020180588 4:0.14654451 5:0.11764706 6:0.12245179 7:0.17321424 8:0.20000846 9:0.15835783 
0.001 1:0.10290024 2:0.08352184 3:0.11623589 4:0.20881271 5:0.17647059 6:0.21002668 7:0.24543272 8:0.21388164 9:0.23095298 
0.001 1:0.12573582 2:0.075583509 3:-0.071730042 4:0.23855682 5:0.17647059 6:0.146581 7:0.31450949 8:0.35215358 9:0.23037453 
0.001 1:0.17056588 2:0.10470412 3:0.14822425 4:0.31051166 5:0.17647059 6:0.2756275 7:0.17354309 8:0.10648422 9:0.12210397 
0.001 1:-0.027548432 2:0.024631133 3:0.15707657 4:0.16023599 5:0.17647059 6:0.25991701 7:0.22533613 8:0.29410663 9:0.31800968 
0.001 1:0.20668092 2:0.23435327 3:0.27525202 4:0.0060971817 5:0.17647059 6:0.078258793 7:0.16769735 8:0.22564604 9:0.21777912 
0.001 1:0.20576345 2:0.034685393 3:0.072116257 4:0.35303997 5:0.17647059 6:0.27236588 7:0.21298835 8:0.087372112 9:0.17343329 
0.001 1:0.048435157 2:0.074723661 3:-0.10023419 4:0.24060352 5:0.17647059 6:0.14378391 7:0.31468903 8:0.40898821 9:0.28077541 
0.001 1:0.025138408 2:0.019682331 3:-0.099830237 4:0.26119571 5:0.17647059 6:0.1646301 7:0.33015379 8:0.42462767 9:0.28616693 
0.001 1:0.055789934 2:0.068371841 3:-0.043789409 4:0.21285051 5:0.17647059 6:0.1606376 7:0.31304027 8:0.37139391 9:0.27347004 
0.001 1:0.066987472 2:0.033145218 3:0.070134204 4:0.40362131 5:0.17647059 6:0.37612661 7:0.19007946 8:0.11724643 9:0.15442401 
0.001 1:0.25564742 2:0.34879381 3:0.27091406 4:-0.16804397 5:0.17647059 6:0.029366853 7:0.18845294 8:0.3028598 9:0.1837738 
0.001 1:0.11849824 2:0.0082957466 3:0.064263413 4:0.278555 5:0.17647059 6:0.21728826 7:0.25304026 8:0.21522067 9:0.25660312 
0.001 1:-0.13519333 2:0.096244329 3:0.20010746 4:0.1260812 5:0.17647059 6:0.26655587 7:0.13421172 8:0.38022984 9:0.34352761 
0.001 1:0.12708864 2:0.040813025 3:0.12528122 4:0.3961443 5:0.17647059 6:0.3269697 7:0.13170775 8:0.13135292 9:0.13240716 
0.001 1:-0.14688909 2:-0.035624149 3:0.17689102 4:0.20235752 5:0.17647059 6:0.27711012 7:0.27449996 8:0.30144364 9:0.36197568 
0.001 1:0.18161079 2:0.33511721 3:0.16041037 4:-0.0010999805 5:0.17647059 6:-0.024598495 7:0.18775837 8:0.31628918 9:0.25627727 
0.001 1:0.1710761 2:0.35803861 3:0.31435386 4:-0.2919142 5:0.17647059 6:-0.02581939 7:0.22429825 8:0.34631845 9:0.31541304 
0.001 1:-0.021378575 2:-0.044980099 3:0.23561126 4:0.39350972 5:0.17647059 6:0.58376872 7:0.0022895951 8:-0.1586234 9:0.42156748 
0.001 1:0.24987983 2:-0.0047255924 3:-0.29940372 4:0.54998254 5:0.17647059 6:0.44672079 7:0.31132073 8:0.14839308 9:0.0095970562 
0.001 1:0.30242339 2:0.50513623 3:0.33953679 4:-0.51050801 5:0.17647059 6:-0.10561772 7:0.12782803 8:0.51700864 9:0.23595736 
0.001 1:0.18302331 2:0.35284243 3:0.35613092 4:-0.34479457 5:0.17647059 6:-0.014229329 7:0.18473232 8:0.41455982 9:0.27949979 
0.001 1:-0.32359193 2:-0.23401636 3:0.1885678 4:0.18527895 5:0.17647059 6:0.42926431 7:0.27296919 8:0.34914952 9:0.54414323 
0.001 1:0.3145753 2:0.51843282 3:0.45267031 4:-0.50658121 5:0.17647059 6:-0.29548551 7:0.21113595 8:0.41033063 9:0.3066864 
0.001 1:-0.011222396 2:0.0288433 3:0.16848951 4:0.15613896 5:0.17647059 6:0.27087416 7:0.21057267 8:0.28055338 9:0.30751512 
0.001 1:-0.076630264 2:0.027612867 3:0.18594546 4:0.14919609 5:0.17647059 6:0.25714196 7:0.20628232 8:0.32170651 9:0.34050977 
0.001 1:-0.060626538 2:0.13253924 3:0.041072625 4:0.098542802 5:0.17647059 6:0.18764119 7:0.2118388 8:0.29114118 9:0.22424313 
0.001 1:0.16421859 2:0.079046161 3:0.096832486 4:0.20711012 5:0.11764706 6:0.15171669 7:0.13570671 8:0.065030274 9:0.041515445 
0.001 1:0.12665409 2:0.15174892 3:0.14276834 4:0.039804145 5:0.11764706 6:0.072550949 7:0.12506323 8:0.14968877 9:0.13289803 
0.001 1:0.20218612 2:0.22394013 3:0.22181885 4:0.050985396 5:0.17647059 6:0.097397938 7:0.18707978 8:0.21534522 9:0.21301127 
0.001 1:0.067464433 2:0.065346031 3:0.082340115 4:0.22158658 5:0.11764706 6:0.19033958 7:0.11901906 8:0.094640919 9:0.10043975 
0.001 1:0.13123528 2:0.090217868 3:0.086517949 4:0.20999869 5:0.17647059 6:0.18191952 7:0.26070867 8:0.2160294 9:0.23513732 
0.001 1:0.085097602 2:0.042373946 3:0.026020376 4:0.13818245 5:0.11764706 6:0.10474237 7:0.1989487 8:0.16011987 9:0.18569115 
0.001 1:0.20276573 2:0.256043 3:0.21588603 4:0.035008404 5:0.17647059 6:0.062577076 7:0.20113614 8:0.25331629 9:0.18503203 
0.001 1:0.16205521 2:0.039418868 3:0.062610422 4:0.23475825 5:0.17647059 6:0.20299508 7:0.26435196 8:0.20199768 9:0.24357723 
0.001 1:0.15454436 2:0.060142553 3:0.10266393 4:0.38752145 5:0.17647059 6:0.33515857 7:0.1432217 8:0.091151641 9:0.13736051 
0.001 1:0.21936015 2:0.31104303 3:0.19004715 4:-0.0027942468 5:0.17647059 6:0.05733123 7:0.17729964 8:0.25218248 9:0.20729526 
0.001 1:0.17918808 2:0.05950559 3:0.14184048 4:0.31719113 5:0.17647059 6:0.28598663 7:0.18271622 8:0.086993109 9:0.15834346 
0.001 1:-0.1045007 2:-0.0022479208 3:0.1816143 4:0.14309089 5:0.17647059 6:0.29058427 7:0.22773372 8:0.32153033 9:0.35395982 
0.001 1:0.26820135 2:0.29245454 3:0.33668526 4:-0.086334165 5:0.17647059 6:-0.014217687 7:0.18381442 8:0.18148258 9:0.24967842 
0.001 1:0.18175493 2:0.24181561 3:0.23440605 4:0.0040196843 5:0.17647059 6:0.060927566 7:0.18861439 8:0.28373635 9:0.21649013 
0.001 1:0.043144138 2:0.10219465 3:0.26531135 4:0.22862974 5:0.17647059 6:0.36181454 7:0.065799885 8:0.078727744 9:0.26614267 
0.001 1:0.053791109 2:0.10683359 3:0.24749451 4:0.2440162 5:0.17647059 6:0.33992315 7:0.054280256 8:0.10045538 9:0.26497051 
0.001 1:-0.093236026 2:0.0029654904 3:0.20028804 4:0.12537795 5:0.17647059 6:0.29587692 7:0.2054207 8:0.31196222 9:0.36310941 
0.001 1:0.2173787 2:0.027109611 3:0.088293092 4:0.41038534 5:0.17647059 6:0.32607361 7:0.1274725 8:0.063795515 9:0.15125635 
0.001 1:-0.081506498 2:0.15867484 3:0.036082969 4:0.18293686 5:0.17647059 6:0.15260661 7:0.27320271 8:0.3493762 9:0.34039102 
0.001 1:0.17288165 2:0.013400956 3:0.11699233 4:0.32955293 5:0.17647059 6:0.35995342 7:0.17429366 8:0.11588316 9:0.1288066 
0.001 1:0.044097636 2:0.069748755 3:-0.1316692 4:0.23898806 5:0.17647059 6:0.19735419 7:0.32919625 8:0.36305571 9:0.3009933 
0.001 1:0.021859792 2:-0.10408954 3:0.10750609 4:0.49609392 5:0.17647059 6:0.48277131 7:0.19960258 8:0.14483823 9:0.063182329 
0.001 1:0.034992703 2:-0.058190033 3:-0.031696398 4:0.5916961 5:0.17647059 6:0.62336899 7:0.12635707 8:-0.0041574066 9:0.12939368 
0.001 1:-0.044219532 2:-0.20187349 3:-0.21623629 4:0.34957352 5:0.17647059 6:0.15539959 7:0.51349843 8:0.50465242 9:0.35097005 
0.001 1:-0.14430385 2:-0.19284324 3:-0.21224159 4:0.19174754 5:0.17647059 6:0.2601966 7:0.60378476 8:0.42673049 9:0.478694 
0.001 1:-0.0062748183 2:-0.18667719 3:-0.33175625 4:0.36736877 5:0.17647059 6:0.23225291 7:0.44408645 8:0.53090103 9:0.3618638 
0.001 1:0.30774369 2:0.50369743 3:0.35773032 4:-0.53836523 5:0.17647059 6:-0.040198791 7:0.14079041 8:0.45937854 9:0.22098834 
0.001 1:-0.10053274 2:-0.29015038 3:-0.23414461 4:0.33666418 5:0.17647059 6:0.30051656 7:0.5494565 8:0.38032254 9:0.46963266 
0.001 1:0.11918909 2:0.49120573 3:0.19287022 4:-0.38059523 5:0.17647059 6:-0.031849918 7:0.22273482 8:0.47471651 9:0.32349348 
0.00093442277914692099 1:0.34799846 2:0.48770136 3:0.4728215 4:-0.38398849 5:0.23529412 6:-0.12462386 7:0.23137223 8:0.44006857 9:0.41100318 
0.001 1:-0.088936149 2:-0.39630749 3:-0.0065225706 4:0.094106699 5:0.11764706 6:0.60831942 7:0.27951675 8:0.071995686 9:0.37900413 
0.001 1:0.091302703 2:0.092297891 3:0.21429414 4:0.22798257 5:0.17647059 6:0.31245891 7:0.11947281 8:0.11461748 9:0.2393382 
0.001 1:0.14037466 2:0.10018439 3:0.13268323 4:0.27476832 5:0.17647059 6:0.25591945 7:0.17300133 8:0.16155291 9:0.17328041 
0.001 1:0.23887979 2:0.091377909 3:-0.090719414 4:0.25907919 5:0.17647059 6:0.11857034 7:0.33747037 8:0.2629114 9:0.19419511 
0.001 1:0.21644591 2:0.25738836 3:0.22411613 4:0.019981273 5:0.17647059 6:0.11561678 7:0.16748902 8:0.2320773 9:0.17864993 
0.001 1:0.00068886623 2:0.037013131 3:0.11458377 4:0.1113235 5:0.11764706 6:0.16533313 7:0.14131521 8:0.17861626 9:0.1923026 
0.001 1:0.070044779 2:0.036284056 3:0.061642122 4:0.16467525 5:0.11764706 6:0.092911139 7:0.19381178 8:0.14593219 9:0.17587516 
0.001 1:0.052015908 2:0.055057178 3:0.071938368 4:0.23911692 5:0.11764706 6:0.2375982 7:0.083153824 8:0.11170955 9:0.090586513 
0.001 1:0.12410516 2:0.056604344 3:-0.091226163 4:0.23647539 5:0.17647059 6:0.1433112 7:0.33178539 8:0.36298659 9:0.24772278 
0.001 1:0.1886993 2:0.27642886 3:0.18552667 4:0.030412308 5:0.17647059 6:0.10114533 7:0.16073471 8:0.2663304 9:0.20248712 
0.001 1:0.080821962 2:-0.014189344 3:0.059128276 4:0.22009803 5:0.17647059 6:0.19784924 7:0.30227336 8:0.23802517 9:0.32775801 
0.001 1:0.14358617 2:0.074564394 3:0.14980643 4:0.29265956 5:0.17647059 6:0.3135328 7:0.19702187 8:0.10901132 9:0.13158217 
0.001 1:0.18367346 2:0.074238921 3:0.15497092 4:0.30705223 5:0.17647059 6:0.29751822 7:0.16512867 8:0.098069575 9:0.13111272 
0.001 1:0.19817235 2:0.071419217 3:0.094159363 4:0.32588455 5:0.17647059 6:0.31514919 7:0.17208703 8:0.10407724 9:0.13081576 
0.001 1:-0.11346812 2:-0.0020062964 3:0.18219142 4:0.15704214 5:0.17647059 6:0.28594794 7:0.24665583 8:0.31511067 9:0.34029111 
0.001 1:0.12006294 2:-0.020580063 3:0.025226848 4:0.21391413 5:0.17647059 6:0.17823614 7:0.34086096 8:0.22888407 9:0.32515968 
0.001 1:0.21290526 2:0.30691523 3:0.17746716 4:-0.027728209 5:0.17647059 6:0.045647417 7:0.18531288 8:0.29652278 9:0.21472221 
0.001 1:0.24587282 2:0.082651647 3:0.042623126 4:0.29576759 5:0.17647059 6:0.34058855 7:0.2289485 8:0.082735857 9:0.092576614 
0.001 1:0.14388142 2:0.044707524 3:0.1636869 4:0.35044015 5:0.17647059 6:0.28919112 7:0.21647878 8:0.097752218 9:0.1056266 
0.001 1:0.084548705 2:-0.016638351 3:0.036854669 4:0.46126481 5:0.17647059 6:0.46866012 7:0.18906991 8:0.047232529 9:0.14077231 
0.001 1:-0.1855284 2:-0.097741364 3:0.15503948 4:0.18513009 5:0.17647059 6:0.24882364 7:0.31330193 8:0.39962101 9:0.39311834 
0.001 1:0.24917099 2:0.19981559 3:0.17083856 4:0.45769436 5:0.17647059 6:0.31384998 7:0.040653886 8:-0.014027586 9:-0.0062310779 
0.001 1:-0.13881628 2:-0.24882762 3:-0.19047004 4:0.33068431 5:0.17647059 6:0.34018309 7:0.50545419 8:0.36504103 9:0.44851602 
0.001 1:0.28910342 2:0.48231261 3:0.37955882 4:-0.4601095 5:0.17647059 6:-0.12725103 7:0.19583329 8:0.37503319 9:0.27728391 
0.001 1:-0.13627422 2:-0.30139774 3:-0.21392672 4:0.2942945 5:0.17647059 6:0.28871716 7:0.53749971 8:0.42888186 9:0.51397014 
0.001 1:-0.14135339 2:-0.05953493 3:0.41399259 4:0.34369233 5:0.17647059 6:0.58144328 7:-0.096178681 8:-0.0095288184 9:0.37923232 
0.001 1:0.31509399 2:0.53707505 3:0.39061157 4:-0.63695535 5:0.17647059 6:-0.10791947 7:0.13700353 8:0.51803268 9:0.25882271 
0.001 1:0.0024415443 2:-0.18017779 3:-0.35838036 4:0.40670613 5:0.17647059 6:0.25950753 7:0.43420994 8:0.50191251 9:0.34554521 
0.001 1:-0.053555144 2:-0.21185747 3:-0.33291531 4:0.40422393 5:0.17647059 6:0.22513082 7:0.48901865 8:0.54598107 9:0.34573815 
0.001 1:0.078624817 2:0.0056243899 3:0.038042083 4:0.24582394 5:0.17647059 6:0.19390511 7:0.29834031 8:0.28145813 9:0.26994592 
0.001 1:0.17687769 2:0.31318319 3:0.20386055 4:-0.099361126 5:0.17647059 6:0.062077402 7:0.18103348 8:0.32179941 9:0.25229411 
0.001 1:0.1535442 2:0.070642504 3:-0.016923937 4:0.22560191 5:0.17647059 6:0.15521298 7:0.29160906 8:0.30468217 9:0.22739582 
0.001 1:0.21901319 2:0.2447983 3:0.20810413 4:0.040475167 5:0.17647059 6:0.10888503 7:0.18171024 8:0.22985758 9:0.17892107 
0.001 1:0.19777374 2:0.26394821 3:0.19264302 4:-0.085777091 5:0.17647059 6:0.026843168 7:0.24756734 8:0.30427886 9:0.26448746 
0.001 1:0.048201445 2:0.013544393 3:0.045931635 4:0.13755659 5:0.11764706 6:0.14240289 7:0.19850596 8:0.15157899 9:0.20345457 
0.001 1:0.17855134 2:0.21408117 3:0.21015954 4:0.081093375 5:0.17647059 6:0.12434258 7:0.17968275 8:0.22623714 9:0.19761681 
0.001 1:0.20321807 2:0.24505387 3:0.18826612 4:0.061337989 5:0.17647059 6:0.11410869 7:0.17233375 8:0.23203119 9:0.19541503 
0.001 1:0.1109382 2:0.090800538 3:0.097864746 4:0.1926068 5:0.11764706 6:0.19573999 7:0.075820717 8:0.10602879 9:0.071376688 
0.001 1:0.15581984 2:0.086441648 3:0.13760143 4:0.29931809 5:0.17647059 6:0.25541079 7:0.19871532 8:0.12616386 9:0.15229373 
0.001 1:0.20828538 2:0.075213527 3:0.14653931 4:0.27200598 5:0.17647059 6:0.2857494 7:0.1487242 8:0.097992156 9:0.17725475 
0.001 1:0.22470197 2:0.26954673 3:0.26880455 4:-0.068261459 5:0.17647059 6:0.03412966 7:0.19921412 8:0.23895023 9:0.2446789 
0.001 1:-0.035568668 2:0.029894451 3:0.17408176 4:0.15264948 5:0.17647059 6:0.26960709 7:0.19328623 8:0.2858841 9:0.34193027 
0.001 1:0.150492 2:-0.041626777 3:-0.013758753 4:0.22550238 5:0.17647059 6:0.18401556 7:0.32299224 8:0.2400537 9:0.34409434 
0.001 1:0.083275929 2:0.022183589 3:0.099518376 4:0.47932329 5:0.17647059 6:0.39175539 7:0.072717174 8:0.24062384 9:0.022367125 
0.001 1:0.22369427 2:0.17252787 3:0.22882566 4:0.37231117 5:0.17647059 6:0.34940344 7:0.04221522 8:-0.041750517 9:0.064537593 
0.001 1:0.21541414 2:0.05153209 3:0.12557486 4:0.31856559 5:0.17647059 6:0.27436546 7:0.1653187 8:0.12746761 9:0.13352626 
0.001 1:0.029734329 2:-0.14215849 3:-0.01117546 4:0.31251597 5:0.17647059 6:0.25884568 7:0.39706317 8:0.23326302 9:0.33367648 
0.001 1:0.1289785 2:-0.028676004 3:-0.072446283 4:0.33498265 5:0.17647059 6:0.072432749 7:0.39311455 8:0.27169041 9:0.31168813 
0.001 1:-0.12834603 2:-0.19956783 3:0.26212936 4:0.28509423 5:0.17647059 6:0.6489383 7:0.028397192 8:0.15131041 9:0.36380908 
0.001 1:0.02673494 2:-0.070453287 3:-0.032549178 4:0.64164774 5:0.17647059 6:0.50024697 7:0.13329528 8:0.052508845 9:0.1603334 
0.001 1:0.039592562 2:-0.051365064 3:0.11152045 4:0.50678458 5:0.17647059 6:0.53346531 7:0.1474964 8:0.075937473 9:0.048332994 
0.001 1:0.030385923 2:-0.048674426 3:-0.082088129 4:0.56122465 5:0.17647059 6:0.52359618 7:0.15467722 8:0.026949479 9:0.24569381 
0.001 1:-0.38670288 2:-0.32279367 3:0.16195755 4:0.18730921 5:0.17647059 6:0.49994893 7:0.31334072 8:0.39507601 9:0.56362882 
0.001 1:0.13365826 2:0.40062818 3:0.21865367 4:-0.35616511 5:0.17647059 6:-0.050341934 7:0.20999086 8:0.49942889 9:0.35591189 
0.001 1:-0.045440256 2:-0.25052104 3:-0.32455736 4:0.4071303 5:0.17647059 6:0.23176104 7:0.46080238 8:0.52919129 9:0.40339834 
0.001 1:-0.35718622 2:-0.30516934 3:0.16660498 4:0.18191335 5:0.17647059 6:0.41935131 7:0.30628587 8:0.44456134 9:0.55540341 
0.001 1:-0.031928573 2:-0.23495924 3:-0.32582022 4:0.4049116 5:0.17647059 6:0.21488943 7:0.49445005 8:0.5190549 9:0.37116675 
0.001 1:0.22219165 2:0.28141825 3:0.24524251 4:-0.12582495 5:0.17647059 6:0.02614887 7:0.16936336 8:0.31938662 9:0.2738384 
0.001 1:0.15931299 2:0.29801011 3:0.19072834 4:-0.059985096 5:0.17647059 6:0.084959277 7:0.19653074 8:0.30154824 9:0.2406601 
0.001 1:-0.14317326 2:-0.040060468 3:0.162492 4:0.14820872 5:0.17647059 6:0.30379597 7:0.24209025 8:0.35796243 9:0.38044907 
0.001 1:0.025294308 2:-0.29362412 3:0.2565809 4:0.33835814 5:0.11764706 6:0.64791089 7:-0.220818 8:-0.27638228 9:0.46385663 
0.001 1:0.40724693 2:0.12754018 3:-0.053936003 4:0.48810073 5:0.17647059 6:0.20552742 7:0.24147793 8:0.049672007 9:-0.053864491 
0.001 1:0.17888041 2:0.22714975 3:0.18191987 4:0.073639872 5:0.17647059 6:0.1257489 7:0.18629663 8:0.23363324 9:0.20449603 
0.001 1:0.21233472 2:0.23017017 3:0.22966637 4:0.049400675 5:0.17647059 6:0.091493002 7:0.18467738 8:0.21183048 9:0.2021919 
0.001 1:0.17001975 2:0.087039574 3:0.054500657 4:0.20377071 5:0.17647059 6:0.15152823 7:0.27152588 8:0.22423011 9:0.2491498 
0.001 1:0.15321275 2:0.12774226 3:0.15270882 4:0.24758499 5:0.17647059 6:0.25361207 7:0.15793578 8:0.14464358 9:0.17432445 
0.001 1:0.041556247 2:0.021588347 3:0.018350728 4:0.14290864 5:0.11764706 6:0.12452681 7:0.19894316 8:0.17965956 9:0.21364297 
0.001 1:0.34293747 2:0.23611961 3:0.36086172 4:-0.15344392 5:0.17647059 6:-0.016268454 7:0.14336157 8:0.21086105 9:0.28733566 
0.001 1:0.18552327 2:0.087995002 3:0.095306683 4:0.26598832 5:0.17647059 6:0.28073686 7:0.20817672 8:0.13322303 9:0.15481482 
0.001 1:0.14907451 2:0.023467072 3:0.081377093 4:0.24365333 5:0.17647059 6:0.1835523 7:0.26037416 8:0.20204633 9:0.26821992 
0.001 1:0.18600164 2:0.087178514 3:0.14642072 4:0.30943815 5:0.17647059 6:0.27596457 7:0.17035596 8:0.095924899 9:0.14048025 
0.001 1:0.1868062 2:0.06953165 3:0.14722092 4:0.32297941 5:0.17647059 6:0.29087911 7:0.15960207 8:0.089449986 9:0.14529536 
0.001 1:0.16861274 2:0.083890547 3:0.1792951 4:0.31731401 5:0.17647059 6:0.29434981 7:0.18200623 8:0.063539236 9:0.12275704 
0.001 1:-0.15411216 2:-0.088806115 3:0.0068758668 4:0.23664915 5:0.17647059 6:0.25455176 7:0.35664302 8:0.43747888 9:0.36248431 
0.001 1:0.24762548 2:0.23604899 3:0.33689212 4:-0.097786593 5:0.17647059 6:0.0022349832 7:0.22021477 8:0.23055106 9:0.2359839 
0.001 1:0.35191004 2:0.25999285 3:0.32374964 4:-0.048076355 5:0.17647059 6:0.11917579 7:0.096128218 8:0.19183025 9:0.11705429 
0.001 1:0.2215612 2:0.28833984 3:0.27632801 4:-0.12182235 5:0.17647059 6:0.018811494 7:0.18679598 8:0.26824307 9:0.27350746 
0.001 1:0.037680748 2:-0.15980715 3:-0.13142906 4:0.34976639 5:0.23529412 6:0.34791207 7:0.57509602 8:0.45707979 9:0.40605415 
0.001 1:0.1457777 2:-0.076766378 3:-0.084615805 4:0.54639651 5:0.17647059 6:0.47629073 7:0.13028433 8:0.064838014 9:0.20955959 
0.001 1:0.012530221 2:-0.17298858 3:-0.20513597 4:0.33853584 5:0.17647059 6:0.17699603 7:0.47683317 8:0.47424357 9:0.31075043 
0.001 1:0.020750266 2:-0.036451421 3:-0.083033761 4:0.52866524 5:0.17647059 6:0.55039637 7:0.15253756 8:0.099071739 9:0.17982872 
0.001 1:0.13091307 2:0.071262417 3:0.02682525 4:0.45950224 5:0.17647059 6:0.47449353 7:0.064908782 8:0.019421833 9:0.16443758 
0.001 1:-0.10306266 2:-0.21196723 3:-0.1680564 4:0.37714773 5:0.23529412 6:0.32566382 7:0.60700793 8:0.46267541 9:0.59294434 
0.001 1:0.28818782 2:0.41401523 3:0.42830385 4:-0.37111982 5:0.17647059 6:-0.24800323 7:0.20267008 8:0.36499217 9:0.3327186 
0.001 1:-0.17045521 2:-0.3211741 3:-0.22018682 4:0.3395709 5:0.17647059 6:0.27658623 7:0.56755823 8:0.42664275 9:0.51322271 
0.001 1:0.23942734 2:0.28920789 3:0.30947817 4:0.022445429 5:0.17647059 6:0.10069271 7:0.13972997 8:0.1292628 9:0.18152041 
0.001 1:0.24345976 2:0.19214108 3:0.22962646 4:0.31288266 5:0.17647059 6:0.27541876 7:0.070486811 8:0.020385004 9:0.067364164 
0.001 1:0.60875982 2:0.81196131 3:0.51158119 4:-0.45923858 5:0.17647059 6:-0.093301729 7:-0.1946704 8:0.14176296 9:0.084910147 
0.001 1:0.036594282 2:-0.20084163 3:-0.27836957 4:0.44899856 5:0.23529412 6:0.30984649 7:0.55465083 8:0.59747299 9:0.41400099 
0.00098324992922759705 1:-0.0078773275 2:-0.23231571 3:-0.26897527 4:0.43343034 5:0.23529412 6:0.33494117 7:0.54563984 8:0.60582998 9:0.47167991 
0.001 1:0.13292005 2:0.13700967 3:0.14933758 4:0.28891844 5:0.17647059 6:0.3004144 7:0.075313175 8:0.19260431 9:0.13524708 
0.001 1:0.13702017 2:0.12021971 3:0.071430844 4:0.20587795 5:0.17647059 6:0.17488814 7:0.23177408 8:0.25606731 9:0.21448649 
0.001 1:0.084776943 2:0.053576677 3:0.095622586 4:0.20138187 5:0.11764706 6:0.20011777 7:0.1273501 8:0.085389763 9:0.09296076 
0.001 1:0.074284613 2:0.06666524 3:0.24947674 4:0.23578584 5:0.17647059 6:0.34113007 7:0.093285814 8:0.095124258 9:0.25601213 
0.001 1:0.19715679 2:0.082448618 3:0.066537438 4:0.28692522 5:0.17647059 6:0.32939647 7:0.188828 8:0.11649951 9:0.14397266 
0.001 1:0.070731145 2:0.099561711 3:-0.033313183 4:0.2165031 5:0.17647059 6:0.18106845 7:0.28060304 8:0.34446401 9:0.25214644 
0.001 1:0.11928633 2:-0.0012664731 3:0.020274956 4:0.22390667 5:0.17647059 6:0.17134134 7:0.31059354 8:0.24695342 9:0.32067492 
0.001 1:0.21370653 2:0.28092127 3:0.3198059 4:-0.055065377 5:0.17647059 6:0.01725736 7:0.16053302 8:0.23475412 9:0.23985188 
0.001 1:0.21359967 2:0.20879414 3:0.27430977 4:-0.1129737 5:0.17647059 6:0.023097885 7:0.23048363 8:0.29930096 9:0.27515236 
0.001 1:-0.0079039707 2:0.18413924 3:0.10097677 4:0.13359121 5:0.17647059 6:0.18536691 7:0.22052363 8:0.28958353 9:0.30548739 
0.001 1:0.28777074 2:0.088336484 3:0.025638369 4:0.45404977 5:0.17647059 6:0.38350054 7:0.22075148 8:-0.0035289029 9:-0.044753773 
0.001 1:0.082802556 2:-0.063063242 3:-0.011809843 4:0.56734247 5:0.17647059 6:0.52034726 7:0.10210893 8:0.072385825 9:0.14165075 
0.001 1:0.30892476 2:0.29753392 3:0.26705107 4:-0.19945387 5:0.17647059 6:0.040069206 7:0.16436467 8:0.22865162 9:0.30462333 
0.001 1:0.067138359 2:-0.057591424 3:0.12256345 4:0.44027035 5:0.17647059 6:0.40627907 7:0.24068833 8:0.10439961 9:0.088016956 
0.001 1:0.22667301 2:0.50607528 3:0.21495484 4:-0.51037611 5:0.11764706 6:-0.11816293 7:0.1579434 8:0.33902203 9:0.12504694 
0.001 1:0.30174484 2:0.47561624 3:0.41190721 4:-0.44745545 5:0.17647059 6:-0.24628099 7:0.24512513 8:0.39080794 9:0.28029979 
0.001 1:-0.16654805 2:-0.26395277 3:-0.20591396 4:0.37684053 5:0.17647059 6:0.21161958 7:0.54479446 8:0.40882968 9:0.50609523 
0.001 1:-0.068263355 2:-0.23548436 3:-0.146916 4:0.37277494 5:0.23529412 6:0.31903994 7:0.60465863 8:0.47098699 9:0.56555615 
0.001 1:0.069440598 2:0.030411063 3:0.062306971 4:0.48988552 5:0.17647059 6:0.51438528 7:0.12032643 8:0.081077701 9:0.043931134 
0.001 1:0.30303988 2:0.53240177 3:0.36911183 4:-0.53609882 5:0.17647059 6:-0.080070057 7:0.13818015 8:0.47626949 9:0.20893047 
0.001 1:-0.1647753 2:-0.32729351 3:-0.33063867 4:0.35266904 5:0.17647059 6:0.19338702 7:0.65395954 8:0.46140646 9:0.57305013 
0.001 1:0.04696028 2:-0.20295185 3:-0.28850255 4:0.45965504 5:0.23529412 6:0.30496739 7:0.54956039 8:0.57611159 9:0.43655265 
0.001 1:0.018129894 2:-0.16450369 3:-0.25761575 4:0.42085205 5:0.23529412 6:0.28269504 7:0.54199514 8:0.60176112 9:0.43903913 
0.001 1:0.39406102 2:0.61341204 3:0.45058612 4:-0.53715757 5:0.23529412 6:-0.043614667 7:0.19153877 8:0.51822053 9:0.2953067 
0.001 1:-0.26512452 2:-0.03111627 3:0.084216995 4:0.19621041 5:0.17647059 6:0.39040233 7:0.26776781 8:0.35746834 9:0.41193962 
0.001 1:0.13106145 2:0.19471835 3:0.14166751 4:-0.0056165542 5:0.11764706 6:0.065831566 7:0.12169159 8:0.15880929 9:0.13301326 
0.001 1:0.056416479 2:0.056676623 3:0.17381213 4:0.17945395 5:0.17647059 6:0.23408652 7:0.20507402 8:0.24777321 9:0.25847179 
0.001 1:0.15915692 2:0.13145211 3:0.14472268 4:0.25232769 5:0.17647059 6:0.24402808 7:0.17308342 8:0.15005992 9:0.1569339 
0.001 1:0.21734073 2:0.25044076 3:0.22709137 4:0.021735631 5:0.17647059 6:0.055279024 7:0.17530571 8:0.26870897 9:0.19586251 
0.001 1:0.23348231 2:0.25872718 3:0.23718694 4:-0.00080104729 5:0.17647059 6:0.028755972 7:0.18625353 8:0.24549913 9:0.22266069 
0.001 1:0.21557192 2:0.25867618 3:0.28963459 4:0.033307216 5:0.17647059 6:0.07110647 7:0.15278238 8:0.21788218 9:0.17280376 
0.001 1:0.066143484 2:0.12686375 3:0.25677047 4:0.21364627 5:0.17647059 6:0.33121769 7:-0.0007131687 8:0.10876376 9:0.30907245 
0.001 1:0.19412551 2:0.14487792 3:0.10146871 4:0.29755544 5:0.17647059 6:0.25247394 7:0.14768241 8:0.18792116 9:0.085659614 
0.001 1:0.17210774 2:0.068056419 3:0.078100185 4:0.27410362 5:0.17647059 6:0.092481153 7:0.29587025 8:0.187764 9:0.24328134 
0.001 1:0.045988839 2:0.055510356 3:-0.15641645 4:0.25725697 5:0.17647059 6:0.2199167 7:0.30939398 8:0.40185374 9:0.27826057 
0.001 1:0.28789357 2:0.3896824 3:0.2248112 4:-0.12272861 5:0.17647059 6:-0.025426959 7:0.20553245 8:0.27837867 9:0.173622 
0.001 1:-0.29020802 2:-0.17568666 3:0.17586514 4:0.19540681 5:0.17647059 6:0.40741161 7:0.26424969 8:0.30849031 9:0.52623583 
0.001 1:0.17396012 2:0.0055070774 3:-0.032100051 4:0.45335959 5:0.17647059 6:0.39269634 7:0.073985967 8:0.049739685 9:0.29461598 
0.001 1:0.1450358 2:0.38601797 3:0.28820317 4:-0.2355165 5:0.17647059 6:-0.046778268 7:0.26177257 8:0.35984684 9:0.25318313 
0.001 1:0.34500737 2:-0.044434227 3:-0.27912236 4:0.48362273 5:0.17647059 6:0.4237053 7:0.22883992 8:0.12240283 9:0.13174316 
0.001 1:-0.052286316 2:-0.19253952 3:-0.11310504 4:0.27530824 5:0.23529412 6:0.40896402 7:0.55166267 8:0.44880689 9:0.55554199 
0.001 1:0.24878593 2:0.32852526 3:0.35132876 4:-0.28016021 5:0.17647059 6:-0.039142246 7:0.12605765 8:0.4184441 9:0.25792547 
0.001 1:-0.0020192135 2:-0.18691642 3:-0.27866716 4:0.36274909 5:0.17647059 6:0.25637089 7:0.44126571 8:0.47872796 9:0.34025385 
0.001 1:-0.14389627 2:-0.24106775 3:-0.21539214 4:0.29236296 5:0.17647059 6:0.25345489 7:0.52432742 8:0.42948638 9:0.51248921 
0.001 1:0.34553113 2:0.38780391 3:0.25891855 4:-0.41757388 5:0.17647059 6:-0.067250823 7:0.27235812 8:0.41570431 9:0.21627338 
0.001 1:0.11059531 2:-0.061037041 3:-0.27146295 4:0.46424285 5:0.17647059 6:0.52601169 7:0.33985822 8:0.2186216 9:0.084935039 
0.001 1:-0.071357547 2:-0.14477418 3:-0.27896353 4:0.35128024 5:0.17647059 6:0.18821555 7:0.43050096 8:0.55318676 9:0.38367647 
0.001 1:0.21471339 2:0.3325746 3:0.28552641 4:0.041613147 5:0.17647059 6:-0.0035061141 7:0.11930188 8:0.26048598 9:0.16105542 
0.001 1:0.05949905 2:0.094482668 3:0.17964268 4:0.17271365 5:0.17647059 6:0.24047259 7:0.19141785 8:0.21725753 9:0.2562787 
0.001 1:0.084747166 2:0.092375861 3:0.076352734 4:0.19794998 5:0.11764706 6:0.20922622 7:0.097161279 8:0.086628604 9:0.096734622 
0.001 1:0.15807275 2:0.20861583 3:0.15000693 4:-0.019852761 5:0.11764706 6:0.054916697 7:0.085790693 8:0.16252856 9:0.14109777 
0.001 1:0.30536632 2:0.2304267 3:0.34068432 4:-0.16186155 5:0.17647059 6:0.022952379 7:0.14481068 8:0.22405649 9:0.30532936 
0.001 1:0.19550251 2:0.064026571 3:0.09626578 4:0.35322004 5:0.17647059 6:0.29139887 7:0.19026985 8:0.073223012 9:0.14785808 
0.001 1:0.20214655 2:0.082517772 3:0.086771748 4:0.27764904 5:0.17647059 6:0.28488463 7:0.25154775 8:0.086624045 9:0.13962318 
0.001 1:0.22447354 2:0.27167548 3:0.1925805 4:0.016214252 5:0.17647059 6:0.060448613 7:0.17939859 8:0.25960383 9:0.20736989 
0.001 1:0.1147324 2:0.032461944 3:0.056991013 4:0.39502421 5:0.17647059 6:0.36652884 7:0.17631926 8:0.099865365 9:0.16984168 
0.001 1:0.13962844 2:0.029187423 3:0.07057279 4:0.39350273 5:0.17647059 6:0.33979228 7:0.18306275 8:0.092633872 9:0.16338441 
0.001 1:0.12331824 2:0.022723806 3:0.07861002 4:0.40143144 5:0.17647059 6:0.359206 7:0.19272975 8:0.086072481 9:0.14767297 
0.001 1:0.22355563 2:0.052501478 3:-0.02227864 4:0.3476616 5:0.17647059 6:0.33661671 7:0.23818164 8:0.096530953 9:0.13899533 
0.001 1:0.14089683 2:0.012101515 3:0.16502065 4:0.27277708 5:0.17647059 6:0.36321949 7:0.23034668 8:0.11326788 9:0.11413457 
0.001 1:0.14866246 2:-0.051804882 3:0.0095009974 4:0.2986738 5:0.17647059 6:0.34130783 7:0.27725864 8:0.1389984 9:0.24916746 
0.001 1:0.2893435 2:0.41340069 3:0.37495723 4:-0.30043801 5:0.17647059 6:-0.16811021 7:0.24018843 8:0.35507694 9:0.20734615 
0.001 1:0.09238821 2:0.019652445 3:-0.054149394 4:0.52700415 5:0.17647059 6:0.55228688 7:0.15781731 8:-0.0042364322 9:0.12100154 
0.001 1:-0.086175402 2:-0.040102181 3:0.33871267 4:0.32377582 5:0.17647059 6:0.58302894 7:0.0015596232 8:-0.058043409 9:0.34900864 
0.001 1:-0.022236327 2:-0.14684448 3:-0.2435281 4:0.37675657 5:0.17647059 6:0.21644697 7:0.44846449 8:0.44499587 9:0.33770972 
0.001 1:0.14110452 2:0.34980226 3:0.1687015 4:-0.24243455 5:0.17647059 6:0.012749456 7:0.2045375 8:0.43839035 9:0.33891366 
0.001 1:0.32126999 2:0.45207497 3:0.28751768 4:-0.39795379 5:0.17647059 6:-0.061345262 7:0.16368947 8:0.39931549 9:0.24719616 
0.001 1:0.11064426 2:0.069222688 3:0.03809112 4:0.44159789 5:0.17647059 6:0.5017328 7:0.086057355 8:0.11823438 9:0.046184212 
0.001 1:0.016853639 2:-0.17209227 3:-0.26508672 4:0.43322866 5:0.23529412 6:0.2822286 7:0.55315227 8:0.60123901 9:0.43282975 
0.001 1:-0.1066692 2:-0.22494658 3:-0.13251304 4:0.37280495 5:0.23529412 6:0.36071075 7:0.60531369 8:0.45282713 9:0.55482524 
0.001 1:0.05927795 2:0.087049872 3:0.17261299 4:0.17159473 5:0.17647059 6:0.22990655 7:0.20697163 8:0.23245255 9:0.25189844 
0.001 1:0.19537014 2:0.2232065 3:0.20366837 4:0.075534893 5:0.17647059 6:0.11240541 7:0.18049913 8:0.20746807 9:0.2136122 
0.001 1:0.22473489 2:0.25432211 3:0.21148062 4:0.026082718 5:0.17647059 6:0.10018114 7:0.1804222 8:0.2344274 9:0.18011363 
0.001 1:0.079949755 2:0.12102528 3:0.085831812 4:0.23526414 5:0.11764706 6:0.20874535 7:0.084946914 8:0.12345631 9:0.0019569029 
0.001 1:0.12305093 2:0.059972399 3:0.11256906 4:0.35226975 5:0.17647059 6:0.32104664 7:0.17122852 8:0.10498341 9:0.16664399 
0.001 1:-0.015629015 2:0.062753645 3:0.18019232 4:0.14371069 5:0.17647059 6:0.23343427 7:0.21178922 8:0.29752191 9:0.29799166 
0.001 1:0.1857492 2:0.068042382 3:0.0661725 4:0.32382441 5:0.17647059 6:0.30279692 7:0.23422756 8:0.094736799 9:0.13621495 
0.001 1:0.07083589 2:0.067992841 3:-0.016568376 4:0.25472633 5:0.17647059 6:0.19752044 7:0.25936105 8:0.3307346 9:0.24716192 
0.001 1:0.20550476 2:0.24906383 3:0.26531357 4:0.01720453 5:0.17647059 6:0.068006561 7:0.17666264 8:0.21897156 9:0.21103727 
0.001 1:0.23574742 2:0.26218299 3:0.26008501 4:-0.011096657 5:0.17647059 6:0.10266024 7:0.16139706 8:0.243947 9:0.15684164 
0.001 1:0.21965839 2:0.056256115 3:0.01972677 4:0.3297515 5:0.17647059 6:0.3404152 7:0.21587548 8:0.07926923 9:0.15081202 
0.001 1:0.27613185 2:0.32046615 3:0.20697106 4:-0.026619415 5:0.17647059 6:0.070522626 7:0.18344918 8:0.23936353 9:0.14147972 
0.001 1:0.22371993 2:0.28055643 3:0.2938846 4:-0.13673483 5:0.17647059 6:0.030569918 7:0.22219988 8:0.25319483 9:0.24437396 
0.001 1:0.19683275 2:0.1142202 3:0.009419702 4:0.36407685 5:0.17647059 6:0.37467348 7:0.17933097 8:0.15535892 9:0.017851842 
0.001 1:0.26615548 2:0.33666967 3:0.32262851 4:-0.1947224 5:0.17647059 6:-0.025157586 7:0.17754029 8:0.27184142 9:0.25680933 
0.001 1:0.17404919 2:0.29318691 3:0.177693 4:0.01346642 5:0.17647059 6:0.08204701 7:0.26552974 8:0.20764033 9:0.1981521 
0.001 1:0.093439032 2:0.044077658 3:-0.0046815762 4:0.4112503 5:0.17647059 6:0.43382455 7:0.26872424 8:0.084111895 9:0.081018612 
0.001 1:0.11890456 2:0.30528731 3:0.24092413 4:-0.060605182 5:0.17647059 6:0.022169128 7:0.23850753 8:0.33356981 9:0.21300743 
0.001 1:-0.047299292 2:-0.10267192 3:0.24495451 4:0.3127357 5:0.17647059 6:0.57365264 7:0.092560244 8:-0.0057452469 9:0.34357807 
0.001 1:-0.028892601 2:-0.20465629 3:-0.14316794 4:0.30402748 5:0.17647059 6:0.20428172 7:0.51675359 8:0.28607053 9:0.47734822 
0.001 1:0.31979531 2:0.33847806 3:0.38743338 4:-0.35131528 5:0.17647059 6:-0.10667903 7:0.20576819 8:0.35006204 9:0.26822203 
0.001 1:0.19762264 2:0.30288281 3:0.27820745 4:-0.19142952 5:0.17647059 6:0.031356445 7:0.20923144 8:0.34974121 9:0.23415222 
0.001 1:0.28591956 2:0.44352681 3:0.31847495 4:-0.34658873 5:0.17647059 6:-0.031495191 7:0.14836395 8:0.29092594 9:0.30263742 
0.001 1:0.13816179 2:0.11068563 3:0.23784442 4:0.34028681 5:0.17647059 6:0.52104718 7:0.031042703 8:-0.18588357 9:0.21857974 
0.001 1:-0.057027331 2:-0.23741434 3:0.27523499 4:0.28132072 5:0.17647059 6:0.68127054 7:-0.10920975 8:0.073895716 9:0.50369416 
0.00080465184599250649 1:0.024036893 2:-0.1338622 3:-0.24744539 4:0.41042668 5:0.23529412 6:0.26246075 7:0.53126724 8:0.59230623 9:0.44316274 
0.001 1:0.23771997 2:0.18629967 3:0.21543612 4:-0.12062865 5:0.17647059 6:0.020629556 7:0.24294101 8:0.271548 9:0.35781904 
0.001 1:0.020480169 2:0.017894916 3:0.20211352 4:0.139205 5:0.11764706 6:0.24050312 7:0.056170535 8:0.067134908 9:0.19767431 
0.001 1:0.18111003 2:0.21277423 3:0.20701025 4:0.088668525 5:0.17647059 6:0.12636533 7:0.17826353 8:0.21953862 9:0.19803419 
0.001 1:0.056482662 2:0.090852754 3:0.18244693 4:0.15343884 5:0.11764706 6:0.21403461 7:0.063511555 8:0.043158705 9:0.13725043 
0.001 1:0.014351336 2:0.059893981 3:0.21415322 4:0.25782213 5:0.17647059 6:0.37531763 7:0.088985013 8:0.13306146 9:0.26817993 
0.001 1:-0.0030013536 2:0.066225868 3:0.17469003 4:0.16569864 5:0.17647059 6:0.22866158 7:0.21791279 8:0.26222121 9:0.29935595 
0.001 1:0.12514013 2:0.059367159 3:0.1100482 4:0.35314402 5:0.17647059 6:0.32619995 7:0.19848434 8:0.10584498 9:0.13353593 
0.001 1:0.18172552 2:0.078402023 3:0.14594132 4:0.28654987 5:0.17647059 6:0.30527482 7:0.18258007 8:0.10151402 9:0.12977705 
0.001 1:0.15705258 2:0.023167341 3:0.065748519 4:0.3329528 5:0.17647059 6:0.32521108 7:0.25461465 8:0.12067091 9:0.13234682 
0.001 1:0.18628419 2:0.092277614 3:0.15886712 4:0.31300384 5:0.17647059 6:0.29214582 7:0.15904596 8:0.091350908 9:0.11878926 
0.001 1:0.2542932 2:0.18726412 3:0.24881831 4:0.35517273 5:0.17647059 6:0.34904988 7:0.039903195 8:-0.04483243 9:0.02209569 
0.001 1:0.11695544 2:-0.0016649103 3:-0.03127844 4:0.22716512 5:0.17647059 6:0.16401248 7:0.32557735 8:0.26294837 9:0.3480493 
0.001 1:-0.036395481 2:0.0062675135 3:0.15871025 4:0.096856048 5:0.17647059 6:0.29829641 7:0.18635942 8:0.33801742 9:0.36365312 
0.001 1:0.15678165 2:0.010218555 3:0.28311622 4:0.28114702 5:0.17647059 6:0.38820727 7:-0.11914548 8:0.049259515 9:0.36217995 
0.001 1:0.24004014 2:0.2932106 3:0.3278627 4:-0.21954979 5:0.17647059 6:-0.089914084 7:0.2641498 8:0.30073411 9:0.29523123 
0.001 1:0.31627367 2:0.41539159 3:0.29845364 4:-0.25681999 5:0.17647059 6:-0.032017374 7:0.18593965 8:0.31858601 9:0.16595751 
0.001 1:0.12301817 2:0.010755184 3:0.19075967 4:0.41676344 5:0.17647059 6:0.45031765 7:0.10526642 8:0.013362419 9:0.10152177 
0.001 1:0.33883135 2:0.46671784 3:0.34547835 4:-0.28188691 5:0.23529412 6:0.0034750405 7:0.29378438 8:0.4445598 9:0.2713931 
0.001 1:0.060988405 2:-0.010688005 3:-0.17268929 4:0.33265201 5:0.23529412 6:0.1982393 7:0.48695708 8:0.57159372 9:0.41529973 
0.001 1:0.0095810238 2:-0.09468097 3:-0.007675843 4:0.5811103 5:0.17647059 6:0.44324665 7:0.25761754 8:0.090132491 9:0.13243352 
0.001 1:0.30070991 2:0.37417839 3:0.27712587 4:-0.2862939 5:0.17647059 6:-0.10149382 7:0.20056441 8:0.39733094 9:0.2496429 
2.4264250631008836e-05 1:0.40238971 2:0.51135647 3:0.31619144 4:-0.19913157 5:0.23529412 6:-0.0064713499 7:0.25771912 8:0.37470078 9:0.22559835 
0.001 1:-0.26682819 2:-0.16499536 3:0.18020632 4:0.19881022 5:0.17647059 6:0.36453896 7:0.26899752 8:0.41077044 9:0.4202648 
0.001 1:0.37287784 2:0.27174619 3:0.38025121 4:0.11006496 5:0.17647059 6:-0.30817917 7:0.37453939 8:0.090441104 9:0.12002319 
0.001 1:0.46115952 2:0.55316505 3:0.39020471 4:-0.43889902 5:0.23529412 6:-0.066845633 7:0.22310023 8:0.47407346 9:0.28639462 
0.001 1:0.32757012 2:0.50610375 3:0.44869268 4:-0.31648195 5:0.23529412 6:-0.13803179 7:0.25275528 8:0.42966177 9:0.3720831 
0.001 1:-0.072267915 2:-0.1943787 3:-0.1140429 4:0.33783407 5:0.23529412 6:0.35029709 7:0.59033828 8:0.45268148 9:0.53189154 
0.001 1:-0.1170266 2:-0.22483892 3:-0.13749157 4:0.35261597 5:0.23529412 6:0.33503105 7:0.6203277 8:0.48743812 9:0.56629718 
0.001 1:0.12472887 2:-0.083259116 3:-0.21324358 4:0.30415007 5:0.17647059 6:0.15164804 7:0.41902025 8:0.31077104 9:0.39794913 
0.001 1:0.33424434 2:0.19479815 3:0.11020294 4:0.43207249 5:0.17647059 6:0.42580463 7:-0.078163804 8:-0.13057731 9:0.12338327 
0.001 1:-0.0046719439 2:0.030125368 3:0.16938104 4:0.17805738 5:0.11764706 6:0.20271996 7:-0.043230618 8:0.2383858 9:0.17040948 
0.001 1:0.058918682 2:0.10026965 3:0.17681784 4:0.16645253 5:0.17647059 6:0.22166121 7:0.20114177 8:0.23526042 9:0.2512426 
0.001 1:0.19265143 2:0.22026789 3:0.20571807 4:0.093457656 5:0.17647059 6:0.12373481 7:0.1754141 8:0.20473317 9:0.19578757 
0.001 1:0.24990363 2:0.28356245 3:0.21992135 4:-0.014626117 5:0.17647059 6:0.046933208 7:0.19468051 8:0.25567316 9:0.17571651 
0.001 1:0.1199342 2:0.039423692 3:0.09620749 4:0.37849652 5:0.17647059 6:0.35090482 7:0.17491046 8:0.086281359 9:0.16560616 
0.001 1:0.1348796 2:0.026347049 3:0.059639732 4:0.25623328 5:0.17647059 6:0.13324671 7:0.29599355 8:0.2187511 9:0.28667368 
0.001 1:0.25274963 2:0.30021255 3:0.23452442 4:-0.094069982 5:0.17647059 6:0.025297317 7:0.20992284 8:0.29373898 9:0.18938895 
0.001 1:0.2361807 2:0.31799191 3:0.1969793 4:-0.014849278 5:0.17647059 6:0.049501889 7:0.17398183 8:0.25157589 9:0.20040247 
0.001 1:0.17374068 2:0.038942441 3:0.14627653 4:0.32502146 5:0.17647059 6:0.44565882 7:0.08718569 8:0.0067914535 9:0.18814763 
0.001 1:0.30406945 2:0.0732674 3:0.027773503 4:0.39497438 5:0.17647059 6:0.39831207 7:0.2062942 8:0.034420955 9:-0.027347259 
0.001 1:-0.031673599 2:0.04675726 3:0.24953988 4:0.24283368 5:0.17647059 6:0.38871911 7:0.086703509 8:0.12604015 9:0.30284471 
0.001 1:-0.011285534 2:0.039029437 3:-0.079710547 4:0.30424605 5:0.17647059 6:0.16500279 7:0.33403338 8:0.38756836 9:0.27288077 
0.001 1:-0.17529212 2:-0.055657678 3:0.18131289 4:0.12528833 5:0.17647059 6:0.33212484 7:0.25180823 8:0.32318717 9:0.42899304 
0.001 1:0.19557209 2:0.31733832 3:0.27150806 4:-0.24324114 5:0.17647059 6:-0.017238356 7:0.17098358 8:0.39813942 9:0.31870274 
0.001 1:0.049026823 2:-0.042436578 3:-0.11775817 4:0.25558888 5:0.17647059 6:0.17549335 7:0.32748903 8:0.46790305 9:0.29645832 
0.001 1:0.0097268158 2:-0.12754816 3:-0.12926352 4:0.3784013 5:0.17647059 6:0.17867944 7:0.42225933 8:0.27943953 9:0.40006997 
0.001 1:0.019335614 2:0.14113333 3:0.27158957 4:-0.096218355 5:0.17647059 6:0.22168736 7:0.24487115 8:0.28373941 9:0.32562663 
0.001 1:-0.074148119 2:-0.16320184 3:0.037701597 4:0.29652861 5:0.17647059 6:0.25479504 7:0.50291799 8:0.21821088 9:0.33896054 
0.001 1:0.28066322 2:0.39846415 3:0.31541724 4:-0.28103815 5:0.17647059 6:-0.087044253 7:0.12469407 8:0.34555777 9:0.31505066 
0.001 1:0.24190106 2:0.32967781 3:0.36111294 4:-0.24902548 5:0.17647059 6:-0.06925718 7:0.19422282 8:0.2963682 9:0.30676455 
0.001 1:-0.024681826 2:-0.049329446 3:-0.18611063 4:0.22330886 5:0.17647059 6:0.20102903 7:0.35703491 8:0.50973648 9:0.38077732 
0.001 1:-0.10256552 2:-0.19057793 3:-0.14155646 4:0.3692028 5:0.23529412 6:0.34061596 7:0.60101371 8:0.45360455 9:0.55261583 
0.001 1:-0.095264203 2:-0.19905635 3:-0.16861381 4:0.4032301 5:0.23529412 6:0.33308754 7:0.60714715 8:0.47481132 9:0.52701119 
0.001 1:0.33907508 2:0.20739669 3:0.17412883 4:0.15807981 5:0.17647059 6:-0.13716195 7:0.2586908 8:0.22581027 9:0.18574516 
0.001 1:0.072766928 2:0.20875082 3:0.026738972 4:0.10168 5:0.17647059 6:0.014019309 7:0.30658191 8:0.37666268 9:0.30456409 
0.001 1:0.10553986 2:0.06321205 3:-0.012769144 4:0.50067596 5:0.17647059 6:0.53176824 7:0.098231958 8:0.062254538 9:0.062851238 
0.001 1:0.18770939 2:0.23863759 3:0.19213522 4:0.065928241 5:0.17647059 6:0.12549156 7:0.17503262 8:0.22400171 9:0.20282838 
0.001 1:0.074803895 2:0.05455032 3:0.016571307 4:0.14428882 5:0.11764706 6:0.12113361 7:0.16951042 8:0.21221856 9:0.14809955 
0.001 1:0.16769062 2:0.063843899 3:0.14182393 4:0.34810189 5:0.17647059 6:0.34574012 7:0.16405883 8:0.081962978 9:0.098542427 
0.001 1:-0.083904371 2:-0.00026392213 3:0.1654309 4:0.15814278 5:0.17647059 6:0.28224942 7:0.24905882 8:0.30895543 9:0.33209565 
0.001 1:0.19215183 2:0.055255068 3:0.064716866 4:0.32836151 5:0.17647059 6:0.29366352 7:0.2320505 8:0.11967032 9:0.1258951 
0.001 1:0.23507748 2:0.26860336 3:0.18391751 4:-0.0070853378 5:0.17647059 6:0.070157122 7:0.16866174 8:0.28333964 9:0.20909319 
0.001 1:-0.066335748 2:0.042919887 3:0.18022813 4:0.1832565 5:0.17647059 6:0.2785693 7:0.20234084 8:0.27784698 9:0.31293882 
0.001 1:0.3491994 2:0.4156749 3:0.27996565 4:-0.52131965 5:0.23529412 6:-0.098117513 7:0.28864625 8:0.32275725 9:0.17025943 
0.001 1:0.082429062 2:-0.0010733808 3:0.028837684 4:0.16595789 5:0.17647059 6:0.16168932 7:0.36255287 8:0.26898231 9:0.34238895 
0.001 1:0.024134977 2:0.069575966 3:-0.12042969 4:0.22870392 5:0.17647059 6:0.19146981 7:0.32319307 8:0.37343984 9:0.32167681 
0.001 1:0.11965549 2:-0.050953389 3:-0.098341952 4:0.31763513 5:0.17647059 6:0.16819303 7:0.39350674 8:0.24422765 9:0.31784201 
0.001 1:0.096413614 2:-0.021861225 3:-0.033120946 4:0.26965729 5:0.17647059 6:0.15597086 7:0.33687839 8:0.36492371 9:0.24290303 
0.001 1:0.2831429 2:0.48075302 3:0.24730144 4:-0.36021298 5:0.17647059 6:0.022675202 7:0.13116607 8:0.29373213 9:0.31320693 
0.001 1:-0.012990482 2:0.15091664 3:0.2743021 4:0.28875422 5:0.17647059 6:0.60839101 7:0.016023082 8:-0.042762668 9:0.12913079 
0.001 1:0.29067692 2:0.21787589 3:0.22422836 4:0.3684594 5:0.17647059 6:0.32364061 7:0.12031339 8:-0.026345598 9:-0.10708427 
0.001 1:0.072909468 2:0.032312578 3:-0.018007192 4:0.4015368 5:0.17647059 6:0.22678006 7:0.45148693 8:0.15538538 9:0.089360682 
0.001 1:0.18095071 2:0.091784657 3:0.013165514 4:0.55617252 5:0.11764706 6:0.42958839 7:-0.13744623 8:-0.1718132 9:-0.021225889 
0.001 1:0.20298149 2:0.24255395 3:0.09230598 4:-0.04119172 5:0.11764706 6:0.0079954586 7:0.10365721 8:0.13442292 9:0.19845117 
0.001 1:0.22084161 2:0.35852547 3:0.33143438 4:-0.21638094 5:0.17647059 6:0.00011977628 7:0.12188962 8:0.36061784 9:0.23471695 
0.001 1:0.21397949 2:0.11071466 3:0.091568048 4:0.24349165 5:0.17647059 6:0.27729841 7:0.19498883 8:0.13779763 9:0.14192599 
0.001 1:0.24378725 2:0.4498485 3:0.23977909 4:-0.22019262 5:0.17647059 6:-0.003485292 7:0.10004763 8:0.34184002 9:0.26014012 
0.001 1:0.22474254 2:-0.07406063 3:-0.47357722 4:0.40503658 5:0.11764706 6:0.0024247063 7:0.43179177 8:0.33238869 9:0.092430034 
0.001 1:0.062948283 2:0.079406695 3:0.17880343 4:0.16948575 5:0.17647059 6:0.22679527 7:0.20466423 8:0.22898664 9:0.26067441 
0.001 1:0.12369926 2:0.086210791 3:0.052530782 4:0.21323921 5:0.17647059 6:0.16454722 7:0.25680981 8:0.28935706 9:0.22537057 
0.001 1:0.21465537 2:0.26332678 3:0.37574526 4:-0.067762119 5:0.17647059 6:0.098202524 7:0.10566445 8:0.23282279 9:0.18910965 
0.001 1:0.028711427 2:0.088078009 3:0.26163042 4:0.24330639 5:0.17647059 6:0.36801135 7:0.050143775 8:0.10017734 9:0.27170599 
0.001 1:0.22982335 2:0.24562393 3:0.26544052 4:-0.037185108 5:0.17647059 6:0.040597311 7:0.20322744 8:0.22111976 9:0.24311751 
0.001 1:0.20823457 2:0.24557449 3:0.27892097 4:0.045988009 5:0.17647059 6:0.061128033 7:0.17178581 8:0.20232099 9:0.19781183 
0.001 1:0.10688738 2:0.031315472 3:0.080475094 4:0.41464644 5:0.17647059 6:0.35748754 7:0.18523821 8:0.081958396 9:0.15375617 
0.001 1:0.028853061 2:-0.10240224 3:-0.19601453 4:0.37980465 5:0.17647059 6:0.27306007 7:0.29840225 8:0.41465539 9:0.31540604 
0.001 1:0.055791846 2:-0.10785423 3:0.051731936 4:0.62069968 5:0.17647059 6:0.40540728 7:0.30704719 8:-0.008269749 9:0.087210745 
0.001 1:0.27203839 2:0.20165224 3:0.27419891 4:0.21261828 5:0.17647059 6:0.014693577 7:0.19512864 8:0.13061713 9:0.11081754 
0.001 1:0.30916332 2:0.35469446 3:0.30116228 4:-0.25450496 5:0.17647059 6:0.017677194 7:0.15799987 8:0.34815476 9:0.17741779 
0.001 1:0.1883158 2:0.046189401 3:-0.012834836 4:0.42457996 5:0.17647059 6:0.41444701 7:0.27133258 8:0.03484277 9:0.044892022 
0.001 1:-0.14604621 2:-0.07204698 3:0.19373851 4:0.14481492 5:0.17647059 6:0.29955918 7:0.24266329 8:0.33487832 9:0.41420368 
0.001 1:0.26246597 2:0.32982138 3:0.22368641 4:-0.11844441 5:0.17647059 6:-0.029868785 7:0.19138784 8:0.33054344 9:0.22217286 
0.001 1:-0.089107985 2:-0.10814811 3:0.15573896 4:0.23204377 5:0.17647059 6:0.27371824 7:0.2819746 8:0.32372256 9:0.34182267 
0.001 1:-0.18388639 2:0.10337457 3:0.014175373 4:0.060302069 5:0.11764706 6:0.080244543 7:0.27733316 8:0.34177965 9:0.24785349 
0.001 1:0.14536334 2:0.21097104 3:0.10278156 4:-0.2327931 5:0.11764706 6:-0.12979799 7:0.05701943 8:0.24618861 9:0.16351978 
0.001 1:0.12563771 2:0.2393172 3:0.1480003 4:-0.031869306 5:0.11764706 6:5.1806052e-05 7:0.1981705 8:0.10603976 9:0.1558285 
0.001 1:-0.029022791 2:-0.0054566444 3:0.037567751 4:0.23918684 5:0.11764706 6:0.23685219 7:0.22947662 8:0.099204611 9:0.1333679 
0.001 1:0.033201005 2:0.1102382 3:0.18716827 4:0.16286408 5:0.11764706 6:0.16365718 7:0.084792374 8:0.070965821 9:0.12828954 
0.001 1:0.10127567 2:0.13984429 3:0.060822246 4:0.20206035 5:0.11764706 6:0.059077936 7:-0.26347783 8:0.085852277 9:-0.0030341319 
0.001 1:0.16236362 2:0.20146694 3:0.22027246 4:0.20197884 5:0.17647059 6:0.22364632 7:0.10763299 8:0.10186523 9:0.19253831 
0.001 1:0.26018194 2:0.29739366 3:0.21288671 4:-0.024484337 5:0.17647059 6:0.071529283 7:0.1035873 8:0.28836834 9:0.2023018 
0.001 1:0.35233956 2:0.087789932 3:0.0013246194 4:0.4462835 5:0.17647059 6:0.30352051 7:0.2234722 8:0.075477849 9:-0.07844346 
0.001 1:0.231811 2:-0.028206431 3:-0.083452213 4:0.37186834 5:0.17647059 6:0.24797219 7:0.25340097 8:0.30633906 9:0.1120318 
0.001 1:0.1816047 2:0.23777439 3:0.18794585 4:0.064363557 5:0.17647059 6:0.12829265 7:0.17648693 8:0.23055359 9:0.20474303 
0.001 1:-0.031367 2:0.021585754 3:0.13447763 4:0.10242193 5:0.11764706 6:0.18096106 7:0.13022772 8:0.18390222 9:0.21896715 
0.001 1:0.17552948 2:0.013484273 3:0.13951511 4:0.33499884 5:0.17647059 6:0.36862388 7:0.14594566 8:0.056507199 9:0.17716026 
0.001 1:0.19077621 2:0.065649886 3:0.11416766 4:0.35426407 5:0.17647059 6:0.31473898 7:0.18272128 8:0.057048408 9:0.1323982 
0.001 1:0.22306113 2:0.25416352 3:0.24211848 4:-0.034344355 5:0.17647059 6:0.081159947 7:0.17810457 8:0.21829245 9:0.24920896 
0.001 1:0.1837291 2:0.05096454 3:0.14803315 4:0.30504725 5:0.17647059 6:0.28271631 7:0.16642923 8:0.089391331 9:0.18545379 
0.001 1:-0.06466607 2:0.035474095 3:0.17089021 4:0.15596423 5:0.17647059 6:0.25561471 7:0.22858013 8:0.30859619 9:0.32131122 
0.001 1:0.20685791 2:0.085298368 3:0.16047657 4:0.2999002 5:0.17647059 6:0.28460129 7:0.16649621 8:0.083179466 9:0.12495468 
0.001 1:0.20526201 2:0.47010432 3:0.29736041 4:-0.41163394 5:0.17647059 6:0.083138969 7:0.14753438 8:0.34011478 9:0.27988378 
0.001 1:0.1126557 2:-0.1792198 3:-0.17226034 4:0.40935441 5:0.11764706 6:0.42338828 7:0.040310639 8:0.08092169 9:0.22602589 
0.001 1:-0.14351452 2:-0.043677985 3:0.19197046 4:0.091044135 5:0.17647059 6:0.33981489 7:0.25465904 8:0.31100585 9:0.41046282 
0.001 1:0.11232664 2:0.047567709 3:-0.11423248 4:0.26918372 5:0.17647059 6:0.14675171 7:0.31706161 8:0.32365155 9:0.30945424 
0.001 1:0.18551066 2:0.3014263 3:0.31002277 4:-0.05687965 5:0.17647059 6:0.034090665 7:0.17556846 8:0.2360089 9:0.2260166 
0.001 1:0.15898615 2:0.028095096 3:0.1363849 4:0.37558324 5:0.17647059 6:0.38564305 7:0.13289376 8:0.064102112 9:0.13007641 
0.001 1:0.015104888 2:0.15142653 3:-0.018488748 4:0.22480167 5:0.17647059 6:0.17254515 7:0.27340825 8:0.34065267 9:0.2523143 
0.001 1:0.16467436 2:0.14211423 3:0.14578546 4:0.19364556 5:0.11764706 6:0.20049789 7:0.10951222 8:0.0048467033 9:-0.019899945 
0.001 1:0.053585571 2:0.054660437 3:0.069489445 4:0.1359307 5:0.11764706 6:0.18679489 7:0.16816934 8:0.14997631 9:0.12256978 
0.001 1:0.14108403 2:0.19354262 3:0.1661077 4:-0.046743413 5:0.11764706 6:0.011647613 7:0.097679834 8:0.23088314 9:0.14697495 
0.001 1:0.057314005 2:0.13330597 3:0.071206375 4:0.37543532 5:0.11764706 6:0.27819916 7:0.073187099 8:-0.13759241 9:0.090120939 
0.001 1:0.33581436 2:0.47282927 3:0.44548268 4:-0.32412708 5:0.23529412 6:-0.11526487 7:0.25394882 8:0.41739781 9:0.39627196 
0.001 1:-0.087371938 2:-0.16767011 3:-0.13468264 4:0.33726708 5:0.23529412 6:0.3364082 7:0.58819414 8:0.4698515 9:0.54035671 
0.001 1:0.26790181 2:0.080089037 3:0.14119377 4:0.060301515 5:0.11764706 6:0.035443334 7:0.19292385 8:0.13645638 9:0.026866772 
0.001 1:0.27234833 2:0.34501741 3:0.24625356 4:-0.05334883 5:0.17647059 6:0.0942516 7:0.10885241 8:0.23293596 9:0.16545427 
0.001 1:0.37139534 2:0.22412813 3:0.12083804 4:0.40921169 5:0.17647059 6:0.21385543 7:0.16019278 8:0.054148666 9:-0.14200536 
0.001 1:-0.017155444 2:0.3865103 3:0.13156459 4:-0.2727758 5:0.17647059 6:-0.050483857 7:0.35373888 8:0.58423668 9:0.29612936 
0.001 1:0.13071202 2:0.19476388 3:0.16483159 4:-0.055128223 5:0.11764706 6:0.045320261 7:0.093351766 8:0.2040042 9:0.16332096 
0.001 1:0.14787326 2:0.11274005 3:0.03127875 4:0.18320456 5:0.11764706 6:0.17293761 7:0.12828734 8:0.089822963 9:0.075031944 
0.001 1:0.16846039 2:0.18779585 3:0.16222623 4:-0.040988803 5:0.11764706 6:0.053806019 7:0.11239517 8:0.16524717 9:0.13223444 
0.001 1:0.042367938 2:0.1369505 3:0.10863083 4:0.21928704 5:0.11764706 6:0.30269359 7:0.012420148 8:0.076754734 9:0.042071688 
0.001 1:0.21201325 2:0.31938117 3:0.18769208 4:-0.043766725 5:0.17647059 6:0.08144673 7:0.17640181 8:0.27326516 9:0.20533122 
0.001 1:0.28961904 2:0.11938513 3:0.051216376 4:0.25004163 5:0.17647059 6:0.24538365 7:0.13029541 8:0.060750091 9:0.26507338 
0.001 1:0.036259033 2:-0.010669643 3:0.063103953 4:0.41958041 5:0.17647059 6:0.41568966 7:0.17113524 8:0.14329767 9:0.17336838 
0.001 1:0.27298774 2:0.27723362 3:0.25573782 4:0.3897877 5:0.17647059 6:0.36028166 7:0.053882202 8:-0.1021194 9:-0.096026642 
0.001 1:0.18257497 2:0.087593693 3:0.13937336 4:0.28714679 5:0.17647059 6:-0.068007125 7:0.30747608 8:0.25705189 9:0.21855504 
0.001 1:0.15296982 2:0.19569347 3:0.16508528 4:-0.039747808 5:0.11764706 6:0.047718476 7:0.10401117 8:0.17814294 9:0.13730312 
0.001 1:0.18278848 2:0.062261216 3:0.077383845 4:0.20381528 5:0.11764706 6:0.12643609 7:0.14996945 8:0.074605476 9:0.063916638 
0.001 1:0.11962526 2:0.24090195 3:0.21768862 4:-0.1989037 5:0.11764706 6:0.0033575828 7:0.09780241 8:0.26478136 9:0.19592297 
0.001 1:0.137821 2:-0.0069596169 3:-0.041072801 4:0.1093255 5:0.11764706 6:0.124201 7:0.27169 8:0.15266653 9:0.19350488 
0.001 1:0.35626682 2:0.47411673 3:0.38420477 4:-0.27935803 5:0.23529412 6:-0.097106436 7:0.27234755 8:0.41914924 9:0.3527323 
0.001 1:0.389084 2:0.53820695 3:0.38152767 4:-0.34457792 5:0.23529412 6:-0.022854396 7:0.22697331 8:0.44976622 9:0.26422711 
0.001 1:0.19903415 2:0.11638408 3:0.1339029 4:0.2501732 5:0.11764706 6:0.13688063 7:0.2002012 8:-0.033989941 9:-0.061409746 
0.001 1:0.033573557 2:-0.15025653 3:-0.031687718 4:0.26995542 5:0.17647059 6:0.19950114 7:0.43575004 8:0.29447573 9:0.36045307 
0.001 1:0.53423891 2:0.28009437 3:0.25561958 4:0.4509424 5:0.17647059 6:0.25088116 7:0.027380666 8:-0.12259035 9:-0.26480205 
0.001 1:0.11446376 2:0.076720778 3:0.098226989 4:0.17140264 5:0.11764706 6:0.17862151 7:0.10724157 8:0.087928563 9:0.10657066 
0.001 1:0.13271336 2:0.1801902 3:0.15842748 4:0.0073963219 5:0.11764706 6:0.042741822 7:0.11294859 8:0.15753111 9:0.14922759 
0.001 1:-0.17454216 2:0.16306075 3:0.090741637 4:0.13550758 5:0.17647059 6:0.22681574 7:-0.20756399 8:0.14872611 9:0.086935887 
0.001 1:0.26461235 2:0.30792225 3:0.22928994 4:-0.16087148 5:0.17647059 6:-0.01646842 7:0.25529942 8:0.31913609 9:0.21284456 
0.001 1:-0.00068521808 2:0.067758202 3:0.18262453 4:0.15571228 5:0.17647059 6:0.23865994 7:0.21264725 8:0.26841051 9:0.28663721 
0.001 1:0.090618208 2:0.006193878 3:0.056238666 4:0.20341354 5:0.17647059 6:0.19982074 7:0.31482163 8:0.23413498 9:0.30652307 
0.001 1:0.22440221 2:0.23778002 3:0.24456143 4:0.022498214 5:0.17647059 6:0.089395494 7:0.15078043 8:0.25108158 9:0.19126532 
0.001 1:0.10690247 2:-0.030282787 3:0.11026645 4:0.45840427 5:0.17647059 6:0.32801361 7:0.2120254 8:0.10768484 9:0.11875046 
0.001 1:0.16469065 2:0.016266237 3:0.11958134 4:0.35540559 5:0.17647059 6:0.33111883 7:0.15611834 8:0.096616592 9:0.17196712 
0.001 1:0.044198206 2:-0.11772171 3:0.023225404 4:0.20046962 5:0.17647059 6:0.24077708 7:0.39028731 8:0.26472791 9:0.36580089 
0.001 1:0.19446859 2:0.19610453 3:0.076901366 4:0.11478582 5:0.17647059 6:0.067028755 7:0.21783091 8:0.26141386 9:0.28323087 
0.001 1:0.11623244 2:0.093222972 3:0.052786044 4:0.17098849 5:0.11764706 6:0.11814316 7:0.16276329 8:0.12991276 9:0.097127312 
0.001 1:0.16674582 2:-0.00096939535 3:-0.056006691 4:0.25873637 5:0.11764706 6:0.03922779 7:0.26451121 8:0.13869205 9:0.13023932 
0.001 1:0.17862616 2:0.07403624 3:0.035883521 4:0.21055851 5:0.11764706 6:0.15087107 7:0.15355087 8:0.069152159 9:0.06849794 
0.001 1:0.23928782 2:0.21211641 3:0.15156271 4:0.10520829 5:0.17647059 6:0.088803844 7:0.20553767 8:0.20833922 9:0.20090874 
0.001 1:0.11754905 2:0.12910441 3:0.19004007 4:-0.044856319 5:0.11764706 6:0.069714704 7:0.08908409 8:0.16122943 9:0.22931104 
0.001 1:0.08153632 2:0.16826627 3:0.21139791 4:-0.026476895 5:0.11764706 6:0.18738439 7:0.061408637 8:0.090321396 9:0.16733844 
0.001 1:0.21914987 2:0.067465975 3:0.017609866 4:0.18651234 5:0.11764706 6:0.18526407 7:0.15540055 8:0.080071327 9:0.029702469 
0.001 1:-0.0034098815 2:0.03210175 3:-0.047452483 4:0.23678926 5:0.17647059 6:0.18637269 7:0.3140174 8:0.39589649 9:0.29744949 
0.001 1:0.26349816 2:0.36846178 3:0.29219438 4:-0.19223368 5:0.23529412 6:-0.032450469 7:0.35005875 8:0.47888042 9:0.35394359 
0.001 1:0.068275216 2:0.038940733 3:0.014560117 4:0.1439589 5:0.11764706 6:0.084959662 7:0.29831891 8:0.14449162 9:0.1476713 
0.001 1:0.059993256 2:0.073014396 3:0.17909664 4:0.1208074 5:0.11764706 6:0.19166455 7:0.063496703 8:0.078534108 9:0.17456942 
0.001 1:0.11479187 2:0.081652732 3:0.10244764 4:0.18447001 5:0.11764706 6:0.17631659 7:0.10332987 8:0.08127473 9:0.096893024 
0.001 1:0.12228831 2:0.11566285 3:0.077845552 4:0.21080135 5:0.17647059 6:0.17703647 7:0.23351456 8:0.25083326 9:0.22378235 
0.001 1:0.056694482 2:0.038425311 3:0.035563048 4:0.15191561 5:0.11764706 6:0.11798996 7:0.1863168 8:0.20081005 9:0.15346121 
0.001 1:0.15089132 2:0.18520462 3:0.16635866 4:-0.033307722 5:0.11764706 6:0.047572085 7:0.12737734 8:0.1777008 9:0.11937937 
0.001 1:0.015000961 2:0.054879227 3:0.19842623 4:0.13918803 5:0.17647059 6:0.25652256 7:0.22152205 8:0.25190209 9:0.27432355 
0.001 1:0.18524066 2:0.080048787 3:0.14696783 4:0.28584359 5:0.17647059 6:0.27262574 7:0.17273279 8:0.11994479 9:0.14836052 
0.001 1:0.15227989 2:0.0054493224 3:0.039171132 4:0.23908545 5:0.17647059 6:0.16877212 7:0.2869126 8:0.21092496 9:0.30916923 
0.001 1:0.11222094 2:0.002159938 3:0.067760466 4:0.42521319 5:0.17647059 6:0.38479697 7:0.18455801 8:0.080380204 9:0.15467498 
0.001 1:0.15670184 2:0.198741 3:0.020450794 4:0.39693346 5:0.17647059 6:0.23835052 7:0.16745534 8:0.15770463 9:0.075427117 
0.001 1:0.093764757 2:0.058535896 3:-0.11066629 4:0.26639462 5:0.17647059 6:0.19335815 7:0.30752915 8:0.3624273 9:0.24042112 
0.001 1:0.16285487 2:0.23244496 3:0.27891888 4:0.030203399 5:0.17647059 6:0.11994186 7:0.1486568 8:0.22293868 9:0.21580525 
0.001 1:0.29947016 2:0.29983732 3:0.35428719 4:-0.060391612 5:0.17647059 6:-0.0020561576 7:0.13031562 8:0.20308527 9:0.18721692 
0.001 1:0.17417636 2:0.18498563 3:0.05645682 4:0.31962687 5:0.17647059 6:0.22502433 7:0.2449166 8:0.19639301 9:0.010185097 
0.001 1:0.25785527 2:0.26313604 3:0.18923117 4:0.17908449 5:0.17647059 6:0.018913631 7:0.14631238 8:0.17868522 9:0.1785465 
0.001 1:0.072604674 2:0.0014347613 3:-0.017142763 4:0.16043953 5:0.11764706 6:0.11575521 7:0.21738322 8:0.22334244 9:0.1673594 
0.001 1:0.11145624 2:0.085586965 3:0.085026033 4:0.18766541 5:0.11764706 6:0.16828333 7:0.12253999 8:0.095356851 9:0.085261651 
0.001 1:0.040307737 2:0.081420564 3:0.12903681 4:0.14781281 5:0.11764706 6:0.22099012 7:0.1114752 8:0.040647551 9:0.16948568 
0.001 1:0.064287843 2:0.11766146 3:0.17975555 4:0.022093477 5:0.11764706 6:0.14154206 7:0.11803286 8:0.14330668 9:0.15449655 
0.001 1:0.19681533 2:0.18081245 3:0.1402082 4:0.2980671 5:0.17647059 6:0.17329174 7:0.19824953 8:0.11543304 9:0.10888731 
0.001 1:0.2350187 2:-0.12845437 3:0.17988742 4:0.24478221 5:0.11764706 6:0.2078429 7:0.091740444 8:0.13075753 9:-0.020398362 
0.001 1:0.19976477 2:0.35830373 3:0.13264685 4:-0.17771177 5:0.17647059 6:-0.0095940361 7:0.20250117 8:0.39861787 9:0.30723613 
0.001 1:0.37277997 2:0.49950521 3:0.36770653 4:-0.33530922 5:0.23529412 6:-0.010362649 7:0.25420331 8:0.4561777 9:0.2776521 
0.001 1:-0.07397463 2:-0.09147853 3:0.40875878 4:0.28897619 5:0.17647059 6:0.54849533 7:-0.029971381 8:-0.019346173 9:0.38030513 
0.001 1:-0.041229431 2:-0.23148317 3:-0.012130944 4:0.33266538 5:0.23529412 6:0.40699149 7:0.56957685 8:0.36374279 9:0.49421998 
0.001 1:0.067668408 2:0.22756649 3:0.23091899 4:-0.2043074 5:0.11764706 6:-0.0099174332 7:0.20882103 8:0.21065651 9:0.20976987 
0.001 1:0.28854312 2:0.29304118 3:0.11416558 4:0.16434853 5:0.17647059 6:-0.11107045 7:0.31175116 8:0.26538523 9:0.085600363 
0.001 1:0.11065381 2:0.1233142 3:0.22030841 4:0.22053104 5:0.17647059 6:0.26761984 7:0.12781702 8:0.12233155 9:0.21918884 
0.001 1:0.061858423 2:0.069075905 3:0.18503886 4:0.16307171 5:0.17647059 6:0.23718796 7:0.21235396 8:0.22472852 9:0.25844937 
0.001 1:-0.0067550093 2:0.031303591 3:0.12463153 4:0.11320664 5:0.11764706 6:0.1678167 7:0.13618498 8:0.1720553 9:0.20273274 
0.001 1:0.19596905 2:0.085039813 3:0.12581449 4:0.31278681 5:0.17647059 6:0.30439873 7:0.22061606 8:0.088804394 9:0.078335371 
0.001 1:0.1092332 2:0.078945638 3:0.12211731 4:0.32421328 5:0.17647059 6:0.31552032 7:0.15026106 8:0.12639547 9:0.18507844 
0.001 1:0.16853471 2:0.090860918 3:0.15285245 4:0.29202803 5:0.17647059 6:0.28657889 7:0.17741921 8:0.10289666 9:0.14059385 
0.001 1:0.27751718 2:0.31630266 3:0.24100768 4:-0.080239353 5:0.17647059 6:0.0076197803 7:0.19788417 8:0.28399862 9:0.16767397 
0.001 1:-0.045893454 2:0.023122791 3:0.18611886 4:0.13358466 5:0.17647059 6:0.27243614 7:0.22399834 8:0.30122611 9:0.31717126 
0.001 1:0.27525056 2:0.32123307 3:0.2380749 4:-0.14641638 5:0.17647059 6:-0.017972179 7:0.25148117 8:0.31418922 9:0.17592434 
0.001 1:0.17781248 2:0.034866193 3:0.15332555 4:0.3611183 5:0.17647059 6:0.32561136 7:0.16040359 8:0.092391684 9:0.10623556 
0.001 1:0.26922462 2:0.045939517 3:-0.052019303 4:0.42086606 5:0.17647059 6:0.25972219 7:0.31635521 8:0.065508691 9:0.086167723 
0.001 1:0.097477797 2:0.0076033436 3:0.022302572 4:0.51057568 5:0.17647059 6:0.40302467 7:0.16392912 8:0.11853821 9:0.088313313 
0.001 1:0.16470187 2:0.26252999 3:0.30762121 4:-0.1827661 5:0.17647059 6:-0.015249337 7:0.27710518 8:0.33706905 9:0.26075285 
0.001 1:0.081565032 2:-0.088433678 3:-0.092343601 4:0.21877688 5:0.17647059 6:0.17287828 7:0.19025059 8:0.17434856 9:0.12512747 
0.001 1:0.0057997802 2:0.10426562 3:0.037215015 4:0.12806741 5:0.11764706 6:0.098820176 7:0.16463172 8:0.21109864 9:0.19127811 
0.001 1:-0.048372781 2:-0.10492965 3:-0.058234465 4:0.3261318 5:0.17647059 6:0.1953118 7:0.32146872 8:0.45581336 9:0.32457592 
0.001 1:0.0097658685 2:-0.10018216 3:-0.17900149 4:0.3230798 5:0.17647059 6:0.21256525 7:0.37158721 8:0.43672555 9:0.33722468 
0.001 1:-0.061549747 2:-0.13905743 3:-0.0097392852 4:0.23707651 5:0.23529412 6:0.33080618 7:0.55408034 8:0.40281093 9:0.56792546 
0.001 1:0.09664421 2:0.087207939 3:0.22252122 4:0.22468414 5:0.17647059 6:0.30674074 7:0.11538458 8:0.13200554 9:0.22657635 
0.001 1:0.0056915365 2:0.026172549 3:0.065861808 4:0.10342784 5:0.11764706 6:0.17033306 7:0.15080732 8:0.17177223 9:0.24711012 
0.001 1:0.12960255 2:0.22639471 3:0.2318199 4:-0.37537509 5:0.11764706 6:-0.012547492 7:0.15179615 8:0.36737177 9:0.22211398 
0.001 1:0.13640445 2:0.15106655 3:0.29457322 4:0.23124464 5:0.17647059 6:0.33096338 7:-0.0020393274 8:0.060278332 9:0.20927347 
0.001 1:0.068325487 2:0.050279516 3:0.077267237 4:0.22740369 5:0.11764706 6:0.21267772 7:0.10741745 8:0.092401481 9:0.10540389 
0.001 1:0.17083418 2:0.23609587 3:0.18955063 4:0.060765295 5:0.17647059 6:0.11996893 7:0.18234155 8:0.23752402 9:0.21468423 
0.001 1:0.14382037 2:0.12086481 3:0.06481148 4:0.22534239 5:0.17647059 6:0.16877466 7:0.23148994 8:0.25621326 9:0.20044778 
0.001 1:-0.10636637 2:-0.054935282 3:0.18201952 4:0.19433245 5:0.17647059 6:0.30754362 7:0.24742772 8:0.2948269 9:0.34691616 
0.001 1:0.15344763 2:0.066498692 3:0.07572847 4:0.22564363 5:0.17647059 6:0.15279064 7:0.29767885 8:0.24543525 9:0.19454153 
0.001 1:0.057775912 2:0.092863667 3:-0.011060944 4:0.19293744 5:0.17647059 6:0.16116801 7:0.28008439 8:0.36010088 9:0.27789536 
0.001 1:0.18197416 2:0.06582568 3:0.13437868 4:0.33274024 5:0.17647059 6:0.31232326 7:0.1693053 8:0.084411912 9:0.13080547 
0.001 1:0.21931669 2:0.2513691 3:0.27227093 4:0.023462529 5:0.17647059 6:0.093294886 7:0.14811389 8:0.22353053 9:0.18040614 
0.001 1:-0.015563991 2:-0.092315152 3:0.11467542 4:0.17345705 5:0.17647059 6:0.15584255 7:0.35798089 8:0.25364481 9:0.46404313 
0.001 1:0.26979453 2:0.29027662 3:0.18482486 4:-0.03454685 5:0.17647059 6:0.042121126 7:0.16011022 8:0.28069171 9:0.21849249 
0.001 1:0.17389132 2:0.26345331 3:0.28500379 4:-0.014791958 5:0.17647059 6:0.059698363 7:0.16355554 8:0.26169393 9:0.2192604 
0.001 1:-0.063518299 2:0.017925983 3:0.13887485 4:0.13979223 5:0.17647059 6:0.35472611 7:0.2140254 8:0.29317435 9:0.31676408 
0.001 1:-0.11228644 2:0.15846058 3:0.11616498 4:0.064983391 5:0.17647059 6:0.16121246 7:0.19231766 8:0.28774313 9:0.20383143 
0.001 1:0.16275846 2:0.1781247 3:0.16029644 4:-0.027864431 5:0.11764706 6:0.047581385 7:0.1226522 8:0.17392241 9:0.1237053 
0.001 1:0.20958059 2:0.12900924 3:0.097824556 4:0.22608716 5:0.11764706 6:0.18132203 7:0.14832201 8:-0.017449943 9:-0.033519177 
0.001 1:0.082524021 2:0.035934668 3:0.037437518 4:0.17609056 5:0.11764706 6:0.066092476 7:0.21181511 8:0.16226225 9:0.16901986 
0.001 1:0.12590926 2:0.059661585 3:0.064969842 4:0.37515434 5:0.17647059 6:0.34518387 7:0.2282046 8:0.13709315 9:0.075588059 
0.001 1:0.0056648818 2:0.017721262 3:0.35706013 4:0.28310424 5:0.17647059 6:0.40992139 7:0.1019204 8:-0.036188335 9:0.27256074 
0.001 1:-0.031735054 2:0.012391352 3:0.32470155 4:0.29151733 5:0.17647059 6:0.48537517 7:0.0035334813 8:0.019862021 9:0.30611886 
0.001 1:0.022575107 2:0.030720149 3:0.14930165 4:0.19495157 5:0.17647059 6:0.24964277 7:0.24522435 8:0.25181184 9:0.26753727 
0.001 1:0.12408832 2:0.11887186 3:0.12593874 4:0.25378826 5:0.17647059 6:0.28380701 7:0.16813528 8:0.14627892 9:0.19085631 
0.001 1:0.17013842 2:0.12836391 3:0.16023707 4:0.24536519 5:0.17647059 6:0.23943263 7:0.16422867 8:0.14247791 9:0.16152091 
0.001 1:-0.018294539 2:0.0089327111 3:0.13048874 4:0.11466895 5:0.11764706 6:0.1738133 7:0.1507315 8:0.18507267 9:0.19576315 
0.001 1:-0.0066710326 2:0.0056235691 3:0.10711302 4:0.10404673 5:0.11764706 6:0.1852333 7:0.16853445 8:0.17780744 9:0.199489 
0.001 1:0.12074433 2:0.11704804 3:0.073566675 4:0.20594135 5:0.17647059 6:0.18252086 7:0.23490334 8:0.25748576 9:0.21955435 
0.001 1:0.16031651 2:0.16243754 3:0.14318992 4:0.2943751 5:0.17647059 6:0.29946037 7:0.090840583 8:0.15749281 9:0.10365188 
0.001 1:0.31515054 2:0.33296605 3:0.21760836 4:-0.22577211 5:0.17647059 6:-0.025837184 7:0.24206557 8:0.3480542 9:0.20752928 
0.001 1:-0.12541362 2:0.0044368422 3:0.1554524 4:0.18435613 5:0.17647059 6:0.27863883 7:0.27643465 8:0.30526214 9:0.33259733 
0.001 1:-0.044159034 2:0.015029108 3:0.16962977 4:0.1578705 5:0.17647059 6:0.25530699 7:0.23750898 8:0.30654956 9:0.31402883 
0.001 1:0.17083559 2:0.07663956 3:0.1686741 4:0.29409247 5:0.17647059 6:0.28255448 7:0.16799134 8:0.10311482 9:0.14786235 
0.001 1:0.1446592 2:-0.0063987065 3:0.038193041 4:0.23702115 5:0.17647059 6:0.16308915 7:0.3080786 8:0.21456762 9:0.31255466 
0.001 1:0.23107304 2:0.024992676 3:0.1333587 4:0.22245438 5:0.17647059 6:0.29045868 7:0.073921157 8:0.18508262 9:0.25042346 
0.001 1:0.28410515 2:0.28270894 3:0.31023871 4:-0.11825335 5:0.17647059 6:-0.020429184 7:0.19036847 8:0.23588423 9:0.24714173 
0.001 1:0.25700364 2:0.27828309 3:0.30486373 4:-0.11147858 5:0.17647059 6:-0.0028351521 7:0.16297632 8:0.24154836 9:0.2814033 
0.001 1:0.18141354 2:-0.022117606 3:-0.027903779 4:0.22798236 5:0.17647059 6:0.17104006 7:0.32278456 8:0.20550863 9:0.35305694 
0.001 1:0.19770697 2:0.12578938 3:0.16581545 4:0.18323915 5:0.17647059 6:0.08302592 7:0.24280343 8:0.21127714 9:0.20210727 
0.001 1:0.017114141 2:0.1483709 3:0.088779615 4:0.19289443 5:0.11764706 6:0.18118572 7:0.097222085 8:0.10090072 9:0.11470886 
0.001 1:0.075499307 2:0.011734475 3:0.0548442 4:0.23110336 5:0.11764706 6:0.25044641 7:0.1261149 8:0.10022116 9:0.091212655 
0.001 1:0.10547487 2:0.046363914 3:0.014844488 4:0.24008056 5:0.11764706 6:0.22131095 7:0.11921266 8:0.099688111 9:0.094200921 
0.001 1:-0.048606532 2:-0.0027119071 3:0.070191038 4:0.19198283 5:0.11764706 6:0.12094024 7:0.18469299 8:0.24141402 9:0.1832738 
0.001 1:-0.044508785 2:-0.068219725 3:-0.056908518 4:0.18663898 5:0.17647059 6:0.23457908 7:0.34922401 8:0.50241551 9:0.30854415 
0.001 1:-0.11552516 2:-0.19210796 3:0.17554505 4:0.19006348 5:0.17647059 6:0.32128839 7:0.26292295 8:0.33354936 9:0.4360286 
0.001 1:0.18200116 2:0.435244 3:0.28987915 4:-0.218869 5:0.23529412 6:0.086291011 7:0.29181886 8:0.4392659 9:0.37672186 
0.001 1:0.10110228 2:0.074662286 3:0.11378047 4:0.19842196 5:0.17647059 6:0.19262884 7:0.26472962 8:0.21900965 9:0.24742959 
0.001 1:0.20815309 2:0.1528545 3:0.15364452 4:0.050751777 5:0.11764706 6:0.082756795 7:0.06415222 8:0.082166438 9:0.14669713 
0.001 1:0.097530979 2:0.068910982 3:0.088748969 4:0.21163531 5:0.17647059 6:0.20533859 7:0.26886702 8:0.22593054 9:0.24480232 
0.001 1:0.21438774 2:0.24921688 3:0.21798009 4:0.02072231 5:0.17647059 6:0.09564441 7:0.1920084 8:0.24522915 9:0.17657573 
0.001 1:0.1068248 2:0.075803773 3:0.087897109 4:0.1903026 5:0.11764706 6:0.1874382 7:0.11064763 8:0.097967392 9:0.084294971 
0.001 1:0.12717232 2:0.022919385 3:0.063776908 4:0.31029273 5:0.17647059 6:0.43449635 7:0.20015416 8:0.10649707 9:0.14645578 
0.001 1:0.0040980578 2:0.059680045 3:0.18062955 4:0.15772154 5:0.17647059 6:0.24120465 7:0.20424764 8:0.26895938 9:0.29522385 
0.001 1:0.2014664 2:0.056043311 3:0.049132833 4:0.31266997 5:0.17647059 6:0.34875959 7:0.20697397 8:0.092491443 9:0.14422719 
0.001 1:0.19376425 2:0.25365407 3:0.24624316 4:0.012781685 5:0.17647059 6:0.086509404 7:0.18952201 8:0.22336587 9:0.20592426 
0.001 1:-0.14628433 2:0.026589001 3:0.231524 4:0.13843874 5:0.17647059 6:0.30279419 7:0.21301663 8:0.3078676 9:0.33781887 
0.001 1:0.16476946 2:0.01026097 3:-0.10778498 4:0.25170702 5:0.17647059 6:0.11037353 7:0.34106696 8:0.27895851 9:0.36241323 
0.001 1:0.28638788 2:0.330633 3:0.22261314 4:0.10103036 5:0.17647059 6:0.0073160918 7:0.19363624 8:0.20001458 9:0.070133407 
0.001 1:0.067461066 2:0.13961818 3:0.17181173 4:-0.16153348 5:0.11764706 6:0.11465443 7:0.03164179 8:0.15147718 9:0.16936283 
0.001 1:0.03737631 2:0.13955176 3:0.058246159 4:0.20702034 5:0.11764706 6:0.23379853 7:0.034524546 8:0.1148201 9:0.11583872 
0.001 1:0.12074932 2:0.14699247 3:0.13395428 4:0.023704232 5:0.11764706 6:0.072619157 7:0.13448278 8:0.1670386 9:0.14163563 
0.001 1:0.078210107 2:-0.00010862524 3:0.010013631 4:0.14308941 5:0.11764706 6:0.14576681 7:0.18851708 8:0.1474006 9:0.22828745 
0.001 1:0.15604368 2:0.13777478 3:0.15077952 4:0.19012553 5:0.11764706 6:0.19515764 7:0.046398388 8:0.0049819743 9:0.059914966 
0.001 1:0.044315377 2:0.076999347 3:0.10300651 4:0.16499652 5:0.11764706 6:0.22244351 7:0.033533775 8:0.090436433 9:0.205445 
0.001 1:-0.054369978 2:0.091029886 3:0.16883504 4:0.10922899 5:0.11764706 6:0.19929403 7:-0.018578042 8:0.091011666 9:0.13710442 
0.001 1:0.15489816 2:0.047042318 3:0.10138038 4:0.3882922 5:0.11764706 6:0.20367619 7:0.097944354 8:-0.053321242 9:0.0012641156 
0.001 1:0.090331442 2:-0.018622394 3:0.032484277 4:0.41437933 5:0.17647059 6:0.37728372 7:0.25895325 8:0.13446255 9:0.12249253 
0.001 1:0.3821837 2:0.58989753 3:0.41223605 4:-0.46844998 5:0.23529412 6:-0.057906921 7:0.21995335 8:0.52411767 9:0.28032155 
0.001 1:0.12541676 2:0.021220584 3:-0.083219019 4:0.25043126 5:0.17647059 6:0.16436752 7:0.35633571 8:0.34351489 9:0.23369701 
0.001 1:0.06244262 2:0.057496713 3:0.12121658 4:0.18177334 5:0.17647059 6:0.23061008 7:0.21213383 8:0.26167107 9:0.28442047 
0.001 1:0.031660084 2:0.081142498 3:0.19600961 4:0.17382915 5:0.17647059 6:0.2449523 7:0.19958829 8:0.22619157 9:0.2583912 
0.001 1:0.21357119 2:0.28976121 3:0.17525176 4:0.0060823309 5:0.17647059 6:0.07723797 7:0.1851008 8:0.27143518 9:0.19332427 
0.001 1:0.20217562 2:0.26393074 3:0.24351576 4:-0.019128933 5:0.17647059 6:0.044876297 7:0.17613367 8:0.27107405 9:0.2291875 
0.001 1:0.20462328 2:0.019620761 3:0.14271255 4:0.37448615 5:0.17647059 6:0.33736326 7:0.16799211 8:0.049136695 9:0.11582991 
0.001 1:0.18750533 2:0.068762591 3:0.13995129 4:0.33839992 5:0.17647059 6:0.28216106 7:0.16658318 8:0.083552256 9:0.14484907 
0.001 1:0.24105202 2:0.3203073 3:0.19552167 4:-0.057791002 5:0.17647059 6:0.021623807 7:0.17669621 8:0.28871305 9:0.22564164 
0.001 1:0.070467345 2:-0.032312084 3:0.14595259 4:0.30260423 5:0.17647059 6:0.43973698 7:0.016061044 8:0.10431807 9:0.36493654 
0.001 1:0.10558209 2:-0.01818125 3:-0.11846393 4:0.181106 5:0.11764706 6:0.089548358 7:0.323272 8:0.2030094 9:0.1753038 
0.001 1:-0.046140978 2:0.040239919 3:0.10047264 4:0.070359816 5:0.11764706 6:0.18348344 7:0.15922707 8:0.18664142 9:0.24689314 
0.001 1:0.016994402 2:0.099317443 3:0.14922348 4:0.14362137 5:0.11764706 6:0.26877725 7:0.023066572 8:0.068415126 9:0.17176082 
0.001 1:0.067670723 2:0.056786608 3:0.027759412 4:0.1600434 5:0.11764706 6:0.13260179 7:0.17158027 8:0.18237931 9:0.14235496 
0.001 1:0.14387877 2:0.0036678654 3:-0.031000524 4:0.13783715 5:0.11764706 6:0.12307577 7:0.20883523 8:0.15733134 9:0.19755087 
0.001 1:0.066261823 2:0.063459964 3:0.095791003 4:0.22109273 5:0.11764706 6:0.19672198 7:0.098759648 8:0.089936917 9:0.10915241 
0.001 1:0.069603154 2:0.070116702 3:0.012143247 4:0.15329298 5:0.11764706 6:0.11998201 7:0.17505792 8:0.19327808 9:0.14770238 
0.001 1:0.031315471 2:0.059761129 3:0.16091174 4:0.21175761 5:0.11764706 6:0.25488504 7:0.037404596 8:0.062738762 9:0.12240213 
0.001 1:0.18382999 2:0.183514 3:0.14388538 4:0.12628542 5:0.11764706 6:-0.10022668 7:0.19356724 8:0.11338073 9:0.096940397 
0.001 1:0.035225358 2:-0.24399526 3:-0.15472261 4:0.1319666 5:0.11764706 6:0.095557234 7:0.35608277 8:0.29412354 9:0.42693884 
0.001 1:0.10474595 2:0.088278934 3:0.063229256 4:0.41697465 5:0.17647059 6:0.40721555 7:0.10088936 8:0.13362786 9:0.096803151 
0.001 1:0.32973359 2:0.52704755 3:0.32567549 4:-0.43289384 5:0.17647059 6:-0.085614834 7:0.15264428 8:0.41351304 9:0.18165943 
0.001 1:0.2043961 2:0.34687859 3:0.3113349 4:-0.15750684 5:0.17647059 6:0.03820082 7:0.13006424 8:0.37436384 9:0.16403306 
0.001 1:0.38968308 2:0.37219828 3:0.28742216 4:-0.16706028 5:0.17647059 6:-0.031893009 7:0.1741597 8:0.23253617 9:0.15471859 
0.001 1:-0.20599093 2:0.14416654 3:-0.056677801 4:0.025765646 5:0.17647059 6:0.17390994 7:0.17889728 8:0.36414987 9:0.28347421 
0.001 1:0.31712554 2:0.23203227 3:0.17504237 4:0.3558643 5:0.17647059 6:0.32296826 7:0.15645116 8:-0.058115948 9:-0.089603257 
0.00097366376215514351 1:0.18194442 2:0.26157968 3:0.0091541703 4:0.11238553 5:0.23529412 6:-0.086476653 7:0.45820514 8:0.5496584 9:0.39590225 
0.001 1:-0.23590222 2:-0.064033322 3:0.12250509 4:0.074397003 5:0.17647059 6:0.25470608 7:0.19013663 8:0.32965503 9:0.26566644 
0.001 1:0.15035067 2:0.064400921 3:0.10521862 4:0.32648991 5:0.17647059 6:0.27756153 7:0.24150812 8:0.15751727 9:0.088717661 
0.001 1:0.08072765 2:0.055655439 3:0.0045332547 4:0.16886792 5:0.11764706 6:0.098035713 7:0.17452176 8:0.18869496 9:0.17013978 
0.001 1:0.072800783 2:0.0081209602 3:0.023015584 4:0.16285788 5:0.11764706 6:0.11198608 7:0.21194553 8:0.14718626 9:0.20326339 
0.001 1:0.042470942 2:0.083480471 3:0.16187283 4:0.16880104 5:0.11764706 6:0.21280832 7:0.045332938 8:0.069859941 9:0.15654998 
0.001 1:0.223493 2:0.23450619 3:0.20595588 4:0.034815237 5:0.17647059 6:0.11656553 7:0.16976905 8:0.23632885 9:0.19033098 
0.001 1:0.060131395 2:0.049570594 3:0.018050911 4:0.14131511 5:0.11764706 6:0.13199491 7:0.17087741 8:0.20709045 9:0.16214569 
0.001 1:0.030990706 2:0.073660849 3:0.28821487 4:0.25833338 5:0.17647059 6:0.40133298 7:0.069966984 8:0.022504294 9:0.26676064 
0.001 1:0.19253242 2:0.079703324 3:0.078974471 4:0.30704478 5:0.17647059 6:0.31034042 7:0.20447405 8:0.10523482 9:0.13346042 
0.001 1:-0.058162936 2:0.041509556 3:0.17455265 4:0.14335953 5:0.17647059 6:0.23871199 7:0.23236685 8:0.32356778 9:0.31585929 
0.001 1:0.21300121 2:0.27191946 3:0.31484839 4:-0.075057676 5:0.17647059 6:0.027827214 7:0.14199449 8:0.27613961 9:0.24109202 
0.001 1:-0.052348859 2:0.039009694 3:0.0065845959 4:0.16164426 5:0.11764706 6:0.14620715 7:0.16904847 8:0.27303026 9:0.19800091 
0.001 1:0.14274152 2:0.137901 3:0.095644172 4:0.095103263 5:0.11764706 6:0.067817483 7:0.17307785 8:0.11052451 9:0.11836668 
0.001 1:-0.016547267 2:-0.025412559 3:0.12626838 4:0.15589757 5:0.11764706 6:0.18524949 7:0.12580187 8:0.13557583 9:0.25434315 
0.001 1:0.12720242 2:0.058108772 3:0.030831489 4:0.21690859 5:0.11764706 6:0.19176599 7:0.1095305 8:0.12810167 9:0.078727052 
0.001 1:0.13145764 2:-0.050006227 3:0.075813976 4:0.21693773 5:0.11764706 6:0.17691734 7:0.060706086 8:0.12353759 9:0.20581233 
0.001 1:0.03009779 2:0.071030552 3:0.0098240522 4:0.12242388 5:0.11764706 6:0.14857632 7:0.18700074 8:0.18928017 9:0.18294298 
0.001 1:0.015588889 2:0.12440694 3:0.17446492 4:0.11202083 5:0.11764706 6:0.17146273 7:0.038006227 8:0.10967997 9:0.19554597 
0.001 1:0.12824965 2:0.15313254 3:0.10803947 4:0.039752551 5:0.11764706 6:0.024198106 7:0.20608039 8:0.20666086 9:0.075062897 
0.001 1:0.12584741 2:0.084108524 3:0.24150586 4:0.03863577 5:0.11764706 6:0.029999666 7:0.29820429 8:0.1137632 9:0.0091117555 
0.001 1:0.39774853 2:0.59029503 3:0.38471408 4:-0.37134605 5:0.23529412 6:-0.046322634 7:0.19241275 8:0.48273172 9:0.25211952 
0.001 1:0.14983055 2:0.069327087 3:0.16391159 4:0.0076777278 5:0.17647059 6:0.12590266 7:0.37359917 8:0.23003266 9:0.29148326 
0.001 1:0.18602077 2:0.13570359 3:0.18983548 4:0.36563582 5:0.17647059 6:0.24454256 7:0.29089313 8:0.047729048 9:-0.048595683 
0.001 1:0.013115445 2:0.061521611 3:0.033464559 4:0.16943339 5:0.17647059 6:0.32418991 7:0.19746848 8:0.30749972 9:0.30507158 
0.001 1:0.11440972 2:0.068129525 3:0.15222876 4:0.17734306 5:0.17647059 6:0.11494546 7:0.23105737 8:0.31388722 9:0.23976359 
0.001 1:0.30162877 2:0.14421516 3:0.29095398 4:0.34571944 5:0.17647059 6:0.33544612 7:-0.081549951 8:-0.18876374 9:-0.10242255 
0.001 1:-0.010551282 2:0.10026324 3:0.28744364 4:0.23369627 5:0.17647059 6:0.40949936 7:0.025871578 8:0.073303485 9:0.29223842 
0.001 1:0.25072432 2:0.095628397 3:0.17139445 4:0.2054904 5:0.17647059 6:0.16060244 7:0.21777599 8:0.14722715 9:0.16292158 
0.001 1:0.18077153 2:0.098989274 3:0.141519 4:0.14761744 5:0.11764706 6:0.03112518 7:0.15834537 8:0.10549884 9:0.077309835 
0.001 1:0.11167401 2:0.20445259 3:0.17270936 4:-0.063778381 5:0.11764706 6:0.098062786 7:0.081406382 8:0.17642046 9:0.16022926 
0.001 1:0.19380744 2:0.13465263 3:0.11944095 4:0.27246716 5:0.17647059 6:0.25433278 7:0.19638661 8:0.10626722 9:0.13440992 
0.001 1:0.056727796 2:0.05258504 3:0.15969823 4:0.19461425 5:0.17647059 6:0.22357841 7:0.21166215 8:0.23763593 9:0.2752629 
0.001 1:0.11545585 2:0.16108692 3:0.15007027 4:0.046273035 5:0.11764706 6:0.065279648 7:0.12033103 8:0.14222804 9:0.14045168 
0.001 1:0.052004074 2:0.061731215 3:0.1695177 4:0.15272283 5:0.11764706 6:0.18788976 7:0.074877517 8:0.071801517 9:0.17063186 
0.001 1:0.075709485 2:0.074905866 3:0.15178732 4:0.16445697 5:0.11764706 6:0.20474634 7:0.083123805 8:0.063012488 9:0.1234342 
0.001 1:0.25351376 2:0.27104781 3:0.28589341 4:-0.040649416 5:0.17647059 6:0.022583238 7:0.17221326 8:0.26665832 9:0.18050432 
0.001 1:0.012550308 2:0.045260418 3:0.16643696 4:0.16755618 5:0.17647059 6:0.25309763 7:0.21615181 8:0.25664745 9:0.29406394 
0.001 1:0.18778391 2:0.098569602 3:0.14699121 4:0.27876624 5:0.17647059 6:0.26499382 7:0.16263641 8:0.11253491 9:0.1594886 
0.001 1:0.24373338 2:0.26155295 3:0.27886599 4:-0.072912695 5:0.17647059 6:0.036365805 7:0.18428239 8:0.22399128 9:0.25588561 
0.001 1:0.2335259 2:0.25520705 3:0.26759083 4:-0.08493571 5:0.17647059 6:0.0039279337 7:0.23548779 8:0.25433125 9:0.24662966 
0.001 1:0.15902701 2:-0.0012186519 3:0.0031149278 4:0.24290186 5:0.17647059 6:0.19132962 7:0.32974909 8:0.19039354 9:0.2964673 
0.001 1:0.024970681 2:-0.023584221 3:-0.21671431 4:0.4136518 5:0.23529412 6:0.4313394 7:-0.011793099 8:0.057003685 9:-0.19390054 
0.001 1:0.033849921 2:0.12444583 3:0.21567404 4:0.18198924 5:0.11764706 6:0.27084356 7:0.021706291 8:-0.044872711 9:0.13754029 
0.001 1:0.045832774 2:-0.015390429 3:0.090686127 4:0.18365692 5:0.11764706 6:0.22247917 7:0.051931744 8:0.078448119 9:0.28353204 
0.001 1:0.050199232 2:0.17459332 3:0.15260511 4:-0.057464668 5:0.11764706 6:0.0005608312 7:0.18789209 8:0.26465919 9:0.16813136 
0.001 1:-0.066704727 2:-0.058983572 3:0.18738308 4:0.099678329 5:0.11764706 6:0.24031146 7:0.15961714 8:0.13691694 9:0.24295783 
0.001 1:0.16531924 2:0.14193721 3:0.093053413 4:0.21261887 5:0.11764706 6:0.12814343 7:0.078575096 8:0.06121414 9:0.060315066 
0.001 1:0.076858394 2:-0.014315544 3:0.19006337 4:0.20365277 5:0.11764706 6:0.17996897 7:0.14595796 8:0.11557325 9:0.043417296 
0.001 1:-0.17073982 2:0.014139755 3:-0.14970245 4:0.16305892 5:0.11764706 6:0.12887672 7:0.050620299 8:0.1219182 9:0.1784637 
0.001 1:0.052399453 2:0.095865937 3:-0.059151469 4:0.30699473 5:0.11764706 6:0.23481432 7:0.23221997 8:0.087817373 9:-0.00978384 
