svm_type c_svc
kernel_type linear
nr_class 2
total_sv 2842
rho -8.0049893527967911e-07
label 1 -1
nr_sv 1419 1423
SV
0.001 1:0.048418587 2:0.052213309 3:0.12719451 4:0.16346363 5:0.17647059 6:0.26794237 7:0.18725957 8:0.25905618 9:0.30621655 
0.001 1:0.16011248 2:0.24151863 3:0.29342228 4:0.14619804 5:0.17647059 6:0.28425211 7:0.02939345 8:0.076887777 9:0.17997994 
0.001 1:0.17844871 2:0.18766262 3:0.28682952 4:0.19338547 5:0.17647059 6:0.29370695 7:0.013480188 8:0.064525731 9:0.19372551 
0.001 1:0.27842937 2:0.19851295 3:0.16680948 4:0.30190039 5:0.17647059 6:0.18569646 7:0.12983788 8:0.12773845 9:0.022839733 
0.001 1:0.02124232 2:0.016771462 3:0.12904262 4:0.15807847 5:0.17647059 6:0.318294 7:0.19729848 8:0.24540165 9:0.32563571 
0.001 1:0.086989947 2:0.010271128 3:0.029990258 4:0.28529374 5:0.17647059 6:0.28486044 7:0.26193933 8:0.18765617 9:0.2647637 
0.001 1:0.17759848 2:0.13232246 3:0.041711824 4:0.24173792 5:0.17647059 6:0.1278644 7:0.28774463 8:0.23171945 9:0.17106554 
0.001 1:0.18947822 2:0.20730521 3:0.28474389 4:0.20127417 5:0.17647059 6:0.29857938 7:0.019948394 8:0.057474856 9:0.15296059 
0.001 1:0.18147402 2:0.14525332 3:-0.0033089552 4:0.25687698 5:0.17647059 6:0.13449417 7:0.29441773 8:0.23032168 9:0.17223577 
0.001 1:0.10889927 2:0.14992292 3:0.085525568 4:0.18481045 5:0.17647059 6:0.19607268 7:0.20850828 8:0.2393234 9:0.23870214 
0.001 1:0.15003892 2:0.10398448 3:0.16142394 4:0.19620058 5:0.17647059 6:0.2045329 7:0.20130544 8:0.17151137 9:0.22276707 
0.001 1:0.19106888 2:0.11294197 3:0.029111755 4:0.23935182 5:0.17647059 6:0.15639601 7:0.28119837 8:0.22238043 9:0.17931546 
0.001 1:0.23670415 2:0.18693668 3:0.2092544 4:0.23737082 5:0.17647059 6:0.2199402 7:0.16166865 8:0.052147823 9:0.10774199 
0.001 1:0.17379276 2:0.22611088 3:0.27086192 4:0.15903298 5:0.17647059 6:0.26764503 7:0.041391325 8:0.084155684 9:0.18877413 
0.001 1:0.18763147 2:0.054148677 3:-0.014849784 4:0.27702643 5:0.17647059 6:0.11867751 7:0.3268005 8:0.26662532 9:0.19570459 
0.001 1:0.29308305 2:0.25941928 3:0.15962941 4:0.30459253 5:0.17647059 6:0.15539909 7:0.13812544 8:0.098540418 9:0.0029754848 
0.001 1:0.12392736 2:-0.016715413 3:-0.0044114285 4:0.29234117 5:0.17647059 6:0.26129196 7:0.28384465 8:0.22527439 9:0.24621201 
0.001 1:0.23729194 2:0.18164219 3:0.21236672 4:0.20093707 5:0.17647059 6:0.24802742 7:0.11642344 8:0.071897831 9:0.14317809 
0.001 1:0.19771555 2:0.2263656 3:0.28585301 4:0.18903427 5:0.17647059 6:0.30066797 7:0.016173179 8:0.041545276 9:0.15440985 
0.001 1:0.17537654 2:0.13175639 3:0.021535804 4:0.26533593 5:0.17647059 6:0.14325425 7:0.28942726 8:0.23807982 9:0.14699871 
0.001 1:0.30504852 2:0.11657249 3:0.044980073 4:0.24376157 5:0.17647059 6:0.098320514 7:0.32886663 8:0.18028697 9:0.093927932 
0.001 1:0.22548938 2:0.26573298 3:0.1815893 4:0.11666406 5:0.17647059 6:0.090437247 7:0.14853662 8:0.22047993 9:0.16283518 
0.001 1:0.26147406 2:0.22904928 3:0.12552329 4:0.30181959 5:0.17647059 6:0.16756539 7:0.17333828 8:0.10209333 9:0.050901486 
0.001 1:0.18562418 2:0.21698776 3:0.27369662 4:0.16977414 5:0.17647059 6:0.27125363 7:0.05199947 8:0.077325469 9:0.16510343 
0.001 1:0.19622745 2:0.20584003 3:0.2828487 4:0.15167538 5:0.17647059 6:0.3020787 7:0.063172983 8:0.057706407 9:0.15221506 
0.001 1:0.12271317 2:0.030488214 3:0.12842648 4:0.24254079 5:0.17647059 6:0.19878092 7:0.2557207 8:0.18558632 9:0.24750812 
0.001 1:0.2274879 2:0.19200775 3:0.2610981 4:0.24231426 5:0.17647059 6:0.23798316 7:0.15283135 8:0.019225749 9:0.078816439 
0.001 1:0.078356735 2:0.14553133 3:0.10832116 4:0.17441447 5:0.17647059 6:0.19670336 7:0.22854886 8:0.27173629 9:0.2081525 
0.001 1:0.18176999 2:0.10869605 3:0.029627997 4:0.2640837 5:0.17647059 6:0.14327195 7:0.29475814 8:0.22776792 9:0.16178895 
0.001 1:0.45630411 2:-0.020339857 3:-0.1952793 4:0.62134792 5:0.23529412 6:0.11644573 7:0.60513128 8:0.21012378 9:0.088619277 
0.001 1:0.27655976 2:0.12816892 3:0.062807345 4:0.23821897 5:0.17647059 6:0.10561101 7:0.31144956 8:0.18591226 9:0.10303687 
0.001 1:0.1879068 2:0.1423014 3:0.1280836 4:0.21761055 5:0.17647059 6:0.14183287 7:0.21214692 8:0.1956123 9:0.18627026 
0.001 1:0.29300959 2:0.20312265 3:0.14322188 4:0.31596642 5:0.17647059 6:0.14114381 7:0.26340859 8:0.074689935 9:-0.022798168 
0.001 1:0.059199796 2:0.080127754 3:0.161008 4:0.18220934 5:0.17647059 6:0.262497 7:0.15920686 8:0.21443866 9:0.2930773 
0.001 1:0.20250704 2:0.1931183 3:0.23892216 4:0.21738971 5:0.17647059 6:0.22063737 7:0.13919321 8:0.060627395 9:0.13936954 
0.001 1:0.11363425 2:0.15649377 3:0.10258435 4:0.17433057 5:0.17647059 6:0.18065488 7:0.22925614 8:0.25170432 9:0.20310643 
0.001 1:0.21215544 2:0.11511943 3:-0.0086387611 4:0.25386867 5:0.17647059 6:0.12065082 7:0.33329066 8:0.20121273 9:0.18410572 
0.001 1:0.15466416 2:0.056061094 3:0.09868406 4:0.19341669 5:0.17647059 6:0.23369692 7:0.25579974 8:0.19409995 9:0.22534209 
0.001 1:0.19454423 2:0.10509454 3:0.0068069882 4:0.27825404 5:0.17647059 6:0.12019381 7:0.31814572 8:0.25030554 9:0.13841984 
0.001 1:0.26540323 2:0.17965174 3:0.19974513 4:0.29218275 5:0.17647059 6:0.23311566 7:0.13740476 8:0.012989592 9:0.09127184 
0.001 1:0.25081062 2:0.14676363 3:0.22294518 4:0.27322856 5:0.17647059 6:0.25175261 7:0.14971088 8:0.052170549 9:0.064382674 
0.001 1:0.23522195 2:0.32063256 3:0.20649346 4:0.076595746 5:0.17647059 6:0.069094026 7:0.14426403 8:0.21748489 9:0.14197805 
0.001 1:0.095407275 2:0.20340694 3:0.26876764 4:0.16904563 5:0.17647059 6:0.31350766 7:0.067721891 8:0.083563635 9:0.21034404 
0.001 1:0.2320409 2:0.32412525 3:0.23679726 4:0.069620818 5:0.17647059 6:0.034082389 7:0.14168835 8:0.20524637 9:0.16816337 
0.001 1:0.19044691 2:0.22440184 3:0.31843258 4:0.18483672 5:0.17647059 6:0.31253276 7:-0.0088115769 8:0.028595844 9:0.16132963 
0.001 1:0.18535331 2:0.10080894 3:0.061450295 4:0.24141842 5:0.17647059 6:0.14532148 7:0.27961936 8:0.22294927 9:0.17484363 
0.001 1:0.16514745 2:0.087486159 3:0.14960452 4:0.2104184 5:0.17647059 6:0.20422841 7:0.20631661 8:0.15999243 9:0.22857073 
0.00079093903208827783 1:0.52027614 2:0.071445281 3:-0.2315038 4:0.49973369 5:0.23529412 6:0.10895599 7:0.5748302 8:0.2928729 9:0.045742544 
0.001 1:0.1772984 2:0.22656888 3:0.28698603 4:0.18298221 5:0.17647059 6:0.30325029 7:0.019588477 8:0.046526389 9:0.16856405 
0.001 1:0.072958069 2:0.16850374 3:0.13539155 4:0.053571629 5:0.11764706 6:0.079618335 7:0.12143753 8:0.16694242 9:0.1427532 
0.001 1:0.18312601 2:0.15599749 3:0.1231896 4:0.19845454 5:0.17647059 6:0.14289482 7:0.22938166 8:0.20493532 9:0.17378526 
0.001 1:0.26561122 2:0.097239079 3:0.019277973 4:0.31649622 5:0.17647059 6:0.099820627 7:0.31838832 8:0.16827382 9:0.12665744 
0.001 1:0.17026688 2:0.24051845 3:0.26123302 4:0.16269492 5:0.17647059 6:0.25767459 7:0.052606115 8:0.094871955 9:0.17189876 
0.001 1:0.24155297 2:0.1981784 3:0.17173333 4:0.27404295 5:0.17647059 6:0.18312301 7:0.1659623 8:0.12307052 9:0.054101231 
0.001 1:0.23002057 2:0.16953236 3:0.15114014 4:0.27803635 5:0.17647059 6:0.16294629 7:0.19103596 8:0.15596963 9:0.073083418 
0.001 1:0.21536566 2:0.1634382 3:0.22167885 4:0.24488718 5:0.17647059 6:0.22747239 7:0.13685009 8:0.089321335 9:0.11275099 
0.001 1:0.27030409 2:0.20945755 3:0.16813765 4:0.28670599 5:0.17647059 6:0.15104936 7:0.15625306 8:0.13889403 9:0.030962981 
0.001 1:0.035162089 2:0.041529891 3:0.16076148 4:0.16281947 5:0.17647059 6:0.2780369 7:0.18860266 8:0.24973454 9:0.29511768 
0.001 1:0.23645705 2:0.30883692 3:0.21293575 4:0.09822901 5:0.17647059 6:0.065910574 7:0.12805445 8:0.21678324 9:0.14455771 
0.001 1:0.21717951 2:0.15244849 3:0.2243335 4:0.26954667 5:0.17647059 6:0.25557745 7:0.14052844 8:0.061897764 9:0.090252879 
0.001 1:0.18487341 2:0.095404244 3:-0.0010156201 4:0.25883143 5:0.17647059 6:0.12125652 7:0.32293418 8:0.23850343 9:0.19097711 
0.001 1:0.12202969 2:-0.0048871007 3:0.018618594 4:0.27103099 5:0.17647059 6:0.26145767 7:0.27845918 8:0.22268823 9:0.24236745 
0.001 1:0.29768938 2:0.22857986 3:0.12641025 4:0.32512691 5:0.17647059 6:0.15349812 7:0.14578974 8:0.10140625 9:0.033264189 
0.001 1:0.13780369 2:0.21223861 3:0.14589919 4:0.0027304813 5:0.17647059 6:0.13506144 7:0.20024848 8:0.31513189 9:0.26265092 
0.001 1:0.19736462 2:0.29041549 3:0.26500298 4:0.057418755 5:0.17647059 6:0.03379054 7:0.19563551 8:0.24182161 9:0.13031519 
0.001 1:0.16447998 2:0.11205116 3:0.29637262 4:0.2198938 5:0.17647059 6:0.32290833 7:0.15856908 8:-0.07338159 9:0.21087134 
0.001 1:0.31927514 2:0.24677629 3:0.31567713 4:0.17889158 5:0.17647059 6:0.41286455 7:-0.11627336 8:-0.091560498 9:0.14611387 
0.001 1:0.26273724 2:0.17469547 3:0.25640832 4:0.23880946 5:0.17647059 6:0.23610093 7:0.19434986 8:0.0002471666 9:0.048416261 
0.001 1:0.15402639 2:0.038006527 3:-0.077377766 4:0.36527256 5:0.17647059 6:0.25113486 7:0.34387268 8:0.19353258 9:0.14329689 
0.001 1:-0.0096536961 2:-0.036974726 3:0.14520194 4:-0.031283888 5:0.17647059 6:0.26967572 7:0.31888399 8:0.3453284 9:0.41058696 
0.001 1:0.12475806 2:0.033439659 3:0.024741833 4:0.25928739 5:0.17647059 6:0.23935629 7:0.27287726 8:0.20725175 9:0.25005247 
0.001 1:0.2300487 2:0.15931986 3:0.21029869 4:0.23231147 5:0.17647059 6:0.26356724 7:0.11273942 8:0.062982348 9:0.14049698 
0.001 1:0.14971884 2:0.24873649 3:0.24588281 4:0.37528896 5:0.23529412 6:0.24331372 7:0.29525458 8:0.24012769 9:0.084029846 
0.001 1:0.1863038 2:0.20418145 3:0.18705553 4:0.17964474 5:0.17647059 6:0.18500535 7:0.15167418 8:0.1645321 9:0.15336755 
0.001 1:0.10619782 2:0.11992319 3:0.094354928 4:0.12160593 5:0.11764706 6:0.12523631 7:0.11034917 8:0.14126809 9:0.12224103 
0.001 1:0.21074549 2:0.15095161 3:0.28282938 4:0.17393787 5:0.17647059 6:0.30366317 7:0.077238049 8:0.0019943714 9:0.21040477 
0.001 1:0.22240143 2:0.16949149 3:0.21002392 4:0.22521791 5:0.17647059 6:0.22832534 7:0.12672205 8:0.083152423 9:0.14643015 
0.001 1:0.096525152 2:0.17555282 3:0.09650042 4:0.14739468 5:0.17647059 6:0.17736846 7:0.21260747 8:0.30236882 9:0.20344689 
0.001 1:0.20211421 2:0.29972236 3:0.16561138 4:0.024639466 5:0.17647059 6:0.079051346 7:0.20527725 8:0.23088205 9:0.20446665 
0.001 1:0.26047529 2:0.23382729 3:0.21772168 4:0.17547157 5:0.17647059 6:0.21524886 7:0.065817947 8:0.1280396 9:0.11516247 
0.001 1:0.26650948 2:0.16579667 3:0.217804 4:0.2645456 5:0.17647059 6:0.28159866 7:0.067792554 8:0.02714215 9:0.12057559 
0.001 1:0.33130772 2:0.27068357 3:0.20703664 4:0.27904044 5:0.17647059 6:0.21161207 7:0.018452835 8:0.063800934 9:0.029830498 
0.001 1:-0.008058536 2:-0.056230113 3:0.21138932 4:0.11237584 5:0.17647059 6:0.37959337 7:0.11385067 8:0.27459545 9:0.3842487 
0.001 1:0.11781902 2:-0.087265884 3:0.039828048 4:0.31624945 5:0.17647059 6:0.23213614 7:0.33943979 8:0.18787787 9:0.26568027 
0.001 1:0.16457261 2:-0.065792053 3:-0.0026245287 4:0.43528096 5:0.17647059 6:0.1390682 7:0.35256413 8:0.19187224 9:0.19682314 
0.001 1:0.20284921 2:1.3603465e-05 3:0.10521775 4:0.2522659 5:0.17647059 6:0.27146379 7:0.37454973 8:0.10450741 9:0.10089731 
0.001 1:0.28623108 2:0.21384745 3:0.19608752 4:0.21419871 5:0.17647059 6:0.22859438 7:0.25184819 8:0.03072039 9:-0.0097630174 
0.001 1:0.21940611 2:0.27585014 3:0.20891436 4:0.093848926 5:0.17647059 6:0.063203785 7:0.15647408 8:0.22558403 9:0.16848328 
0.001 1:0.19952264 2:0.23041855 3:0.30692711 4:0.15901003 5:0.17647059 6:0.3031436 7:0.0037540421 8:0.039091319 9:0.16989741 
0.001 1:0.26546396 2:0.17408113 3:0.23251469 4:0.25176604 5:0.17647059 6:0.25422461 7:0.12889738 8:0.045708312 9:0.059108594 
0.001 1:0.059392307 2:-0.053745133 3:0.13905089 4:0.33865821 5:0.23529412 6:0.49588236 7:0.32797302 8:0.22454689 9:0.3505944 
0.001 1:-0.1158058 2:0.005657337 3:0.32246649 4:0.2113629 5:0.23529412 6:0.50388146 7:0.37742342 8:0.083387457 9:0.49397969 
0.001 1:0.15284857 2:0.11962637 3:0.12368585 4:0.16439362 5:0.11764706 6:0.11464926 7:0.12842982 8:0.079363695 9:0.058179291 
0.001 1:0.22973318 2:0.20707551 3:0.17493156 4:0.2543526 5:0.17647059 6:0.16197327 7:0.18142085 8:0.14357529 9:0.058702444 
0.001 1:0.16819857 2:0.23567566 3:0.26784096 4:0.1393622 5:0.17647059 6:0.25903376 7:0.073617376 8:0.097441258 9:0.17059492 
0.001 1:0.11685263 2:0.048355282 3:0.05436563 4:0.25038089 5:0.17647059 6:0.2273845 7:0.24921664 8:0.21441178 9:0.25079736 
0.001 1:0.27560533 2:0.24493163 3:0.14488973 4:0.30595397 5:0.17647059 6:0.14992277 7:0.17425209 8:0.092350823 9:0.023858362 
0.001 1:0.20287005 2:0.22979855 3:0.29725745 4:0.14714924 5:0.17647059 6:0.26611424 7:0.01849536 8:0.077294915 9:0.17278491 
0.001 1:0.22902724 2:0.17447673 3:0.21648705 4:0.24426419 5:0.17647059 6:0.24870866 7:0.13750139 8:0.059786478 9:0.10151298 
0.001 1:0.18164834 2:0.0958788 3:0.034589929 4:0.30130201 5:0.17647059 6:0.13828185 7:0.282196 8:0.21350465 9:0.16436313 
0.001 1:0.28101213 2:0.2405396 3:0.17899417 4:0.30694138 5:0.17647059 6:0.16180312 7:0.15974894 8:0.092058487 9:-0.0093331212 
0.001 1:0.13743394 2:0.050439546 3:0.1300258 4:0.25144066 5:0.17647059 6:0.17725947 7:0.24930398 8:0.18453386 9:0.23132745 
0.001 1:0.21165144 2:0.069079243 3:-0.027891673 4:0.27517455 5:0.17647059 6:0.13699996 7:0.3185522 8:0.26771691 9:0.16048207 
0.001 1:0.31917672 2:0.21071114 3:0.26136804 4:0.29888491 5:0.17647059 6:0.30067371 7:0.052915896 8:0.065421621 9:-0.097387335 
0.001 1:0.12182399 2:0.018100243 3:-0.017573823 4:0.33240881 5:0.17647059 6:0.25349841 7:0.28262783 8:0.20102906 9:0.21985018 
0.001 1:0.22990212 2:0.18270092 3:0.2170032 4:0.24917787 5:0.17647059 6:0.25425833 7:0.15584024 8:0.053538831 9:0.069343213 
0.001 1:0.18714331 2:0.32113055 3:0.23479018 4:0.14766967 5:0.17647059 6:0.10001622 7:0.11272037 8:0.18526426 9:0.12303016 
0.001 1:0.29314702 2:0.20443193 3:0.2402396 4:0.29475022 5:0.17647059 6:0.22406416 7:0.094647119 8:0.012621201 9:0.047863451 
0.001 1:-0.016734585 2:-0.0454983 3:0.14522893 4:0.2347656 5:0.17647059 6:0.32384547 7:0.29507642 8:0.19402334 9:0.28105783 
0.001 1:0.19612471 2:0.13199685 3:0.022481784 4:0.25311525 5:0.17647059 6:0.11391281 7:0.29212434 8:0.2374723 9:0.16453666 
0.001 1:0.19998057 2:0.12407952 3:0.051748298 4:0.25963201 5:0.17647059 6:0.14790772 7:0.25839565 8:0.21896919 9:0.15105176 
0.001 1:0.12724937 2:0.06278454 3:0.1416189 4:0.22442874 5:0.17647059 6:0.19764344 7:0.23515082 8:0.18672359 9:0.2361653 
0.001 1:0.20687476 2:0.25022388 3:0.23698911 4:0.21318478 5:0.17647059 6:0.26992366 7:0.0017900121 8:0.13256284 9:0.10021566 
0.001 1:0.1673184 2:0.15306204 3:0.13345716 4:0.20237245 5:0.17647059 6:0.16679244 7:0.21675259 8:0.19656112 9:0.1754485 
0.001 1:0.17830007 2:0.15342831 3:0.12687097 4:0.20387678 5:0.17647059 6:0.14555159 7:0.22702591 8:0.1975405 9:0.17917057 
0.001 1:0.1582603 2:0.11873341 3:0.12655644 4:0.23135288 5:0.17647059 6:0.2098542 7:0.19975556 8:0.17387239 9:0.19337953 
0.001 1:0.067738131 2:0.067423631 3:0.15001461 4:0.19848052 5:0.17647059 6:0.26400449 7:0.18748401 8:0.23007736 9:0.24654195 
0.001 1:0.039660515 2:0.097465487 3:0.17055783 4:0.17052748 5:0.17647059 6:0.28455197 7:0.1647941 8:0.22852577 9:0.25568155 
0.001 1:0.13509534 2:0.052764701 3:0.1542624 4:0.21400003 5:0.17647059 6:0.20109766 7:0.2512711 8:0.1850802 9:0.21819327 
0.001 1:0.19908971 2:0.13245949 3:0.04880644 4:0.23386737 5:0.17647059 6:0.15875826 7:0.27775827 8:0.21781592 9:0.14320925 
0.001 1:0.098399914 2:0.063129051 3:0.069292638 4:0.25253846 5:0.17647059 6:0.23634573 7:0.24994405 8:0.22221777 9:0.21989709 
0.001 1:0.28158791 2:0.21442325 3:0.17327926 4:0.29756939 5:0.17647059 6:0.13429888 7:0.17608257 8:0.10224924 9:0.032274222 
0.001 1:0.16143815 2:0.11449829 3:0.030308337 4:0.26191334 5:0.17647059 6:0.15185498 7:0.29406359 8:0.24045703 9:0.15723099 
0.001 1:0.27453097 2:0.27374979 3:0.1382249 4:0.40399109 5:0.17647059 6:0.16282887 7:0.16669999 8:0.091489426 9:-0.099750321 
0.001 1:0.23080396 2:0.22224357 3:0.21968386 4:0.201198 5:0.17647059 6:0.18719579 7:0.11578216 8:0.15524919 9:0.07960818 
0.001 1:0.17801256 2:0.13246753 3:0.038431665 4:0.27828016 5:0.17647059 6:0.13993753 7:0.25639515 8:0.24044759 9:0.14779251 
0.001 1:0.08927684 2:0.032294754 3:0.00096843053 4:0.2263351 5:0.17647059 6:0.20011185 7:0.3288124 8:0.25291158 9:0.28105375 
0.001 1:0.25430312 2:0.10820489 3:0.067174333 4:0.20060737 5:0.17647059 6:0.08597591 7:0.25821538 8:0.23569512 9:0.20158858 
0.001 1:0.22506502 2:0.26366178 3:0.18160389 4:0.17910545 5:0.17647059 6:0.27835597 7:0.025148856 8:0.10749961 9:0.15132412 
0.001 1:0.22509301 2:0.29316262 3:0.26138327 4:0.14059618 5:0.17647059 6:0.21114872 7:-0.0083906668 8:0.16026843 9:0.12850314 
0.001 1:0.29816888 2:0.19057303 3:0.26066076 4:0.38005708 5:0.17647059 6:0.21747792 7:0.1190373 8:-0.074237601 9:0.020027332 
0.001 1:-0.034654183 2:-0.099225689 3:0.18410837 4:0.28320668 5:0.23529412 6:0.47470951 7:0.35198055 8:0.23557248 9:0.48665522 
0.001 1:-0.0077685483 2:-0.0096670674 3:-0.040623352 4:0.26087641 5:0.11764706 6:0.17445924 7:0.25913877 8:0.022752807 9:0.2820082 
0.001 1:0.23265065 2:0.19343022 3:0.24613876 4:0.22083444 5:0.17647059 6:0.22290202 7:0.12503544 8:0.064385023 9:0.10638817 
0.001 1:0.09174491 2:0.18088203 3:0.11488445 4:0.17087857 5:0.17647059 6:0.18086997 7:0.22003576 8:0.26038637 9:0.19208264 
0.001 1:0.093090545 2:0.1638047 3:0.10500482 4:0.18266871 5:0.17647059 6:0.18272174 7:0.21937556 8:0.24705938 9:0.21803924 
0.001 1:0.11105704 2:0.049838127 3:0.054105793 4:0.2478832 5:0.17647059 6:0.23478989 7:0.25885262 8:0.21417111 9:0.24106693 
0.001 1:0.19721676 2:0.17487094 3:0.18874809 4:0.22041672 5:0.17647059 6:0.205624 7:0.16695133 8:0.11743478 9:0.14050208 
0.001 1:0.18744131 2:0.19561851 3:0.22567292 4:0.17476913 5:0.17647059 6:0.22335333 7:0.11126615 8:0.11980322 9:0.17384013 
0.001 1:0.14118704 2:0.14144182 3:0.1370098 4:0.13738926 5:0.11764706 6:0.11909373 7:0.084610272 8:0.089197155 9:0.091247392 
0.001 1:0.12668036 2:0.13058521 3:0.16745692 4:0.11750534 5:0.11764706 6:0.17878877 7:0.052619027 8:0.058581915 9:0.10895892 
0.001 1:0.3242184 2:0.1783788 3:0.1159533 4:0.33685692 5:0.17647059 6:0.13497367 7:0.27883538 8:0.075870121 9:-0.033321889 
0.001 1:0.26251917 2:0.21962867 3:0.14606026 4:0.26212359 5:0.17647059 6:0.12835328 7:0.17789964 8:0.14127996 9:0.073900146 
0.001 1:0.05317617 2:0.059745397 3:0.1262432 4:0.18362557 5:0.17647059 6:0.24963462 7:0.1717895 8:0.27711502 9:0.29043523 
0.001 1:0.16120104 2:0.18862858 3:0.2663105 4:0.18321426 5:0.17647059 6:0.30370431 7:0.069982984 8:0.069234684 9:0.16948835 
0.001 1:0.12797293 2:0.073310643 3:0.13168217 4:0.23601965 5:0.17647059 6:0.18878295 7:0.22033163 8:0.18855895 9:0.24510577 
0.001 1:0.28724708 2:0.19141625 3:0.24454966 4:0.27908541 5:0.17647059 6:0.28392329 7:0.11070396 8:-0.016794977 9:0.031634039 
0.001 1:0.19655388 2:0.19655731 3:0.13169722 4:0.19642238 5:0.17647059 6:-0.074552142 7:0.2391427 8:0.27075712 9:0.25518625 
0.001 1:0.27820075 2:0.22610955 3:0.15832992 4:0.336008 5:0.17647059 6:0.12574263 7:0.16480806 8:0.071955271 9:0.050610526 
0.001 1:0.090429012 2:-0.05353455 3:0.024206977 4:0.27976647 5:0.17647059 6:0.25770181 7:0.25532052 8:0.24097726 9:0.31689721 
0.001 1:0.021915946 2:0.05580261 3:0.23549672 4:0.18826005 5:0.17647059 6:0.28970309 7:0.19685852 8:0.16235773 9:0.26137004 
0.001 1:0.26135186 2:0.21610496 3:0.24642181 4:0.29698616 5:0.17647059 6:0.17914487 7:0.094474386 8:0.11305692 9:0.0042237537 
0.001 1:0.012768463 2:0.011592178 3:-0.10513109 4:0.32469648 5:0.17647059 6:0.16794932 7:0.39224389 8:0.3105315 9:0.29711395 
0.001 1:0.38209232 2:0.36458589 3:0.22189033 4:0.46815602 5:0.23529412 6:0.26295161 7:0.14224693 8:0.1032192 9:-0.062789368 
0.001 1:0.30082917 2:0.2368239 3:0.25785988 4:0.3478917 5:0.17647059 6:0.21780811 7:0.15494723 8:-0.05223067 9:-0.052164612 
0.001 1:0.15070547 2:-0.050589309 3:-0.018959533 4:0.26185282 5:0.17647059 6:0.22491152 7:0.34355056 8:0.18001807 9:0.32027509 
0.001 1:-0.18580519 2:0.064181352 3:0.015117387 4:0.3020842 5:0.17647059 6:0.22053758 7:0.27176624 8:0.50063175 9:0.22325139 
0.001 1:0.13341859 2:0.10552185 3:0.17837336 4:0.18197663 5:0.17647059 6:0.1984872 7:0.19807057 8:0.16442604 9:0.25149047 
0.001 1:0.11733987 2:0.23233836 3:0.17445955 4:0.095752758 5:0.17647059 6:0.16148034 7:0.13986982 8:0.25324921 9:0.23727481 
0.001 1:0.065656318 2:0.35688844 3:0.18315536 4:-0.04812424 5:0.17647059 6:0.13261397 7:0.13884345 8:0.34298671 9:0.2397447 
0.001 1:0.15295486 2:0.1243326 3:0.13283911 4:0.15493584 5:0.11764706 6:0.13226212 7:0.10074287 8:0.064344015 9:0.078765052 
0.001 1:0.15124422 2:0.13300925 3:0.11503327 4:0.16398175 5:0.11764706 6:0.11676833 7:0.10862499 8:0.097544108 9:0.054970547 
0.001 1:0.13048357 2:0.172221 3:0.1524401 4:0.15891865 5:0.17647059 6:0.18429748 7:0.18402081 8:0.22346967 9:0.20591342 
0.001 1:0.20204594 2:0.19908283 3:0.19006572 4:0.21457718 5:0.17647059 6:0.17983923 7:0.15970069 8:0.15234838 9:0.11410472 
0.001 1:0.087761873 2:0.076923699 3:0.03662782 4:0.14795936 5:0.11764706 6:0.1436089 7:0.16395425 8:0.1280796 9:0.15626097 
0.001 1:0.35842541 2:0.23168628 3:0.20400521 4:0.40902079 5:0.23529412 6:0.25707904 7:0.28104956 8:0.071028109 9:0.070058551 
0.001 1:0.1881784 2:0.16667584 3:0.18654807 4:0.23201714 5:0.17647059 6:0.23585715 7:0.1399109 8:0.1082413 9:0.15433591 
0.001 1:0.25573429 2:0.214768 3:0.15297646 4:0.26787729 5:0.17647059 6:0.15466297 7:0.16993609 8:0.12099137 9:0.074818235 
0.001 1:0.1465602 2:0.10562835 3:0.16937168 4:0.1925103 5:0.17647059 6:0.20838016 7:0.20712755 8:0.16855012 9:0.21363635 
0.001 1:0.23506619 2:0.218109 3:0.13510647 4:0.27408938 5:0.17647059 6:0.18945405 7:0.14622 8:0.13280756 9:0.080912045 
0.001 1:0.21265697 2:0.19502449 3:0.24773577 4:0.19118257 5:0.17647059 6:0.26364795 7:0.044169293 8:0.069362217 9:0.18798545 
0.001 1:0.249051 2:0.3010455 3:0.21543596 4:0.081121191 5:0.17647059 6:0.073976757 7:0.14773953 8:0.19741348 9:0.14598129 
0.001 1:0.16953624 2:0.038593314 3:0.13839314 4:0.22789369 5:0.17647059 6:0.18027783 7:0.2359707 8:0.19517167 9:0.22592813 
0.001 1:0.16665114 2:0.13145753 3:0.054173175 4:0.2329481 5:0.17647059 6:0.14490419 7:0.29129687 8:0.21962268 9:0.17071102 
0.001 1:0.29219504 2:0.21504171 3:0.17512609 4:0.29332212 5:0.17647059 6:0.20494286 7:0.14067931 8:-0.0099487003 9:0.10040629 
0.001 1:0.27581168 2:0.21602518 3:0.13863095 4:0.29776469 5:0.17647059 6:0.17398431 7:0.12869521 8:0.1245957 9:0.056256995 
0.001 1:0.18469331 2:0.25890989 3:0.32259751 4:0.1762034 5:0.17647059 6:0.27844797 7:0.0016106591 8:0.041466905 9:0.14783506 
0.001 1:0.18404215 2:0.28956833 3:0.26314576 4:0.11347191 5:0.17647059 6:0.22326381 7:0.072264169 8:0.16644729 9:0.099561298 
0.001 1:-0.034622126 2:-0.021825567 3:0.16097275 4:0.17028488 5:0.17647059 6:0.33424952 7:0.20754903 8:0.24550974 9:0.34964648 
0.001 1:0.15683711 2:0.026197572 3:0.14233271 4:0.2017187 5:0.17647059 6:0.21650563 7:0.20698753 8:0.21593693 9:0.24524852 
0.001 1:0.24982359 2:0.19209478 3:0.22874884 4:0.34285921 5:0.17647059 6:0.3361208 7:0.098979942 8:0.064328958 9:-0.10119143 
0.001 1:0.20103124 2:0.057385636 3:0.019283114 4:0.25739655 5:0.17647059 6:0.14652074 7:0.32838857 8:0.31652675 9:0.08523211 
0.001 1:0.28672741 2:0.20399808 3:0.23384811 4:0.31989026 5:0.17647059 6:0.29542237 7:0.15498446 8:-0.088207158 9:0.0051011603 
0.001 1:0.036633858 2:0.15095872 3:0.087056939 4:0.20629193 5:0.17647059 6:0.15000652 7:0.22586076 8:0.32564379 9:0.22931218 
0.001 1:0.31900036 2:0.3159682 3:0.2397719 4:0.2779925 5:0.17647059 6:0.30738375 7:-0.010118819 8:-0.059131441 9:0.020898254 
0.001 1:0.15728781 2:0.074456598 3:-0.12780035 4:0.34087307 5:0.17647059 6:0.27328399 7:0.29533215 8:0.24754942 9:0.15078202 
0.001 1:0.13234106 2:-0.087384074 3:-0.14589424 4:0.42498296 5:0.17647059 6:0.31530998 7:0.27567043 8:0.23989173 9:0.25684686 
0.001 1:0.11238982 2:0.093706152 3:-0.1162431 4:0.30350979 5:0.17647059 6:0.1472312 7:0.38958184 8:0.29359432 9:0.18799469 
0.001 1:0.37475312 2:0.22609352 3:0.14156969 4:0.27942515 5:0.17647059 6:-0.031038445 7:0.15277066 8:0.19542386 9:0.072767157 
0.001 1:0.2157681 2:0.18597743 3:0.23159094 4:0.23592338 5:0.17647059 6:0.23104623 7:0.094818866 8:0.072842903 9:0.14379686 
0.001 1:0.34810112 2:0.17986017 3:0.14411784 4:0.36937317 5:0.17647059 6:0.088334498 7:0.25471481 8:0.040956589 9:-0.013693492 
0.001 1:0.13109342 2:0.11905685 3:0.13960984 4:0.14208948 5:0.11764706 6:0.13545434 7:0.12111061 8:0.082614522 9:0.070147406 
0.001 1:0.13029929 2:0.13895892 3:0.17120067 4:0.12558204 5:0.11764706 6:0.154001 7:0.06643015 8:0.042213849 9:0.11249055 
0.001 1:0.1295691 2:0.12917897 3:0.16249221 4:0.11195188 5:0.11764706 6:0.18128843 7:0.063301051 8:0.049104002 9:0.11429082 
0.001 1:0.13401518 2:0.085261085 3:0.11937984 4:0.20538158 5:0.17647059 6:0.20618215 7:0.22274871 8:0.20171316 9:0.237083 
0.001 1:0.25227946 2:0.22365453 3:0.18638879 4:0.23606474 5:0.17647059 6:0.19590283 7:0.14075819 8:0.11349828 9:0.063217881 
0.001 1:0.2823429 2:0.20049383 3:0.14458599 4:0.27400001 5:0.17647059 6:0.17219067 7:0.17100768 8:0.11635354 9:0.050790091 
0.001 1:0.089338123 2:0.19526124 3:0.15379347 4:0.12893336 5:0.17647059 6:0.20395555 7:0.1866593 8:0.24900832 9:0.20481533 
0.001 1:0.31237176 2:0.2213823 3:0.17896877 4:0.27746036 5:0.17647059 6:0.14700346 7:0.17283273 8:0.10663041 9:-0.0048850816 
0.001 1:0.19729073 2:0.10504154 3:0.0091088139 4:0.24947862 5:0.17647059 6:0.10379632 7:0.33187978 8:0.2521867 9:0.1629822 
0.001 1:0.088411121 2:0.021564769 3:0.022181876 4:0.27487914 5:0.17647059 6:0.24949848 7:0.2494229 8:0.22970693 9:0.2760995 
0.001 1:0.10011958 2:0.21649945 3:0.10818419 4:0.14358536 5:0.17647059 6:0.16887717 7:0.20622562 8:0.26292537 9:0.20534797 
0.001 1:0.21501295 2:0.20974198 3:0.21074961 4:0.21474285 5:0.17647059 6:0.22344525 7:0.16993701 8:0.081644861 9:0.086490191 
0.001 1:0.20849172 2:0.13161935 3:0.045827529 4:0.25255553 5:0.17647059 6:0.13364323 7:0.26986166 8:0.21418189 9:0.1555838 
0.001 1:0.13847043 2:0.22647516 3:0.28087698 4:0.2065177 5:0.17647059 6:0.3492863 7:-0.0041431686 8:0.048625663 9:0.16565565 
0.001 1:0.21256226 2:0.24032559 3:0.11197383 4:0.16859741 5:0.17647059 6:0.096628333 7:0.22516671 8:0.22134815 9:0.13516243 
0.001 1:0.10261434 2:0.19138041 3:0.26195539 4:0.14286094 5:0.17647059 6:0.29523365 7:0.078075561 8:0.12949958 9:0.21014484 
0.001 1:0.13354705 2:0.24253189 3:0.27952473 4:0.10302053 5:0.17647059 6:0.093122144 7:0.16928102 8:0.23204073 9:0.15869661 
0.001 1:-0.048023904 2:0.079082219 3:0.17972519 4:0.24438547 5:0.17647059 6:0.31697164 7:0.15061084 8:0.17855815 9:0.3104551 
0.001 1:-0.033110162 2:0.01598114 3:0.15928295 4:0.18037419 5:0.17647059 6:0.30452989 7:0.20812203 8:0.26751621 9:0.30906845 
0.001 1:0.36670924 2:0.27477076 3:0.25306074 4:0.28504684 5:0.17647059 6:0.089531556 7:0.11656223 8:0.083876297 9:-0.057792963 
0.001 1:-0.029327671 2:-0.0023484032 3:0.051921076 4:0.26605982 5:0.17647059 6:0.20860046 7:0.21516556 8:0.47349687 9:0.22819699 
0.001 1:0.13202911 2:0.0060714247 3:0.15617148 4:0.28939046 5:0.23529412 6:0.35361386 7:0.41230476 8:0.22288375 9:0.3098881 
0.001 1:0.28972627 2:0.30389556 3:0.33777232 4:0.196873 5:0.17647059 6:0.27426249 7:-0.014533688 8:0.0083254681 9:0.015443277 
0.001 1:0.1329762 2:-0.027888077 3:-0.15887414 4:0.36619879 5:0.17647059 6:0.31454183 7:0.34314921 8:0.22624531 9:0.21541558 
0.001 1:-0.1022148 2:-0.21566745 3:0.11346157 4:0.20337707 5:0.17647059 6:0.47558536 7:0.23266641 8:0.24737487 9:0.45718168 
0.001 1:0.30291635 2:0.30227246 3:0.2865397 4:0.20276036 5:0.17647059 6:0.18412082 7:0.013548352 8:0.075834038 9:0.043772634 
0.001 1:0.41369235 2:0.36565782 3:0.24668094 4:0.36186424 5:0.17647059 6:0.16103336 7:-0.01365244 8:0.013361961 9:-0.13687353 
0.001 1:0.27990815 2:0.22710316 3:0.19222851 4:0.26648638 5:0.17647059 6:0.141788 7:0.15184818 8:0.13752294 9:0.014879387 
0.001 1:0.16921215 2:0.23697344 3:0.20827481 4:0.19546899 5:0.17647059 6:0.21380121 7:0.052546107 8:0.18345957 9:0.15202842 
0.001 1:0.11707437 2:0.14811879 3:0.2468408 4:0.03436853 5:0.17647059 6:0.23254702 7:0.18991978 8:0.19369591 9:0.24919951 
0.001 1:0.14999983 2:0.14130955 3:0.042693449 4:0.12579325 5:0.11764706 6:0.057250372 7:0.17446838 8:0.13307431 9:0.11658731 
0.001 1:0.15502773 2:0.14329523 3:0.099695457 4:0.16290533 5:0.11764706 6:0.10596018 7:0.10770785 8:0.088716045 9:0.077868652 
0.001 1:0.22021608 2:0.20298357 3:0.18456917 4:0.21666601 5:0.17647059 6:0.16074483 7:0.16213937 8:0.15321196 9:0.11123373 
0.001 1:0.1382649 2:0.14879705 3:0.13949497 4:0.099129808 5:0.11764706 6:0.07852905 7:0.10343447 8:0.11870881 9:0.11481741 
0.001 1:0.16441272 2:0.15504811 3:0.11953563 4:0.21186689 5:0.17647059 6:0.17775104 7:0.21127932 8:0.20329643 9:0.16857456 
0.001 1:0.10632566 2:0.078945068 3:0.05069788 4:0.1533561 5:0.11764706 6:0.13206502 7:0.16598554 8:0.11677171 9:0.13702949 
0.001 1:0.10300576 2:0.167987 3:0.11077219 4:0.18962089 5:0.17647059 6:0.18398494 7:0.21494825 8:0.24224972 9:0.19919596 
0.001 1:0.25544008 2:0.20975611 3:0.17081409 4:0.26183186 5:0.17647059 6:0.15559824 7:0.16438836 8:0.130718 9:0.063217986 
0.001 1:0.27733724 2:0.21220418 3:0.14518452 4:0.29678272 5:0.17647059 6:0.16446038 7:0.15964123 8:0.14435928 9:0.01179516 
0.001 1:0.23802682 2:0.27814596 3:0.1990183 4:0.089014432 5:0.17647059 6:0.089775309 7:0.15431736 8:0.1946948 9:0.16877172 
0.001 1:0.28306467 2:0.22012527 3:0.16011757 4:0.30563397 5:0.17647059 6:0.11458803 7:0.15452286 8:0.1324844 9:0.041227945 
0.001 1:0.27112992 2:0.22151425 3:0.24547971 4:0.27393036 5:0.17647059 6:0.27190993 7:0.084005083 8:2.499572e-05 9:0.043770456 
0.001 1:0.23054962 2:0.27911965 3:0.20358001 4:0.064314472 5:0.17647059 6:0.048962524 7:0.13643055 8:0.25127441 9:0.19753347 
0.001 1:0.089816917 2:0.14600927 3:0.095536703 4:0.21378462 5:0.17647059 6:0.18580674 7:0.2364592 8:0.22121333 9:0.22313792 
0.001 1:0.11429487 2:0.085466743 3:0.1805917 4:0.20472058 5:0.17647059 6:0.2096738 7:0.23120378 8:0.16824296 9:0.21757027 
0.001 1:0.24980401 2:0.20152407 3:0.21386179 4:0.26608252 5:0.17647059 6:0.27533843 7:0.1217363 8:0.009245685 9:0.074171908 
0.001 1:0.030858571 2:0.13798137 3:0.1166057 4:0.14781078 5:0.17647059 6:0.22683462 7:0.21181735 8:0.31110107 9:0.22875525 
0.001 1:0.27517721 2:0.18405519 3:0.18730428 4:0.23072686 5:0.17647059 6:0.22402222 7:0.15399137 8:-0.0077133151 9:0.16420087 
0.001 1:0.046208858 2:0.020153229 3:0.25153828 4:0.19006507 5:0.17647059 6:0.30172429 7:0.14769646 8:0.1742726 9:0.28010591 
0.001 1:0.21108641 2:0.3242134 3:0.30860143 4:-0.00058302078 5:0.17647059 6:0.075293966 7:0.1004199 8:0.21052899 9:0.18220363 
0.001 1:0.2835768 2:0.31532349 3:0.17876025 4:0.34786561 5:0.17647059 6:0.14874102 7:0.13954147 8:0.047103151 9:-0.049147089 
0.001 1:0.17385817 2:-0.014212103 3:0.018670389 4:0.32426826 5:0.17647059 6:0.28463227 7:0.28410044 8:0.097046571 9:0.24340071 
0.001 1:0.13040906 2:-0.054525919 3:-0.26434489 4:0.33003106 5:0.17647059 6:0.058166049 7:0.61077929 8:0.33163358 9:0.26961647 
0.001 1:0.070394476 2:0.15654381 3:0.057873241 4:0.14370541 5:0.17647059 6:0.29321833 7:0.14313123 8:0.26263436 9:0.28426385 
0.001 1:0.071878174 2:-0.068060517 3:-0.13344033 4:0.42685092 5:0.17647059 6:0.31085017 7:0.29053113 8:0.25916487 9:0.25399027 
0.001 1:0.11292362 2:-0.050017897 3:0.0523618 4:0.26368032 5:0.17647059 6:0.20592067 7:0.34272718 8:0.24815248 9:0.23601653 
0.001 1:0.054862075 2:0.063799535 3:-0.23650574 4:0.42065112 5:0.17647059 6:0.17301681 7:0.38662244 8:0.28083353 9:0.26848493 
0.001 1:0.25386781 2:0.26494206 3:0.46195208 4:0.21001132 5:0.17647059 6:0.40084248 7:-0.19138013 8:-0.071461771 9:0.08299085 
0.001 1:0.33315781 2:0.29178885 3:0.21748107 4:0.3249559 5:0.17647059 6:0.20030005 7:0.022007309 8:0.082339228 9:-0.060265506 
0.001 1:-0.07707915 2:-0.22638391 3:0.22745476 4:0.073818966 5:0.11764706 6:0.43518776 7:0.23276208 8:-0.036268735 9:0.31168471 
0.001 1:0.27522717 2:0.10939516 3:0.03525126 4:0.26234365 5:0.17647059 6:0.11521078 7:0.28317995 8:0.19309006 9:0.13806668 
0.001 1:0.23706439 2:0.21402066 3:0.1637066 4:0.23716239 5:0.17647059 6:0.16416185 7:0.1641047 8:0.13736689 9:0.09417724 
0.001 1:0.25677214 2:-0.021779803 3:0.19876876 4:0.37104509 5:0.17647059 6:0.31602536 7:0.13252487 8:-0.03961762 9:0.1980259 
0.001 1:0.21329348 2:0.21084088 3:0.17601037 4:0.21970101 5:0.17647059 6:0.15952528 7:0.16921452 8:0.14765941 9:0.11551976 
0.001 1:0.097050714 2:0.05724754 3:0.079832844 4:0.13913295 5:0.11764706 6:0.13685093 7:0.14961153 8:0.13275825 9:0.14869172 
0.001 1:0.14414901 2:0.10588425 3:0.14818703 4:0.14576908 5:0.11764706 6:0.16500674 7:0.10543352 8:0.064268854 9:0.062477983 
0.001 1:0.23886719 2:0.12059419 3:0.067926275 4:0.1629969 5:0.11764706 6:0.10033508 7:0.090557221 8:0.07341663 9:0.086482985 
0.001 1:0.14675751 2:0.23784873 3:0.20498742 4:0.19472369 5:0.17647059 6:0.2597018 7:0.072684584 8:0.15990507 9:0.13515591 
0.001 1:0.18179979 2:0.2619896 3:0.19498177 4:0.11801959 5:0.17647059 6:0.11807132 7:0.15685531 8:0.23717856 9:0.14286876 
0.001 1:0.2219623 2:0.2987186 3:0.21096219 4:0.10902113 5:0.17647059 6:0.08885218 7:0.14760048 8:0.20268025 9:0.13196757 
0.001 1:0.2253798 2:0.24798976 3:0.18269317 4:0.10708012 5:0.17647059 6:0.10943324 7:0.16422889 8:0.216902 9:0.15805772 
0.001 1:0.21514319 2:0.30445946 3:0.21112635 4:0.074266952 5:0.17647059 6:0.094813979 7:0.14740522 8:0.1991503 9:0.16539926 
0.001 1:0.23491699 2:0.18137777 3:0.23427499 4:0.23384657 5:0.17647059 6:0.2370446 7:0.14629812 8:0.059870374 9:0.08413529 
0.001 1:0.24239402 2:0.20757701 3:0.14040695 4:0.32078057 5:0.17647059 6:0.21253513 7:0.16241305 8:0.11204235 9:0.013615626 
0.001 1:0.22398958 2:0.15965751 3:0.17436218 4:0.25525221 5:0.17647059 6:0.2363736 7:0.13760171 8:0.090491734 9:0.13403619 
0.001 1:0.21570574 2:0.32619822 3:0.1791238 4:0.078749562 5:0.17647059 6:0.074831161 7:0.16999753 8:0.19389147 9:0.17326723 
0.001 1:0.097230416 2:0.1676446 3:0.088876482 4:0.2286877 5:0.17647059 6:0.14203736 7:0.1995941 8:0.26654017 9:0.22115387 
0.001 1:0.19398621 2:0.3293916 3:0.28296522 4:0.03752904 5:0.17647059 6:0.051041835 7:0.14715247 8:0.20328955 9:0.16640878 
0.001 1:0.11170049 2:-0.026031875 3:0.0059343856 4:0.23666855 5:0.17647059 6:0.34121458 7:0.33414578 8:0.21391275 9:0.19422005 
0.001 1:0.16037016 2:0.20511501 3:0.30775844 4:0.20371689 5:0.17647059 6:0.30922218 7:0.017793264 8:0.0051299893 9:0.20265877 
0.001 1:-0.011011795 2:0.11610895 3:0.15067429 4:0.32119318 5:0.17647059 6:0.34529975 7:0.089955958 8:0.14891897 9:0.2506254 
0.001 1:0.28588611 2:0.23059983 3:0.10306928 4:0.39417549 5:0.17647059 6:0.17597639 7:0.21849101 8:0.0089248745 9:-0.0053582891 
0.001 1:0.19897041 2:0.38461602 3:0.3092071 4:0.17461366 5:0.17647059 6:0.22780211 7:0.031442385 8:0.16281258 9:-0.077699558 
0.001 1:0.28427181 2:0.29007304 3:0.15133714 4:0.47001993 5:0.23529412 6:0.23272645 7:0.26827966 8:0.18044527 9:0.0051996413 
0.001 1:0.30192397 2:0.23513889 3:0.26998127 4:0.32051384 5:0.17647059 6:0.27369107 7:0.090234099 8:-0.029659887 9:-0.050058548 
0.001 1:0.12868364 2:-0.11658404 3:0.025046969 4:0.32277606 5:0.17647059 6:0.23290112 7:0.40580224 8:0.19699325 9:0.21614547 
0.001 1:0.20627597 2:0.26985892 3:0.29988375 4:0.25077168 5:0.17647059 6:0.31669503 7:0.011967202 8:0.01378202 9:0.042530138 
0.001 1:0.27427655 2:0.32849508 3:0.31632229 4:0.19403884 5:0.17647059 6:0.25957505 7:0.0022233249 8:0.0055924334 9:0.031241135 
0.001 1:0.2602256 2:0.24618452 3:0.44047948 4:0.19260647 5:0.17647059 6:0.44229609 7:-0.14654248 8:-0.19506931 9:0.17158434 
0.001 1:0.15147291 2:0.19352648 3:0.17740444 4:0.11117008 5:0.17647059 6:0.098300388 7:0.24737269 8:0.22216491 9:0.21035282 
0.001 1:0.098368873 2:0.13505786 3:0.12446293 4:0.18709979 5:0.17647059 6:0.21043033 7:0.19289399 8:0.22792403 9:0.2355269 
0.001 1:0.15484002 2:0.22292498 3:0.21160313 4:0.16962383 5:0.17647059 6:0.21634768 7:0.090629654 8:0.15927114 9:0.18652427 
0.001 1:0.16887888 2:0.12847933 3:0.12896365 4:0.21461682 5:0.17647059 6:0.16987182 7:0.2183573 8:0.18220736 9:0.20038955 
0.001 1:0.030128924 2:0.19997464 3:0.15731136 4:0.13641812 5:0.17647059 6:0.26857867 7:0.10040161 8:0.27797126 9:0.24098012 
0.001 1:0.059346165 2:0.052303592 3:0.10600398 4:0.12446492 5:0.11764706 6:0.15887439 7:0.12381133 8:0.14337447 9:0.17299761 
0.001 1:0.21697563 2:0.20236701 3:0.17368866 4:0.21890668 5:0.17647059 6:0.17817949 7:0.14714041 8:0.14721924 9:0.12728758 
0.001 1:0.17490847 2:0.17300937 3:0.1158806 4:0.19048699 5:0.17647059 6:0.173216 7:0.20433223 8:0.22388856 9:0.15604248 
0.001 1:0.13381657 2:0.11344638 3:0.12696875 4:0.15601105 5:0.11764706 6:0.1371594 7:0.12710577 8:0.070430439 9:0.076238127 
0.001 1:0.19993409 2:0.2415553 3:0.23417701 4:0.16524526 5:0.17647059 6:0.22382674 7:0.06478815 8:0.15758624 9:0.1246519 
0.001 1:0.22570452 2:0.18858336 3:0.21787051 4:0.25066555 5:0.17647059 6:0.19850514 7:0.1352277 8:0.073926228 9:0.12128169 
0.001 1:0.21497193 2:0.20252881 3:0.22795191 4:0.19566748 5:0.17647059 6:0.23273275 7:0.13455886 8:0.074250106 9:0.12910286 
0.001 1:0.17024894 2:0.26285923 3:0.24126083 4:0.17987806 5:0.17647059 6:0.21422255 7:0.078640658 8:0.13826417 9:0.12639027 
0.001 1:0.018219067 2:0.0016995894 3:0.14100309 4:0.20763232 5:0.17647059 6:0.30087622 7:0.17834749 8:0.25970043 9:0.3042865 
0.001 1:0.1164278 2:0.087694041 3:-0.028171399 4:0.24242471 5:0.17647059 6:0.015457017 7:0.39300212 8:0.1689195 9:0.41601092 
0.001 1:0.25868435 2:0.2283515 3:0.13518443 4:0.31815126 5:0.17647059 6:0.19492714 7:0.14208391 8:0.13629525 9:-0.001913132 
0.001 1:0.24159832 2:0.094888307 3:0.031748453 4:0.26925827 5:0.17647059 6:0.14063003 7:0.31254799 8:0.18854845 9:0.13254489 
0.001 1:0.20086386 2:0.15633959 3:0.26809557 4:0.20108013 5:0.17647059 6:0.34550159 7:0.0018605782 8:0.024876628 9:0.21314677 
0.001 1:0.18029966 2:0.13024607 3:-0.048931738 4:0.20775974 5:0.17647059 6:0.16876873 7:0.31886623 8:0.24350396 9:0.21125206 
0.001 1:0.39703369 2:0.35533869 3:0.23233539 4:0.31677075 5:0.17647059 6:0.17226334 7:0.066976577 8:0.092496028 9:-0.22144976 
0.001 1:0.17459179 2:0.017537475 3:-0.08762826 4:0.37978773 5:0.17647059 6:0.13663176 7:0.33689699 8:0.29878899 9:0.15515823 
0.001 1:0.25263459 2:0.24678372 3:0.32081932 4:0.29445369 5:0.17647059 6:0.2007487 7:0.0055255318 8:0.067538138 9:0.023261009 
0.001 1:0.1242915 2:-0.036562262 3:0.048528289 4:0.30552361 5:0.17647059 6:0.15881285 7:0.34639813 8:0.22530533 9:0.23946726 
0.001 1:-0.0089335766 2:0.02055308 3:0.065198243 4:0.28018735 5:0.17647059 6:0.17572364 7:0.2631895 8:0.36212945 9:0.25371702 
0.001 1:-0.14887248 2:-0.18525713 3:0.14310491 4:0.19564721 5:0.17647059 6:0.40713342 7:0.23915015 8:0.28648143 9:0.47437721 
0.001 1:0.14386014 2:-0.078083683 3:0.051823476 4:0.28020696 5:0.17647059 6:0.22219612 7:0.31894437 8:0.21348917 9:0.25932815 
0.001 1:0.3230565 2:0.3220163 3:0.1994317 4:0.29219434 5:0.17647059 6:0.15645293 7:0.10885743 8:0.093801141 9:-0.084045631 
0.001 1:0.34366222 2:0.33717002 3:0.19399635 4:0.35809769 5:0.17647059 6:0.11841045 7:0.06394579 8:0.057467396 9:-0.060985207 
0.001 1:-0.1958395 2:0.079278058 3:0.17981385 4:-0.14627369 5:0.17647059 6:0.15546913 7:0.28245725 8:0.49261586 9:0.56424375 
0.001 1:0.19172514 2:0.25821467 3:0.29536676 4:0.14670454 5:0.17647059 6:0.28091511 7:0.037837382 8:0.074031385 9:0.12696971 
0.001 1:0.10055741 2:0.011350862 3:0.012787064 4:0.26815213 5:0.17647059 6:0.2589564 7:0.28413694 8:0.26585288 9:0.20997102 
0.001 1:0.10105461 2:0.063701663 3:-0.16882896 4:0.17240148 5:0.11764706 6:-0.15389 7:0.28003226 8:0.32385215 9:0.32285327 
0.001 1:0.10935787 2:0.21273959 3:0.006072554 4:-0.020829177 5:0.17647059 6:0.23092148 7:0.24356753 8:0.1486444 9:0.48129047 
0.001 1:0.2120288 2:0.20541305 3:0.16969859 4:0.20586392 5:0.17647059 6:0.16291575 7:0.16676277 8:0.16826768 9:0.12081416 
0.001 1:0.14249552 2:0.17784814 3:0.14324038 4:0.17638489 5:0.17647059 6:0.17971908 7:0.1881112 8:0.20907989 9:0.19488561 
0.001 1:0.16226408 2:0.12755158 3:0.13086038 4:0.18150598 5:0.17647059 6:0.17464063 7:0.20660217 8:0.20294576 9:0.22539412 
0.001 1:0.14478986 2:0.14933934 3:0.14671887 4:0.1879492 5:0.17647059 6:0.19042943 7:0.19306244 8:0.20883146 9:0.19064411 
0.001 1:0.10051638 2:0.064649925 3:0.035676349 4:0.16677354 5:0.11764706 6:0.15826765 7:0.14276853 8:0.13189583 9:0.14062826 
0.001 1:0.35547806 2:0.046832189 3:-0.022956546 4:0.40047006 5:0.17647059 6:0.080167877 7:0.31022952 8:0.11133418 9:0.13020937 
0.001 1:0.20308443 2:0.26064203 3:0.19427742 4:0.12392339 5:0.17647059 6:0.10997721 7:0.17976854 8:0.19503746 9:0.14505423 
0.001 1:0.07610068 2:0.086118031 3:0.14910429 4:0.16853325 5:0.17647059 6:0.23277868 7:0.15814657 8:0.24449131 9:0.2964919 
0.001 1:0.26151655 2:0.22347522 3:0.1317321 4:0.2857303 5:0.17647059 6:0.12537747 7:0.18547245 8:0.14274313 9:0.055717489 
0.001 1:0.20970385 2:0.28315434 3:0.19859664 4:0.11110811 5:0.17647059 6:0.05695195 7:0.16662057 8:0.22546356 9:0.16016569 
0.001 1:0.20492629 2:0.1771317 3:0.21079034 4:0.24892825 5:0.17647059 6:0.24843655 7:0.13475941 8:0.04489697 9:0.1418952 
0.001 1:0.44306809 2:0.2258816 3:0.15297249 4:0.26283403 5:0.17647059 6:0.24772987 7:0.15320599 8:-0.012986859 9:-0.060940504 
0.001 1:0.075860846 2:0.16208846 3:0.16021808 4:0.12858917 5:0.17647059 6:0.18549809 7:0.19104432 8:0.27071614 9:0.23774959 
0.001 1:0.15056322 2:0.24502201 3:0.053557999 4:0.010503148 5:0.17647059 6:0.14131456 7:0.20446398 8:0.38553682 9:0.22080297 
0.001 1:0.31879365 2:0.30532801 3:0.24556711 4:0.27603573 5:0.17647059 6:0.1277794 7:0.15642962 8:0.10220806 9:-0.12037688 
0.001 1:0.21482318 2:0.18537512 3:1.3508921e-05 4:0.38724534 5:0.23529412 6:0.24535688 7:0.41130979 8:0.27672529 9:0.16150384 
0.001 1:0.34159397 2:0.16471257 3:0.29927257 4:0.27666985 5:0.17647059 6:0.26886843 7:0.051453681 8:-0.052659615 9:0.061853254 
0.001 1:-0.091491953 2:-0.12990313 3:0.046222336 4:0.20588798 5:0.17647059 6:0.44535167 7:0.25563892 8:0.23017744 9:0.44988145 
0.001 1:0.063358795 2:0.024445992 3:0.078427222 4:0.1631094 5:0.17647059 6:0.27401977 7:0.28767614 8:0.24098006 9:0.27974733 
0.001 1:0.067606645 2:0.14011059 3:-0.10326751 4:0.29719772 5:0.17647059 6:0.16073734 7:0.36899208 8:0.30597058 9:0.17441726 
0.001 1:0.38865031 2:0.28718193 3:0.29514484 4:0.41235307 5:0.23529412 6:0.27408887 7:0.22426118 8:-0.011932149 9:0.012604895 
0.001 1:0.014339877 2:0.068878956 3:-0.012689556 4:0.23034122 5:0.17647059 6:0.26102464 7:0.28499029 8:0.31666565 9:0.24821362 
0.001 1:0.0031270616 2:0.026543035 3:0.021460972 4:0.23717679 5:0.17647059 6:0.25197669 7:0.29108189 8:0.31994973 9:0.26044854 
0.001 1:0.19175701 2:0.107952 3:-0.05497673 4:0.25802587 5:0.17647059 6:0.094752825 7:0.37509608 8:0.26835732 9:0.17080033 
0.001 1:0.25301025 2:0.11861521 3:0.058449816 4:0.27259135 5:0.17647059 6:0.11341534 7:0.27214754 8:0.17587685 9:0.14765835 
0.001 1:0.091861651 2:0.2987025 3:0.51485868 4:-0.086719199 5:0.17647059 6:0.32412611 7:-0.11917 8:0.31240268 9:0.075702294 
0.001 1:0.75753774 2:0.074391069 3:-0.61122648 4:0.71091982 5:0.17647059 6:-0.21903371 7:0.72217682 8:0.21834533 9:-0.24134588 
0.001 1:0.16333509 2:0.15484828 3:0.11421775 4:0.21064826 5:0.17647059 6:0.15807479 7:0.22361927 8:0.20098519 9:0.18603608 
0.001 1:0.11334623 2:0.091159613 3:0.072898168 4:0.15709636 5:0.11764706 6:0.11055555 7:0.18482708 8:0.11030627 9:0.1009872 
0.001 1:0.17393432 2:0.26053798 3:0.20428694 4:0.0064441218 5:0.17647059 6:0.083027498 7:0.183073 8:0.28353857 9:0.21692229 
0.001 1:0.056685307 2:0.088763754 3:0.1252742 4:0.17556883 5:0.17647059 6:0.24846265 7:0.17411654 8:0.27068215 9:0.27221128 
0.001 1:0.16953119 2:0.12251008 3:0.027602908 4:0.26143168 5:0.17647059 6:0.19895874 7:0.27499207 8:0.21672583 9:0.14001222 
0.001 1:0.19084616 2:0.13294034 3:0.048217288 4:0.25074111 5:0.17647059 6:0.12718548 7:0.26041274 8:0.21929146 9:0.18213013 
0.001 1:0.3242387 2:0.32872843 3:0.21633016 4:0.28332665 5:0.17647059 6:0.16031425 7:0.11307015 8:0.024570123 9:-0.038813753 
0.001 1:0.19215514 2:0.27504913 3:0.24935468 4:-0.029147207 5:0.17647059 6:0.13697769 7:0.11874841 8:0.20849899 9:0.26012786 
0.001 1:0.18029251 2:0.021538123 3:0.070503236 4:0.1958848 5:0.17647059 6:0.14292981 7:0.36227475 8:0.31268302 9:0.12565847 
0.001 1:0.22961803 2:0.091512682 3:0.17061075 4:0.30813471 5:0.17647059 6:0.24525299 7:0.21281959 8:0.16077745 9:-0.0069615002 
0.001 1:0.40307123 2:0.19987147 3:0.14392225 4:0.40701851 5:0.17647059 6:0.23124774 7:0.1107172 8:0.053338757 9:-0.13742245 
0.001 1:0.32251883 2:0.21291283 3:0.26960407 4:0.41017621 5:0.17647059 6:0.16294949 7:0.10802443 8:0.0019932784 9:-0.076414435 
0.001 1:0.34919957 2:0.14803554 3:0.34869219 4:0.31013017 5:0.17647059 6:0.1988661 7:0.05706959 8:-0.043776372 9:0.04354792 
0.001 1:0.35754839 2:0.20100694 3:0.18325979 4:0.2322088 5:0.11764706 6:0.18649604 7:-0.066395389 8:-0.057167055 9:-0.095781047 
0.001 1:0.34010326 2:0.22176441 3:0.30331435 4:0.32281851 5:0.17647059 6:0.22405925 7:0.12722263 8:-0.08291815 9:-0.044599563 
0.001 1:0.27938495 2:0.29330178 3:0.24695663 4:0.29062208 5:0.17647059 6:0.14404824 7:0.16079332 8:0.093517571 9:-0.096859866 
0.001 1:0.31380032 2:0.17228317 3:0.23947098 4:0.30114157 5:0.17647059 6:0.24760871 7:0.10753396 8:0.0068116701 9:0.023114318 
0.001 1:0.42479281 2:0.30451456 3:0.21208069 4:0.35366363 5:0.17647059 6:0.14717379 7:0.089117194 8:0.021038571 9:-0.14061655 
0.001 1:0.0011005697 2:0.18885262 3:-0.22007487 4:0.19044299 5:0.17647059 6:0.094039702 7:0.51519496 8:0.25921215 9:0.38299658 
0.001 1:0.028466053 2:0.53671925 3:0.32810526 4:-0.24538696 5:0.17647059 6:0.030570651 7:-0.0014349783 8:0.53861083 9:0.1961146 
0.001 1:0.15747682 2:0.12346777 3:0.12100386 4:0.14047824 5:0.11764706 6:0.13915726 7:0.10090187 8:0.072700492 9:0.085990152 
0.001 1:0.1578752 2:0.15758119 3:0.14537229 4:0.17996509 5:0.17647059 6:0.1840662 7:0.1882345 8:0.20467768 9:0.19399256 
0.001 1:0.18454535 2:0.15275849 3:0.11992557 4:0.20086973 5:0.17647059 6:0.14792913 7:0.22579021 8:0.20183369 9:0.17811253 
0.001 1:0.14704975 2:0.27947624 3:0.21366529 4:-0.0011367715 5:0.17647059 6:0.090970424 7:0.17328549 8:0.2823867 9:0.22606759 
0.001 1:0.17562038 2:0.2167325 3:0.27418247 4:0.17368443 5:0.17647059 6:0.28508871 7:0.034673308 8:0.07916545 9:0.17261746 
0.001 1:0.10682605 2:0.011539652 3:0.054162845 4:0.28532607 5:0.17647059 6:0.25118662 7:0.27331145 8:0.18070919 9:0.24870283 
0.001 1:-0.15365942 2:0.085573826 3:0.30089098 4:0.14278793 5:0.23529412 6:0.36356276 7:0.21878303 8:0.43678854 9:0.4876253 
0.001 1:0.091747449 2:0.052688541 3:0.067815829 4:0.198308 5:0.17647059 6:0.22824017 7:0.29286203 8:0.23217983 9:0.24792287 
0.001 1:0.19677757 2:0.14878913 3:0.19802609 4:0.22355392 5:0.17647059 6:0.25695926 7:0.13141315 8:0.10662938 9:0.14961621 
0.001 1:0.13508217 2:0.18060087 3:0.13593358 4:0.24642105 5:0.17647059 6:0.1796693 7:0.17173059 8:0.2289051 9:0.13342206 
0.001 1:0.24559346 2:0.2131049 3:0.20903679 4:0.320068 5:0.17647059 6:0.22140998 7:0.13892737 8:-0.00035867177 9:0.063982879 
0.001 1:0.20021352 2:0.090772662 3:-0.00034578205 4:0.27676591 5:0.17647059 6:0.1828029 7:0.25817633 8:0.24467862 9:0.15870054 
0.001 1:0.060682331 2:-0.1182944 3:-0.037914504 4:0.40513255 5:0.17647059 6:0.24897295 7:0.33808953 8:0.22475891 9:0.29033735 
0.001 1:0.10665467 2:0.16569576 3:-0.00056356054 4:0.31886483 5:0.17647059 6:0.1410177 7:0.3119073 8:0.17518339 9:0.19300462 
0.001 1:0.27322171 2:0.29877051 3:0.14993557 4:0.32595152 5:0.17647059 6:0.10543277 7:0.15974747 8:0.085171329 9:0.013533846 
0.001 1:-0.036152529 2:0.12956975 3:-0.096670625 4:0.43231015 5:0.17647059 6:0.30280439 7:0.35825373 8:0.2725706 9:0.049079248 
0.00096633371975244774 1:0.17955402 2:-0.047336815 3:-0.13520536 4:0.46934116 5:0.23529412 6:0.38067347 7:0.42299884 8:0.32585387 9:0.28647376 
0.001 1:0.091410628 2:0.12669201 3:-0.086613121 4:0.28186924 5:0.17647059 6:0.063996418 7:0.46009472 8:0.27870613 9:0.19560868 
0.001 1:0.0394729 2:0.061065405 3:0.078981259 4:0.20468068 5:0.17647059 6:0.23776618 7:0.24277607 8:0.30576117 9:0.24126103 
0.001 1:0.2769182 2:0.22223223 3:0.27854623 4:0.31076533 5:0.17647059 6:0.21506032 7:0.016037553 8:0.051845622 9:0.040359215 
0.001 1:0.0071655579 2:0.19837488 3:0.12098553 4:0.2331687 5:0.17647059 6:0.261253 7:0.10423228 8:0.27468017 9:0.21190459 
0.001 1:-0.11333648 2:0.038994719 3:-0.021694607 4:0.13063433 5:0.17647059 6:0.16377588 7:0.30189602 8:0.64282442 9:0.26867041 
0.001 1:-0.074385506 2:0.17280814 3:0.11807427 4:0.20339772 5:0.17647059 6:0.17603742 7:0.12896151 8:0.4315868 9:0.25528434 
0.001 1:0.57148907 2:0.15624226 3:-0.30514135 4:0.64908788 5:0.17647059 6:-0.33534082 7:0.62026969 8:0.27455729 9:-0.21939931 
0.001 1:0.16386275 2:0.15572248 3:0.12092396 4:0.21850427 5:0.17647059 6:0.16189369 7:0.21356972 8:0.20198214 9:0.1753057 
0.001 1:0.15563806 2:0.14828397 3:0.094694979 4:0.18305674 5:0.11764706 6:0.11628724 7:0.066563408 8:0.11153786 9:0.065114216 
0.001 1:0.15673238 2:0.1448402 3:0.16035422 4:0.088162275 5:0.11764706 6:0.078335711 7:0.089803081 8:0.11640351 9:0.10654509 
0.001 1:0.053559657 2:0.14188189 3:0.086119082 4:0.20938559 5:0.17647059 6:0.25413665 7:0.23876309 8:0.21661933 9:0.21129942 
0.001 1:0.02470358 2:-0.0065384849 3:0.15221423 4:0.2136827 5:0.17647059 6:0.29556962 7:0.21333505 8:0.20399316 9:0.31480485 
0.001 1:0.16523317 2:0.11722295 3:0.13563145 4:0.18675891 5:0.17647059 6:0.20603008 7:0.23118566 8:0.1622763 9:0.20742618 
0.001 1:0.20366947 2:0.23781172 3:0.23482922 4:0.063349494 5:0.17647059 6:0.12537813 7:0.13741002 8:0.20726952 9:0.20204713 
0.001 1:0.10515152 2:0.029068387 3:0.038526307 4:0.27525042 5:0.17647059 6:0.25024767 7:0.24051604 8:0.22791462 9:0.24508973 
0.001 1:0.18717892 2:0.11820235 3:0.072667307 4:0.24151267 5:0.17647059 6:0.12917539 7:0.28036927 8:0.23255788 9:0.15010092 
0.001 1:0.21202759 2:0.27407516 3:0.2095161 4:0.09948804 5:0.17647059 6:0.092274587 7:0.16325561 8:0.21904741 9:0.14208022 
0.001 1:0.20358317 2:0.44459433 3:0.24644565 4:0.067051069 5:0.17647059 6:-0.004193557 7:0.19276433 8:0.17119818 9:0.09032153 
0.001 1:0.26326339 2:0.14990818 3:0.0099342522 4:0.32078794 5:0.17647059 6:0.18258619 7:0.19587993 8:0.14478688 9:0.14461794 
0.001 1:-0.031759091 2:-0.13372694 3:0.079171629 4:0.20084273 5:0.17647059 6:0.35480685 7:0.23250153 8:0.33171558 9:0.37821243 
0.001 1:0.037557615 2:-0.09844187 3:-0.028679983 4:0.38359068 5:0.17647059 6:0.24235575 7:0.36392835 8:0.17564361 9:0.33581056 
0.001 1:0.36711847 2:0.34866744 3:0.16924271 4:0.33757838 5:0.17647059 6:0.16243912 7:0.07467999 8:0.016244648 9:-0.064206043 
0.001 1:0.24849699 2:0.18425627 3:0.44747009 4:0.16935916 5:0.17647059 6:0.45717826 7:-0.089834399 8:-0.13537802 9:0.13021637 
0.001 1:0.358383 2:0.31336523 3:0.22629669 4:0.30653174 5:0.17647059 6:0.15804044 7:0.079064378 8:0.030076352 9:-0.05999312 
0.001 1:0.1543498 2:0.10486971 3:-0.035446141 4:0.31641146 5:0.17647059 6:0.13283969 7:0.31144654 8:0.27233994 9:0.15495371 
0.001 1:-0.060433442 2:0.07595276 3:-0.0046714038 4:0.20818325 5:0.17647059 6:0.23249779 7:0.31892196 8:0.36126984 9:0.28004395 
0.001 1:0.30964363 2:0.25032746 3:0.13149622 4:0.30821266 5:0.17647059 6:0.22040122 7:0.17781795 8:0.12257965 9:-0.10871408 
0.001 1:0.42067308 2:0.28109818 3:0.32952772 4:0.37805713 5:0.23529412 6:0.3125929 7:0.1749325 8:-0.0078693622 9:-0.0066591899 
0.001 1:0.20529203 2:0.1983682 3:0.17792231 4:0.2240902 5:0.17647059 6:0.1751888 7:0.16438924 8:0.15451515 9:0.11199879 
0.001 1:0.20412996 2:0.18663792 3:0.22674796 4:0.18160483 5:0.17647059 6:0.23619399 7:0.116332 8:0.092235006 9:0.16788305 
0.001 1:0.129709 2:0.092888249 3:0.17202998 4:0.1797238 5:0.17647059 6:0.24089707 7:0.16453135 8:0.20022766 9:0.2317576 
0.001 1:0.091938697 2:0.14667901 3:0.13994836 4:0.038199456 5:0.11764706 6:0.076301902 7:0.08449005 8:0.14063515 9:0.22298385 
0.001 1:0.22008792 2:0.13458692 3:0.051420987 4:0.21811513 5:0.17647059 6:0.16059674 7:0.25400151 8:0.20415132 9:0.16880418 
0.001 1:0.153982 2:0.20642866 3:0.14479651 4:0.14679337 5:0.17647059 6:0.16990187 7:0.18447812 8:0.20146893 9:0.20391526 
0.001 1:0.25165628 2:0.19749527 3:0.18510267 4:0.26254238 5:0.17647059 6:0.16336493 7:0.17373152 8:0.1159723 9:0.061899357 
0.001 1:0.19202457 2:0.22255643 3:0.27804182 4:0.16019214 5:0.17647059 6:0.29501731 7:0.033879884 8:0.062993069 9:0.16705948 
0.001 1:0.18743297 2:0.11927499 3:0.032608116 4:0.26427644 5:0.17647059 6:0.14820903 7:0.27942596 8:0.23035111 9:0.15018608 
0.001 1:0.6113505 2:-0.028066697 3:-0.08712995 4:0.57480789 5:0.23529412 6:0.045823994 7:0.59919685 8:0.11512509 9:0.051245272 
0.001 1:0.027496767 2:0.02553945 3:0.019585395 4:0.17933807 5:0.17647059 6:0.12157958 7:0.40010052 8:0.36964281 9:0.26848212 
0.001 1:0.12363718 2:0.06947105 3:0.12022163 4:0.26140732 5:0.17647059 6:0.17371279 7:0.26570065 8:0.18112125 9:0.21649284 
0.001 1:0.24917812 2:0.17727617 3:0.17380094 4:0.25261537 5:0.17647059 6:0.30775212 7:0.14000901 8:0.03330859 9:0.077824377 
0.001 1:0.2484634 2:0.25705452 3:0.30998507 4:0.088250256 5:0.17647059 6:0.2762019 7:0.025979011 8:0.051979019 9:0.15385153 
0.001 1:0.018394602 2:-0.072127579 3:0.091905777 4:0.16190299 5:0.17647059 6:0.26495871 7:0.18898944 8:0.31394247 9:0.44379829 
0.001 1:0.19938702 2:0.27812263 3:0.35611249 4:0.15023157 5:0.17647059 6:0.3445201 7:-0.1223408 8:0.0088240193 9:0.19690768 
0.001 1:0.32256307 2:0.26218748 3:0.27857852 4:0.176607 5:0.17647059 6:0.22506156 7:0.078123778 8:0.10489316 9:-0.036249863 
0.001 1:-0.10290337 2:0.14083299 3:0.046272397 4:0.20872592 5:0.17647059 6:0.19757095 7:0.27330227 8:0.41105148 9:0.23691207 
0.001 1:-0.10058906 2:0.092086721 3:0.23930252 4:0.18700476 5:0.17647059 6:0.41907603 7:0.17501423 8:0.033720479 9:0.36614902 
0.001 1:0.1012069 2:0.078415938 3:-0.061175854 4:0.31768976 5:0.17647059 6:0.25858118 7:0.3203429 8:0.12203886 9:0.27466501 
0.001 1:0.24013082 2:0.22656809 3:0.2695544 4:0.21837987 5:0.17647059 6:0.26094065 7:0.028682246 8:0.060131362 9:0.10737727 
0.001 1:-0.05963157 2:0.21671238 3:0.022745708 4:0.13335428 5:0.17647059 6:0.25363185 7:0.27843573 8:0.31429533 9:0.252221 
0.001 1:0.27777192 2:0.21661415 3:0.28847531 4:0.28046881 5:0.17647059 6:0.27069893 7:0.15649098 8:-0.06034761 9:-0.018407781 
0.001 1:0.28066779 2:0.23585173 3:0.17240756 4:0.32989471 5:0.17647059 6:0.29648207 7:0.12238093 8:-0.061970141 9:0.036050047 
0.001 1:0.28265987 2:0.21068847 3:0.41954875 4:0.17078629 5:0.17647059 6:0.40093139 7:-0.013442726 8:-0.099911104 9:0.04050377 
0.001 1:0.17020932 2:0.30849977 3:0.28858337 4:0.23063716 5:0.17647059 6:0.23362334 7:0.0022032999 8:0.13548641 9:0.042522033 
0.001 1:0.3334593 2:0.22566287 3:0.55915648 4:0.18965349 5:0.17647059 6:0.32784974 7:0.031691038 8:-0.14317523 9:-0.11253298 
0.001 1:0.10363721 2:0.04418621 3:0.034322341 4:0.15049685 5:0.11764706 6:0.16252378 7:0.22039521 8:0.11071242 9:0.11490245 
0.001 1:0.16952762 2:0.13204434 3:0.1457306 4:0.20628291 5:0.17647059 6:0.17624984 7:0.20128568 8:0.18231546 9:0.19832826 
0.001 1:0.083376369 2:0.10015834 3:0.064661247 4:0.12811915 5:0.11764706 6:0.12033403 7:0.1485168 8:0.15181376 9:0.14419676 
0.001 1:0.25283077 2:0.2393542 3:0.20537654 4:0.26273629 5:0.17647059 6:0.20609772 7:0.14123273 8:0.049872052 9:0.054264412 
0.001 1:0.20114487 2:0.13404994 3:0.087265447 4:0.23370494 5:0.17647059 6:0.15922597 7:0.23132771 8:0.20204542 9:0.16300041 
0.001 1:0.090467045 2:0.092437377 3:0.14970228 4:0.23234963 5:0.17647059 6:0.22280212 7:0.22182216 8:0.18354688 9:0.21863721 
0.001 1:0.2007168 2:0.1422506 3:0.033806697 4:0.30349345 5:0.17647059 6:0.16940363 7:0.22818704 8:0.18073138 9:0.15317511 
0.001 1:0.26717163 2:0.2380674 3:0.17089347 4:0.30632199 5:0.17647059 6:0.16023974 7:0.13593705 8:0.12266416 9:0.010469262 
0.001 1:0.20347726 2:0.13697251 3:0.047553836 4:0.27188892 5:0.17647059 6:0.15346336 7:0.25594705 8:0.23315879 9:0.10930299 
0.001 1:0.12171936 2:0.17640821 3:0.11010243 4:0.18948627 5:0.17647059 6:0.19887151 7:0.20879124 8:0.22937615 9:0.17700953 
0.001 1:0.10920724 2:0.071570524 3:0.025542339 4:0.24342011 5:0.17647059 6:0.21915779 7:0.27780438 8:0.16750581 9:0.29755653 
0.001 1:0.063050317 2:0.12006617 3:0.14936736 4:0.20635817 5:0.17647059 6:0.17667027 7:0.21662819 8:0.28439057 9:0.19523366 
0.001 1:0.17126598 2:-0.001122589 3:-0.040857467 4:0.31998088 5:0.17647059 6:0.3045717 7:0.2809907 8:0.10974867 9:0.26718683 
0.001 1:-0.029232533 2:0.18400648 3:0.14427245 4:0.080368615 5:0.17647059 6:0.24602885 7:0.23115845 8:0.32341872 9:0.23174367 
0.001 1:0.18249899 2:0.040703723 3:0.11306344 4:0.19209975 5:0.17647059 6:0.1874292 7:0.29782874 8:0.24416209 9:0.15397876 
0.001 1:0.36780027 2:0.23241641 3:0.29981944 4:0.293951 5:0.17647059 6:0.26297272 7:0.053511688 8:-0.059173693 9:-0.039533141 
0.001 1:0.1110033 2:0.02753445 3:-0.014259531 4:0.40533373 5:0.23529412 6:0.37322998 7:0.45258159 8:0.16855056 9:0.35837886 
0.001 1:0.44359724 2:0.24961497 3:0.29633957 4:0.39960244 5:0.23529412 6:0.33184741 7:0.17827076 8:-0.031561816 9:0.014642364 
0.001 1:0.093515347 2:0.30117378 3:0.41777009 4:0.15268847 5:0.17647059 6:0.37450831 7:-0.060378211 8:-0.045925163 9:0.17841208 
0.001 1:0.2460113 2:0.31753448 3:0.38637423 4:0.059777183 5:0.17647059 6:0.32379519 7:-0.066337135 8:-0.065293252 9:0.20990271 
0.001 1:-0.11178169 2:-0.087272641 3:0.17521234 4:0.17292667 5:0.17647059 6:0.38705085 7:0.23230933 8:0.22108313 9:0.42223672 
0.001 1:0.1775083 2:0.34490507 3:0.33676524 4:0.16736949 5:0.17647059 6:0.23260433 7:-0.096722392 8:0.17272 9:0.076614655 
0.001 1:0.29566881 2:0.41361759 3:0.29686923 4:0.39860509 5:0.23529412 6:0.21674663 7:0.18237451 8:0.15202379 9:-0.07355272 
0.001 1:0.14137498 2:0.091501037 3:-0.12981626 4:0.39291646 5:0.17647059 6:0.24173946 7:0.31658532 8:0.12223167 9:0.23523204 
0.001 1:0.25529197 2:0.28381809 3:0.34506043 4:0.14795403 5:0.17647059 6:0.26529621 7:-0.0068829273 8:-0.014626059 9:0.13585296 
0.00087829523472492989 1:0.36854252 2:0.2849099 3:0.27973182 4:0.39336944 5:0.23529412 6:0.40278767 7:0.12594205 8:0.070515208 9:-0.043445674 
0.001 1:0.46604425 2:-0.04555249 3:-0.27040353 4:0.68991917 5:0.11764706 6:-0.37064809 7:0.5400479 8:0.16359944 9:-0.23183019 
0.001 1:0.11219924 2:0.097300782 3:0.1756945 4:0.1967464 5:0.17647059 6:0.23052151 7:0.17344073 8:0.18842052 9:0.23744102 
0.001 1:0.15190809 2:0.12511693 3:0.15890438 4:0.18902991 5:0.17647059 6:0.19296099 7:0.19589395 8:0.1855779 9:0.21237255 
0.001 1:0.17223507 2:0.21295407 3:0.25400181 4:0.16277276 5:0.17647059 6:0.25731222 7:0.058894163 8:0.10892009 9:0.18467452 
0.001 1:0.2031465 2:0.18521172 3:0.22307968 4:0.22288137 5:0.17647059 6:0.2308959 7:0.14401751 8:0.088165658 9:0.11436636 
0.001 1:0.25906346 2:0.22006407 3:0.16894314 4:0.27062172 5:0.17647059 6:0.16110649 7:0.15315401 8:0.12218267 9:0.056629159 
0.001 1:0.14227017 2:0.095733119 3:0.14680068 4:0.17867664 5:0.17647059 6:0.21530149 7:0.22077894 8:0.17520706 9:0.2369966 
0.001 1:0.24366708 2:0.22967187 3:0.17450092 4:0.28729576 5:0.17647059 6:0.18659876 7:0.13579239 8:0.11303141 9:0.04120651 
0.000814770151145438 1:0.52428301 2:-0.12870986 3:0.059182557 4:0.45327181 5:0.23529412 6:0.23689526 7:0.4675276 8:0.046625673 9:0.22327688 
1.0059214252531804e-05 1:0.081841384 2:0.038234166 3:-0.010706098 4:0.34924088 5:0.23529412 6:0.23652156 7:0.44952423 8:0.41516873 9:0.3225281 
0.001 1:0.31550345 2:0.34367543 3:0.24918146 4:0.32850595 5:0.17647059 6:0.2033537 7:0.028305551 8:-0.03942815 9:-0.017332684 
0.001 1:0.27727419 2:0.18811603 3:0.41701375 4:0.22070471 5:0.17647059 6:0.35757043 7:-0.091852561 8:-0.12419605 9:0.16713421 
0.001 1:0.046328955 2:0.067294126 3:-0.00013145489 4:0.25414689 5:0.17647059 6:0.13417309 7:0.32736316 8:0.2729938 9:0.30959614 
0.001 1:0.20838459 2:0.064134291 3:-0.0031328806 4:0.29511685 5:0.17647059 6:0.094625884 7:0.31717673 8:0.20999208 9:0.22546717 
0.001 1:0.1773262 2:0.12422037 3:-0.014847666 4:0.26223507 5:0.17647059 6:0.14222284 7:0.29422143 8:0.27214395 9:0.15424252 
0.001 1:0.25150189 2:0.21002192 3:0.29556729 4:0.24497025 5:0.17647059 6:0.17849083 7:0.14209382 8:-0.032117652 9:0.12123635 
0.001 1:0.23065179 2:0.13279308 3:-0.046588225 4:0.30465842 5:0.17647059 6:0.25962977 7:0.21203629 8:0.26413637 9:0.054447202 
0.001 1:0.14907485 2:0.029147276 3:0.1109477 4:0.30213533 5:0.17647059 6:0.24367079 7:0.18462874 8:0.13052255 9:0.26163745 
0.001 1:0.2790432 2:0.23328324 3:0.30509184 4:0.15687775 5:0.17647059 6:0.28916017 7:-0.065133006 8:0.040027468 9:0.17341404 
0.001 1:0.30215844 2:0.26970158 3:0.10305028 4:0.34590468 5:0.17647059 6:0.12651619 7:0.14943165 8:0.066342057 9:0.048659832 
0.001 1:0.34781718 2:0.25217006 3:0.32971607 4:0.31185379 5:0.23529412 6:0.35185187 7:0.21357284 8:0.053413989 9:0.021957146 
0.001 1:0.36140034 2:0.30980254 3:0.1529727 4:0.27982863 5:0.17647059 6:0.14645533 7:0.16673131 8:0.13234401 9:-0.13777016 
0.001 1:0.30711925 2:0.33314683 3:0.23942268 4:0.31550282 5:0.17647059 6:0.12586149 7:0.050196024 8:0.09340555 9:-0.052889937 
0.001 1:-0.040731893 2:0.059079032 3:0.15226373 4:0.09058354 5:0.17647059 6:0.34311589 7:0.25440327 8:0.21351416 9:0.33953697 
0.001 1:-0.32013183 2:0.0035730083 3:0.18541644 4:0.27738279 5:0.17647059 6:0.49220006 7:0.061351989 8:0.27713277 9:0.43483948 
0.001 1:0.1176741 2:-0.1345832 3:0.10924941 4:0.32478705 5:0.17647059 6:0.39037429 7:0.23406759 8:0.16122321 9:0.20897225 
0.001 1:0.31436188 2:0.31610007 3:0.26722859 4:0.066781319 5:0.17647059 6:0.33624673 7:0.019803702 8:0.079898429 9:0.011343981 
0.001 1:0.21390671 2:0.20749659 3:0.17448359 4:0.21354723 5:0.17647059 6:0.1769447 7:0.15844919 8:0.15115574 9:0.11578095 
0.001 1:0.11746284 2:0.13423842 3:0.14712705 4:0.14533511 5:0.11764706 6:0.12531434 7:0.13427829 8:0.075267471 9:0.062152958 
0.001 1:-0.13223599 2:-0.035696188 3:0.25056544 4:0.12093862 5:0.17647059 6:0.28688486 7:0.11077823 8:0.25233901 9:0.55819073 
0.001 1:0.11313001 2:0.2917391 3:0.20215904 4:-0.041555183 5:0.17647059 6:0.10545211 7:0.17594032 8:0.31675838 9:0.24814092 
0.001 1:0.05416226 2:0.15819159 3:0.14030854 4:0.16574304 5:0.17647059 6:0.20078295 7:0.19246131 8:0.26650977 9:0.23360524 
0.001 1:0.23612749 2:0.22470467 3:0.17355066 4:0.28122579 5:0.17647059 6:0.1827598 7:0.15607631 8:0.12074513 9:0.036574852 
0.001 1:0.15737058 2:0.12604142 3:0.06840927 4:0.25396001 5:0.17647059 6:0.17272947 7:0.25421123 8:0.21187654 9:0.16716618 
0.001 1:0.36988175 2:0.29653484 3:0.27152484 4:0.39214843 5:0.23529412 6:0.28610739 7:0.19593274 8:0.048207787 9:0.022015166 
0.001 1:0.25064967 2:0.15776867 3:0.32590915 4:0.31114232 5:0.17647059 6:0.23487542 7:0.088365796 8:0.00482474 9:0.038228943 
0.001 1:0.12754414 2:0.010900847 3:-0.056869011 4:0.3191172 5:0.17647059 6:0.14517799 7:0.37393731 8:0.28268758 9:0.20926864 
0.001 1:0.28549551 2:0.24354732 3:0.28201301 4:0.27041381 5:0.17647059 6:0.20300741 7:0.12267493 8:0.10670194 9:-0.10208922 
0.001 1:0.17415889 2:-0.031680538 3:0.1326679 4:0.27146099 5:0.17647059 6:0.17364556 7:0.29106259 8:0.21648438 9:0.18396494 
0.001 1:0.017106368 2:0.026985222 3:0.19770682 4:0.15264483 5:0.17647059 6:0.38991335 7:0.083976963 8:0.24294268 9:0.30048847 
0.001 1:0.18885419 2:0.29704235 3:0.24934071 4:0.13826529 5:0.17647059 6:0.08315329 7:0.15143314 8:0.16377675 9:0.13989898 
0.001 1:0.29087316 2:0.14812548 3:0.092387222 4:0.18009774 5:0.17647059 6:0.16073643 7:0.23984893 8:0.12634133 9:0.17335441 
0.001 1:0.062419067 2:0.060958335 3:-0.1493837 4:0.45269877 5:0.17647059 6:0.47635938 7:0.20249116 8:0.2296399 9:0.076581799 
0.001 1:-0.12631105 2:-0.041646418 3:0.20425764 4:0.30446556 5:0.11764706 6:0.17562095 7:0.063831892 8:0.1152189 9:0.245739 
0.001 1:0.37876443 2:0.27299754 3:-0.01521957 4:-0.048817071 5:0.11764706 6:-0.15818214 7:0.55756876 8:0.042951328 9:-0.088886809 
0.001 1:0.17641729 2:0.37682388 3:0.25078783 4:-0.15857274 5:0.17647059 6:0.05234801 7:0.11024683 8:0.31509253 9:0.28862107 
0.001 1:0.1950648 2:0.031524388 3:0.22518944 4:0.10907947 5:0.17647059 6:0.26643049 7:0.15002956 8:0.2048619 9:0.22958466 
0.001 1:0.13511306 2:0.017154594 3:-0.020909643 4:0.29865481 5:0.17647059 6:0.26899547 7:0.28953922 8:0.22897243 9:0.19424478 
0.001 1:0.50922533 2:-0.25377853 3:-0.36871421 4:0.77100425 5:0.11764706 6:0.076864036 7:0.30969162 8:-0.16176129 9:0.058645265 
0.001 1:0.1476389 2:0.12698099 3:0.10635889 4:0.22356213 5:0.17647059 6:0.19938429 7:0.2342917 8:0.18047789 9:0.19306992 
0.001 1:0.18868783 2:0.19464877 3:0.22816843 4:0.17702949 5:0.17647059 6:0.21621804 7:0.10197408 8:0.12221868 9:0.18281939 
0.001 1:0.11723582 2:-0.030569377 3:0.18274483 4:0.16182736 5:0.17647059 6:0.22004966 7:0.15214339 8:0.27226819 9:0.33606483 
0.001 1:0.12039255 2:0.27614405 3:0.21125494 4:-0.034847496 5:0.17647059 6:0.10895825 7:0.17038258 8:0.31141797 9:0.24806186 
0.001 1:0.20599452 2:0.17433583 3:0.24834584 4:0.20018748 5:0.17647059 6:0.25815488 7:0.12186415 8:0.076092115 9:0.12678989 
0.001 1:0.18445079 2:0.18983681 3:0.28873796 4:0.21758676 5:0.17647059 6:0.26812038 7:0.021763306 8:0.050186005 9:0.1910827 
0.001 1:0.14191999 2:0.15577021 3:0.11705543 4:0.18352103 5:0.17647059 6:0.16742356 7:0.19405128 8:0.24189467 9:0.21012853 
0.001 1:0.22331782 2:0.33696777 3:0.06284661 4:0.27542528 5:0.17647059 6:0.15518539 7:0.24896775 8:0.17601835 9:-0.06696427 
0.001 1:0.17883388 2:0.084291603 3:0.04076259 4:0.22812372 5:0.17647059 6:0.24289426 7:0.40284383 8:0.11649799 9:0.11751684 
0.001 1:0.032451536 2:0.16367663 3:0.12072979 4:0.14630414 5:0.17647059 6:0.17329792 7:0.16663939 8:0.34574945 9:0.26291585 
0.001 1:0.24379844 2:0.43132134 3:0.23128439 4:-0.012589877 5:0.17647059 6:0.013819185 7:0.17349108 8:0.18664083 9:0.14399931 
0.001 1:0.053970706 2:0.038236822 3:0.11565211 4:0.27270426 5:0.17647059 6:0.23713441 7:0.25311754 8:0.17865187 9:0.26229698 
0.001 1:0.26651315 2:0.26969766 3:0.17605654 4:0.31490137 5:0.17647059 6:0.12025145 7:0.19135882 8:0.096435498 9:-0.023449774 
0.001 1:0.29577868 2:0.33948575 3:0.21766528 4:0.17647169 5:0.17647059 6:0.19765901 7:-0.060204143 8:0.15318347 9:0.091724979 
0.001 1:0.3552378 2:0.23584295 3:0.16545604 4:0.36358484 5:0.17647059 6:0.1231289 7:0.06078763 8:0.13802326 9:-0.030296713 
0.001 1:0.10267838 2:0.27360223 3:0.16527808 4:-0.079880267 5:0.11764706 6:0.094039349 7:0.06606068 8:0.096758873 9:0.22263914 
0.001 1:0.072399315 2:0.082429586 3:0.18238695 4:0.083349266 5:0.11764706 6:0.026014198 7:0.20131685 8:0.1515955 9:0.14168481 
0.001 1:0.075642486 2:-0.00250938 3:0.12528842 4:0.33976057 5:0.11764706 6:0.19598119 7:-0.0046637283 8:0.042359201 9:0.16931771 
0.001 1:0.04262725 2:-0.04304203 3:0.08279541 4:0.14036162 5:0.11764706 6:0.26836629 7:0.2514164 8:0.076287217 9:0.1223643 
0.001 1:0.045930199 2:0.046656798 3:0.09893012 4:0.14826131 5:0.11764706 6:0.19406328 7:0.1416674 8:0.10295319 9:0.16271417 
0.001 1:0.04374301 2:0.1082571 3:0.23371458 4:0.15977304 5:0.11764706 6:0.15345093 7:0.10849446 8:0.070313165 9:0.063430189 
0.001 1:0.37393481 2:0.29848527 3:0.35856239 4:0.30068123 5:0.17647059 6:0.35477693 7:-0.15944214 8:-0.1943895 9:0.079155716 
0.001 1:0.01253967 2:0.1550638 3:0.1276981 4:0.17999723 5:0.17647059 6:0.20731775 7:0.19439369 8:0.26650176 9:0.26825271 
0.001 1:0.37025097 2:0.092432062 3:0.060956505 4:0.265472 5:0.17647059 6:0.078379227 7:0.34680971 8:0.15237024 9:0.04509399 
0.001 1:0.20158973 2:0.012343812 3:0.23741034 4:0.36273253 5:0.17647059 6:0.28362584 7:0.17560399 8:-0.055463834 9:0.1939223 
0.001 1:0.17109018 2:0.14823574 3:0.094157669 4:0.22301129 5:0.17647059 6:0.17530102 7:0.22520483 8:0.20275205 9:0.17201192 
0.001 1:0.14881115 2:0.15498872 3:0.14003896 4:0.13630585 5:0.11764706 6:0.13677839 7:0.073613854 8:0.064901528 9:0.085738021 
0.001 1:0.17826757 2:0.16079285 3:0.21751436 4:0.13887056 5:0.17647059 6:0.34746078 7:-0.030418607 8:0.056105247 9:0.34317195 
0.001 1:0.2424779 2:0.19519322 3:0.19037938 4:0.27468169 5:0.17647059 6:0.19273752 7:0.15751216 8:0.097376688 9:0.061406145 
0.001 1:0.22590956 2:0.27514173 3:0.18633612 4:0.092363265 5:0.17647059 6:0.090178862 7:0.15362548 8:0.23250749 9:0.1557022 
0.001 1:0.2331679 2:0.2429829 3:0.12970907 4:0.2574524 5:0.17647059 6:0.13314708 7:0.18095982 8:0.13591358 9:0.098431951 
0.001 1:0.24158893 2:0.22278476 3:0.15727274 4:0.27277135 5:0.17647059 6:0.17443017 7:0.17100028 8:0.11818007 9:0.05373641 
0.001 1:0.25590189 2:0.22635293 3:0.1657336 4:0.28131103 5:0.17647059 6:0.18031517 7:0.14276114 8:0.12017502 9:0.039213927 
0.001 1:0.10252074 2:0.23486232 3:0.3418853 4:0.076357035 5:0.17647059 6:0.47844045 7:-0.12510106 8:0.0038738093 9:0.29892611 
0.001 1:0.40215565 2:0.13634653 3:0.17117527 4:0.10127717 5:0.11764706 6:-0.062124964 7:0.078760549 8:-0.057122095 9:0.17070836 
0.001 1:0.17017966 2:0.080779813 3:0.13516524 4:0.22837844 5:0.17647059 6:0.15559161 7:0.22842423 8:0.19062614 9:0.22261957 
0.001 1:0.25808058 2:0.16988206 3:0.193412 4:0.1766942 5:0.17647059 6:0.23826845 7:0.096479268 8:0.19241379 9:0.086534352 
0.001 1:0.0075379578 2:0.0051608768 3:0.14019327 4:0.14831226 5:0.17647059 6:0.33961247 7:0.18416893 8:0.2801804 9:0.30659854 
0.001 1:0.18566535 2:0.2338491 3:0.16363956 4:0.047605182 5:0.17647059 6:0.09582972 7:0.23534648 8:0.26469432 9:0.185135 
0.001 1:0.21820296 2:0.35222402 3:0.21237685 4:-0.0025591342 5:0.17647059 6:0.044807516 7:0.11015848 8:0.28399173 9:0.19256228 
0.001 1:0.20129859 2:0.10891218 3:0.15066489 4:0.014928425 5:0.11764706 6:0.14628342 7:0.035792449 8:0.11447087 9:0.16882565 
0.001 1:0.13979563 2:0.12006978 3:0.063505079 4:0.081086857 5:0.11764706 6:0.067930238 7:0.20198796 8:0.19801337 9:0.06878756 
0.001 1:0.1500909 2:0.10344246 3:0.14853463 4:0.10334882 5:0.11764706 6:-0.018476051 7:0.1923364 8:0.14125874 9:0.12064058 
0.001 1:0.092465691 2:0.13259898 3:-0.082683203 4:0.37954539 5:0.11764706 6:0.24115436 7:0.39362833 8:0.025756233 9:-0.24128932 
0.001 1:-0.034944169 2:-0.022471294 3:0.18634952 4:0.30633246 5:0.23529412 6:0.47846854 7:0.24584411 8:0.30332307 9:0.41945069 
0.001 1:0.2089017 2:0.33516433 3:0.34902166 4:0.028011811 5:0.11764706 6:-0.063747597 7:-0.053141003 8:0.090113923 9:0.046851655 
0.001 1:0.18048655 2:0.14770056 3:-0.046073941 4:0.23737059 5:0.17647059 6:0.20105487 7:0.24576327 8:0.24859223 9:0.19687057 
0.001 1:0.2344582 2:0.26756294 3:0.30755382 4:0.1374452 5:0.17647059 6:0.043474363 7:0.18419173 8:0.10337044 9:0.13370801 
0.001 1:0.24162289 2:0.19693453 3:0.05299637 4:0.43278994 5:0.23529412 6:0.1489216 7:0.40668096 8:0.23910377 9:0.16330287 
0.001 1:0.081658968 2:-0.2159535 3:0.12165627 4:0.57761634 5:0.17647059 6:0.33370147 7:0.1303401 8:0.24684846 9:0.13589659 
0.001 1:0.18186638 2:0.21056606 3:0.030222905 4:0.12385966 5:0.11764706 6:0.10323579 7:0.052491885 8:0.024322854 9:0.21461094 
0.001 1:0.07472935 2:0.059100284 3:0.026759078 4:0.20408903 5:0.11764706 6:0.15996755 7:0.17723542 8:0.11729077 9:0.12200499 
0.001 1:0.097950403 2:0.05012026 3:0.058049735 4:0.16165785 5:0.11764706 6:0.14845813 7:0.1382751 8:0.13860969 9:0.14805531 
0.001 1:0.1819161 2:0.19275275 3:0.22820856 4:-0.16665884 5:0.11764706 6:0.21287505 7:-0.00096117525 8:0.070544451 9:0.22249958 
0.001 1:0.23719795 2:0.24515829 3:0.15868792 4:0.21918881 5:0.17647059 6:0.16176698 7:0.17023889 8:0.13722887 9:0.082296991 
0.001 1:0.035099012 2:0.19938034 3:-0.073472555 4:0.30949288 5:0.17647059 6:0.15073578 7:0.31459452 8:0.34692078 9:0.12901395 
0.001 1:0.28509837 2:0.2613833 3:0.25483976 4:0.17820606 5:0.17647059 6:0.12437694 7:0.17249898 8:0.080150217 9:0.055211074 
0.001 1:0.30563573 2:0.33550773 3:0.28127262 4:0.038374769 5:0.17647059 6:0.14631816 7:-0.033435501 8:0.17108322 9:0.16700798 
0.001 1:0.20035844 2:0.35742291 3:0.31553692 4:0.27225888 5:0.17647059 6:0.13877625 7:-0.075667976 8:0.043791263 9:0.15928802 
0.001 1:0.11894027 2:0.13933624 3:0.16059694 4:0.099313718 5:0.11764706 6:0.16354132 7:0.042750851 8:0.12862322 9:0.088073916 
0.001 1:0.046081404 2:0.11634539 3:0.12059963 4:0.069262243 5:0.11764706 6:0.11916926 7:0.10980582 8:0.18243688 9:0.17747585 
0.001 1:0.077743333 2:0.10762657 3:0.091455876 4:0.15777824 5:0.11764706 6:0.21109944 7:0.076072288 8:0.13840964 9:0.08099108 
0.001 1:0.050113386 2:0.087481347 3:0.05834163 4:0.18924007 5:0.11764706 6:0.13118895 7:0.1442516 8:0.12325624 9:0.15730325 
0.001 1:0.2277733 2:0.14426549 3:-0.070664896 4:0.46014267 5:0.23529412 6:0.26518185 7:0.3761621 8:0.29403903 9:0.18545338 
9.5941486614392385e-05 1:0.33860897 2:0.36075128 3:0.26062823 4:0.38375433 5:0.23529412 6:0.22309221 7:0.19266941 8:0.12998877 9:-0.0071402624 
0.001 1:0.22499719 2:0.011709991 3:0.10606727 4:0.11114351 5:0.11764706 6:0.025850659 7:0.25308856 8:0.10089455 9:0.10742474 
0.001 1:0.23866606 2:0.11167933 3:-0.066316127 4:0.38521798 5:0.17647059 6:0.078667692 7:0.36497655 8:0.26079165 9:0.038081569 
0.001 1:0.28513116 2:-0.23109129 3:-0.040241513 4:0.55536426 5:0.17647059 6:0.33412917 7:0.082033283 8:0.10202838 9:0.32441126 
0.001 1:0.05856103 2:0.12945831 3:0.078224102 4:0.10453761 5:0.11764706 6:0.12496534 7:0.1377653 8:0.16014357 9:0.14752122 
0.001 1:0.075477614 2:0.10532124 3:0.091784825 4:0.14372798 5:0.11764706 6:0.11937949 7:0.11886075 8:0.15876888 9:0.12785569 
0.001 1:0.016097746 2:0.1226767 3:0.13913885 4:0.18600731 5:0.17647059 6:0.24350072 7:0.14197439 8:0.30020905 9:0.26215994 
0.001 1:0.003899943 2:-0.006524683 3:0.16822137 4:0.17982164 5:0.17647059 6:0.30852453 7:0.21730811 8:0.2162833 9:0.3242305 
0.001 1:0.22777768 2:0.19610358 3:0.16920798 4:0.24269755 5:0.17647059 6:0.17632161 7:0.16507956 8:0.13663718 9:0.097939561 
0.001 1:0.19481136 2:0.17467868 3:0.21282627 4:0.22784162 5:0.17647059 6:0.22067456 7:0.11746225 8:0.092295265 9:0.1711747 
0.001 1:0.18937969 2:0.11498543 3:0.057917687 4:0.22488785 5:0.17647059 6:0.16733975 7:0.28019989 8:0.21236699 9:0.16468742 
0.001 1:0.29174857 2:0.28752462 3:0.17446668 4:0.25254479 5:0.17647059 6:0.19093071 7:0.071030525 8:0.10498642 9:0.038532396 
0.001 1:0.24759703 2:0.16960904 3:0.23215198 4:0.23270088 5:0.17647059 6:0.33612972 7:0.11623171 8:-0.0026717829 9:0.080016131 
0.001 1:0.28070142 2:0.1572069 3:-0.021300635 4:0.27130392 5:0.17647059 6:0.15139458 7:0.29126276 8:0.17050148 9:0.11069428 
0.001 1:0.32515229 2:0.18073785 3:0.022890406 4:0.1606263 5:0.17647059 6:0.1233362 7:0.18281422 8:0.17309648 9:0.24311097 
0.001 1:0.17020801 2:0.15851943 3:0.047926222 4:0.17155464 5:0.11764706 6:0.18575016 7:0.081774126 8:0.064645211 9:0.060798681 
0.001 1:0.11728744 2:0.24849819 3:0.05877505 4:0.16826914 5:0.11764706 6:0.043133906 7:0.13982086 8:0.12655421 9:0.038837678 
0.001 1:0.12700268 2:0.10095879 3:0.17578729 4:0.1357115 5:0.11764706 6:0.22202435 7:0.063718403 8:0.021147959 9:0.094825501 
0.001 1:0.16895222 2:0.23692407 3:0.15709233 4:0.13420245 5:0.17647059 6:0.097229096 7:0.18507262 8:0.25922568 9:0.17306624 
0.001 1:0.21768663 2:0.14865577 3:0.11950271 4:0.19505732 5:0.11764706 6:0.05948774 7:0.10326504 8:0.076887614 9:0.020633655 
0.001 1:0.081877165 2:0.18679406 3:-0.015677158 4:0.13597367 5:0.11764706 6:0.033674239 7:0.16569651 8:0.23671754 9:0.11612045 
0.001 1:0.23109466 2:0.0055175911 3:-0.026634048 4:0.28369317 5:0.11764706 6:0.11487509 7:0.2202046 8:0.062908357 9:0.049517049 
0.001 1:0.42156666 2:0.29032905 3:0.15195477 4:0.34823583 5:0.17647059 6:-0.050716894 7:0.24626025 8:0.11590705 9:-0.11177202 
0.001 1:-0.082552613 2:-0.13238838 3:0.035166786 4:0.0525721 5:0.11764706 6:0.26738055 7:0.38395461 8:0.12948146 9:0.28756195 
0.001 1:0.081208634 2:0.05736133 3:0.15790481 4:0.052296059 5:0.11764706 6:0.076236171 7:0.17090078 8:0.1184509 9:0.22681779 
0.001 1:0.1611221 2:0.14971355 3:0.11612712 4:0.15899351 5:0.11764706 6:0.11772004 7:0.10524751 8:0.081911821 9:0.050340825 
0.001 1:0.19643133 2:0.17988139 3:0.20412355 4:0.21658927 5:0.17647059 6:0.20394615 7:0.15045905 8:0.12339543 9:0.13693853 
0.001 1:0.10837937 2:0.097740661 3:0.014407842 4:0.13711956 5:0.11764706 6:0.11293884 7:0.18022512 8:0.15801671 9:0.13234837 
0.001 1:0.11155505 2:0.036531352 3:0.077004851 4:0.16023467 5:0.11764706 6:0.13027504 7:0.16155303 8:0.12141834 9:0.14260413 
0.001 1:0.21029931 2:0.19542581 3:0.16655999 4:0.23568571 5:0.17647059 6:0.17527139 7:0.16347443 8:0.15340209 9:0.11164598 
0.001 1:0.21695414 2:0.13098052 3:0.036792993 4:0.2460455 5:0.17647059 6:0.12472855 7:0.29201722 8:0.20887682 9:0.15536897 
0.001 1:0.092295445 2:0.17738749 3:0.13397243 4:0.12680975 5:0.17647059 6:0.2074437 7:0.18293833 8:0.26193021 9:0.22898734 
0.001 1:0.2146392 2:0.1770558 3:0.21468869 4:0.23591698 5:0.17647059 6:0.25210952 7:0.12097561 8:0.070621714 9:0.12575718 
0.001 1:-0.074541931 2:0.15851308 3:0.10129948 4:0.17799451 5:0.17647059 6:0.21495875 7:0.14460053 8:0.36155359 9:0.32738669 
0.001 1:0.27117361 2:0.21219596 3:0.15434057 4:0.30359628 5:0.17647059 6:0.20001283 7:0.14909706 8:0.11451106 9:0.0068373253 
0.001 1:-0.001241206 2:-0.0204024 3:0.19020788 4:0.20836797 5:0.17647059 6:0.35840939 7:0.17694801 8:0.1587747 9:0.34070035 
0.001 1:0.18200606 2:0.25620053 3:0.29992501 4:0.213132 5:0.17647059 6:0.2411939 7:0.10258886 8:-0.015106805 9:0.13182514 
0.001 1:0.32002426 2:0.37880964 3:0.23529667 4:0.27438245 5:0.17647059 6:0.23896793 7:0.050899166 8:-0.010988262 9:-0.075627144 
0.001 1:0.23843169 2:0.090490847 3:0.067901544 4:0.35449565 5:0.17647059 6:0.27026707 7:0.26790004 8:0.05474889 9:0.067528969 
0.001 1:0.10896242 2:0.17215153 3:0.15720615 4:0.035471633 5:0.11764706 6:0.08317488 7:0.10378361 8:0.17145404 9:0.10897221 
0.001 1:0.13636601 2:0.12005247 3:0.17257975 4:0.13746251 5:0.11764706 6:0.188218 7:0.063555524 8:0.04998616 9:0.072956049 
0.001 1:0.026488711 2:0.049789004 3:0.14033747 4:0.09729462 5:0.11764706 6:0.20935285 7:0.047914601 8:0.15284587 9:0.21715334 
0.001 1:0.049859735 2:0.1529909 3:0.097725455 4:0.12060483 5:0.11764706 6:0.06939718 7:0.15839487 8:0.13507747 9:0.15712604 
0.001 1:0.18507511 2:0.29708763 3:0.17731439 4:-0.025483283 5:0.17647059 6:0.07800982 7:0.18637402 8:0.27317977 9:0.24020724 
0.001 1:0.1414968 2:0.0046769698 3:-0.047592313 4:0.43020197 5:0.11764706 6:0.17527942 7:0.014892746 8:0.33264487 9:-0.11042399 
0.001 1:0.28086886 2:0.26408093 3:0.08750823 4:0.45994673 5:0.17647059 6:0.16630943 7:0.169198 8:0.0068044296 9:-0.022951896 
0.001 1:-0.053056231 2:-0.187559 3:0.11218003 4:0.16083364 5:0.17647059 6:0.37097854 7:0.22556049 8:0.3195999 9:0.46322735 
0.001 1:0.40106715 2:0.2280481 3:0.29942219 4:0.44892202 5:0.23529412 6:0.42040118 7:0.13672803 8:-0.088780929 9:0.036545207 
0.001 1:0.10849633 2:0.214303 3:0.14842897 4:0.078643391 5:0.11764706 6:0.2508558 7:-0.073872614 8:0.032089068 9:0.18223253 
0.001 1:0.16518131 2:0.15774528 3:0.2800738 4:0.24294208 5:0.17647059 6:0.24577992 7:0.068972355 8:0.05812519 9:0.19294478 
0.001 1:0.14383024 2:0.14976023 3:0.13087652 4:0.18454869 5:0.17647059 6:0.16704655 7:0.21626721 8:0.22368052 9:0.19575475 
0.001 1:0.14657947 2:0.15421709 3:0.14506734 4:0.1914845 5:0.17647059 6:0.18671794 7:0.18280097 8:0.20433313 9:0.20056429 
0.001 1:0.058960001 2:0.11889856 3:0.091511998 4:0.104732 5:0.11764706 6:0.12663877 7:0.13632333 8:0.16077476 9:0.14333705 
0.001 1:0.27336962 2:0.073229218 3:0.028395371 4:0.32496962 5:0.17647059 6:0.10232614 7:0.35053057 8:0.1670739 9:0.091870277 
0.001 1:0.21397315 2:0.16005816 3:0.18957155 4:0.22958814 5:0.17647059 6:0.20293678 7:0.16125104 8:0.11085209 9:0.14353381 
0.001 1:0.22328158 2:0.19045708 3:0.21134338 4:0.19672746 5:0.17647059 6:0.2350804 7:0.12136969 8:0.078886472 9:0.15461865 
0.001 1:0.14626936 2:0.099035309 3:0.04587183 4:0.26306383 5:0.17647059 6:0.12886555 7:0.31475355 8:0.22892575 9:0.18497953 
0.001 1:0.20030347 2:0.28845723 3:0.19562262 4:0.085508342 5:0.17647059 6:0.08191182 7:0.18393763 8:0.2264245 9:0.14959909 
0.001 1:0.11373175 2:0.024933965 3:0.026280216 4:0.27184254 5:0.17647059 6:0.24438412 7:0.27540654 8:0.21732421 9:0.23786136 
0.001 1:0.044429732 2:0.021657327 3:0.15591391 4:0.1808081 5:0.17647059 6:0.27598303 7:0.15643983 8:0.26464487 9:0.31188791 
0.001 1:0.33314177 2:0.24234589 3:0.10712782 4:0.32607968 5:0.17647059 6:0.14606447 7:0.085665708 8:0.038509844 9:0.13282953 
0.001 1:0.18970319 2:0.16466188 3:0.26273586 4:0.27365122 5:0.17647059 6:0.25555357 7:0.13259593 8:0.045422543 9:0.087440507 
0.001 1:0.29389418 2:0.25961428 3:0.1748994 4:0.059020387 5:0.17647059 6:0.047796355 7:0.13184815 8:0.21917821 9:0.22551374 
0.001 1:0.087993463 2:0.2918628 3:0.12935005 4:0.014272752 5:0.17647059 6:0.1573242 7:0.15940806 8:0.33046985 9:0.24108353 
0.001 1:0.20785768 2:0.13713638 3:0.16113335 4:0.16632746 5:0.11764706 6:0.10778756 7:-0.037873962 8:0.14785637 9:0.050951621 
0.001 1:0.027989922 2:0.20819157 3:-0.12318966 4:0.30802463 5:0.17647059 6:0.31330873 7:0.26029515 8:0.21052512 9:0.20661924 
0.001 1:0.012747181 2:-0.10678498 3:0.13371793 4:0.23665076 5:0.17647059 6:0.3530967 7:0.20015432 8:0.20481686 9:0.37736594 
0.001 1:0.12168814 2:0.065666694 3:0.12653102 4:0.20567911 5:0.17647059 6:0.20796431 7:0.23765563 8:0.2375312 9:0.2090486 
0.001 1:0.16643725 2:0.17483792 3:0.10771206 4:0.052729195 5:0.11764706 6:0.062410701 7:0.12364066 8:0.1389544 9:0.11445428 
0.001 1:0.0953617 2:0.12131329 3:0.17952854 4:0.00679114 5:0.11764706 6:0.055158398 7:0.060936957 8:0.22909783 9:0.19298862 
0.001 1:0.30573254 2:0.30424387 3:0.097069648 4:0.284304 5:0.17647059 6:0.080057008 7:0.20355141 8:0.094677102 9:0.042129121 
0.001 1:0.1247766 2:0.10601599 3:0.1655358 4:0.13542663 5:0.11764706 6:0.17974541 7:0.045448893 8:0.064370839 9:0.11985631 
0.001 1:0.19463457 2:0.19609025 3:0.19532265 4:0.20435122 5:0.17647059 6:0.21089737 7:0.15408053 8:0.10545468 9:0.15093344 
0.001 1:0.14447432 2:0.1061662 3:0.10883798 4:0.23494507 5:0.17647059 6:0.21919145 7:0.21815585 8:0.19529046 9:0.18470338 
0.001 1:0.26761246 2:0.15960191 3:0.24811048 4:0.28604174 5:0.17647059 6:0.33572093 7:0.099787875 8:-0.043261393 9:0.058150708 
0.001 1:0.18729898 2:0.11619462 3:0.14015854 4:0.19874798 5:0.17647059 6:0.19811677 7:0.22335539 8:0.17480944 9:0.173083 
0.001 1:0.097506066 2:0.17052747 3:0.11298398 4:0.15059746 5:0.17647059 6:0.16791091 7:0.22890155 8:0.26100885 9:0.22232842 
0.001 1:0.16020457 2:0.21601461 3:0.25731955 4:0.18419702 5:0.17647059 6:0.27771851 7:0.06401417 8:0.069477584 9:0.18281869 
0.001 1:0.21648785 2:0.17615201 3:0.2213195 4:0.23772418 5:0.17647059 6:0.22441026 7:0.16045565 8:0.090255231 9:0.084960022 
0.001 1:0.18558504 2:0.15109019 3:0.17409929 4:0.18950244 5:0.17647059 6:0.3420114 7:0.13838222 8:0.030349429 9:0.20074469 
0.001 1:0.21718879 2:0.17283904 3:0.21485354 4:0.23684059 5:0.17647059 6:0.25262428 7:0.12201656 8:0.058102258 9:0.13729965 
5.2657906399831487e-05 1:0.19487072 2:0.21130981 3:0.61522078 4:0.16054119 5:0.23529412 6:0.56344295 7:-0.17067287 8:-0.076892157 9:0.38453251 
0.001 1:0.18979489 2:0.1016865 3:0.0072928365 4:0.29310376 5:0.17647059 6:0.15706868 7:0.27653464 8:0.2436102 9:0.14267319 
0.001 1:0.28705716 2:0.14957292 3:0.22941525 4:0.30086631 5:0.17647059 6:0.18246609 7:0.18099696 8:0.0066401009 9:0.074749916 
0.001 1:0.13307006 2:0.19885457 3:0.080318518 4:0.20595535 5:0.17647059 6:0.17673575 7:0.26107244 8:0.14569921 9:0.2100588 
0.001 1:0.14070918 2:0.13652033 3:0.134241 4:0.15575975 5:0.11764706 6:0.13909141 7:0.083625482 8:0.059150842 9:0.092078483 
0.001 1:0.050741568 2:0.17838936 3:0.19200244 4:0.16308494 5:0.11764706 6:0.17137286 7:0.077108245 8:0.016425405 9:0.092051651 
0.001 1:0.14948619 2:0.13904868 3:0.1200947 4:0.12787006 5:0.11764706 6:0.13600365 7:0.10697049 8:0.070908704 9:0.090794003 
0.001 1:0.23836173 2:0.11628668 3:0.3168336 4:0.069266771 5:0.17647059 6:-0.035587056 7:0.27588226 8:0.24930831 9:0.18141241 
0.001 1:0.34426097 2:0.17829483 3:0.29193199 4:0.27782425 5:0.17647059 6:0.24390002 7:0.10166766 8:-0.1674021 9:0.14128709 
0.001 1:0.16523004 2:0.084949502 3:-0.066056262 4:0.28413998 5:0.17647059 6:0.097806571 7:0.40533008 8:0.29293187 9:0.14743292 
0.001 1:0.42161294 2:0.30466661 3:0.32437846 4:0.40682298 5:0.23529412 6:0.36968054 7:0.13420219 8:-0.015481522 9:-0.063529254 
0.001 1:0.32641317 2:0.23183172 3:0.36403051 4:0.41321744 5:0.23529412 6:0.41530729 7:0.081630084 8:-0.082124812 9:0.13204754 
0.001 1:0.16308918 2:0.23153713 3:0.23396987 4:0.1845804 5:0.17647059 6:0.22673929 7:0.05924899 8:0.18182146 9:0.13077839 
0.001 1:0.17425104 2:0.23424873 3:0.22397333 4:0.16149248 5:0.17647059 6:0.18330808 7:0.12499304 8:0.16031248 9:0.14918552 
0.001 1:0.16458701 2:0.12202296 3:0.1430993 4:0.19729705 5:0.17647059 6:0.18604784 7:0.20703278 8:0.1852698 9:0.20640797 
0.001 1:0.16141166 2:0.1380447 3:0.13383798 4:0.16321884 5:0.11764706 6:0.10696072 7:0.10505499 8:0.074243613 9:0.058403971 
0.001 1:0.1299754 2:0.080463844 3:0.049447742 4:0.14359201 5:0.11764706 6:0.11769438 7:0.17339803 8:0.12198059 9:0.12462447 
0.001 1:0.21748261 2:0.20335892 3:0.16372583 4:0.22396805 5:0.17647059 6:0.16460565 7:0.16495816 8:0.15185244 9:0.12181304 
0.001 1:0.13625665 2:-0.0037432996 3:0.15532853 4:0.17069825 5:0.17647059 6:0.19658475 7:0.19492856 8:0.25966505 9:0.30204621 
0.001 1:0.10954095 2:0.071170759 3:-0.010350768 4:0.29231078 5:0.17647059 6:0.16920902 7:0.30776272 8:0.18536918 9:0.28675207 
0.001 1:0.051368805 2:-0.052971663 3:0.12127596 4:0.25468165 5:0.17647059 6:0.24056819 7:0.26909729 8:0.24314565 9:0.28459882 
0.001 1:0.088903887 2:0.17218555 3:0.14610154 4:0.1500162 5:0.17647059 6:0.17283828 7:0.20999112 8:0.25554117 9:0.21618696 
0.001 1:0.21831906 2:0.20726854 3:0.13120797 4:0.27530348 5:0.17647059 6:0.1854812 7:0.19839134 8:0.13688916 9:0.058903956 
0.001 1:0.030122127 2:0.027759685 3:0.14978869 4:0.18626576 5:0.17647059 6:0.26686022 7:0.18798195 8:0.25416532 9:0.30882096 
0.001 1:0.18979578 2:-0.0093866029 3:0.042842584 4:0.28764204 5:0.17647059 6:0.23655629 7:0.23443307 8:0.096912229 9:0.33296931 
0.001 1:0.28715075 2:0.20714032 3:0.15191469 4:0.31519471 5:0.17647059 6:0.16637284 7:0.16954694 8:0.11927961 9:-0.0048351757 
0.001 1:0.28997918 2:0.2148065 3:0.25159578 4:0.26397151 5:0.17647059 6:0.25584175 7:0.11583091 8:-0.035869477 9:0.055608554 
0.001 1:0.13933904 2:0.037643313 3:0.12394048 4:0.18472084 5:0.17647059 6:0.20183165 7:0.24361821 8:0.21631481 9:0.26435635 
0.001 1:0.17395873 2:0.14391828 3:0.18446584 4:0.11321608 5:0.17647059 6:0.15044085 7:0.18388997 8:0.19026437 9:0.2716106 
0.001 1:0.06131702 2:0.11807154 3:-0.041189603 4:0.20209618 5:0.11764706 6:0.16153977 7:0.15829095 8:0.15094808 9:0.13010253 
0.001 1:0.11519525 2:0.14692462 3:0.14225499 4:0.14053251 5:0.11764706 6:0.11777187 7:0.10125503 8:0.075258513 9:0.10198369 
0.001 1:0.094448764 2:0.086737847 3:0.1259048 4:0.11903309 5:0.11764706 6:0.12993759 7:0.1177586 8:0.114244 9:0.15311178 
0.001 1:0.32360084 2:0.17392225 3:0.16841103 4:0.098623505 5:0.11764706 6:-0.066038706 7:0.2230317 8:0.0071855197 9:0.012440319 
0.001 1:0.10027923 2:0.1761161 3:-0.11703172 4:0.27521081 5:0.17647059 6:0.24762521 7:0.33095527 8:0.25670054 9:0.14190926 
0.001 1:0.1969753 2:0.27410786 3:0.11177403 4:0.020170324 5:0.17647059 6:0.037868049 7:0.29643501 8:0.3316329 9:0.14280124 
0.001 1:0.35136011 2:0.3187786 3:0.24335408 4:0.41940142 5:0.23529412 6:0.18889019 7:0.25983122 8:0.12942141 9:-0.028684088 
0.001 1:0.3706365 2:0.25946392 3:0.32252137 4:0.38379567 5:0.23529412 6:0.34622452 7:0.15852123 8:0.011633351 9:0.029556391 
0.001 1:0.47085641 2:0.20588188 3:0.10973001 4:0.54566288 5:0.23529412 6:0.12553452 7:0.48612372 8:0.070116797 9:-0.13155327 
0.001 1:0.22010932 2:0.18750685 3:0.18602351 4:0.19428545 5:0.17647059 6:0.23549567 7:0.14311902 8:0.13846967 9:0.10675523 
0.001 1:-0.047193473 2:0.061928006 3:0.14248326 4:0.048932717 5:0.11764706 6:0.19590173 7:0.076589569 8:0.23768489 9:0.22484977 
0.001 1:0.15685831 2:0.1413257 3:0.13394053 4:0.20923726 5:0.17647059 6:0.18371505 7:0.21140147 8:0.20200985 9:0.17327653 
0.001 1:0.16461806 2:0.1496212 3:0.10725067 4:0.21578315 5:0.17647059 6:0.15900216 7:0.24227292 8:0.20314144 9:0.17007511 
0.001 1:0.12263468 2:0.098627202 3:0.050462825 4:0.15814837 5:0.11764706 6:0.096532904 7:0.16936554 8:0.14214436 9:0.10326059 
0.001 1:0.094586173 2:0.10395498 3:0.10032451 4:0.18371622 5:0.17647059 6:0.2134542 7:0.21837034 8:0.23784146 9:0.25951682 
0.001 1:0.25304125 2:0.20323906 3:0.18736767 4:0.25381567 5:0.17647059 6:0.19861363 7:0.13518865 8:0.097102863 9:0.083395903 
0.001 1:0.18944946 2:0.32386816 3:0.20384368 4:0.066286021 5:0.17647059 6:0.092135692 7:0.19535601 8:0.20806567 9:0.13276001 
0.001 1:0.17513797 2:0.25492556 3:0.23163673 4:0.080487503 5:0.17647059 6:0.10576742 7:0.15829185 8:0.23403416 9:0.17148352 
0.001 1:0.29053713 2:0.21906704 3:0.1399204 4:0.28576451 5:0.17647059 6:0.13859354 7:0.18131646 8:0.11421027 9:0.042355353 
0.001 1:0.28776046 2:0.19730276 3:0.20349927 4:0.26550839 5:0.17647059 6:0.18407035 7:0.16295655 8:0.086797043 9:0.023869879 
0.001 1:0.30940753 2:0.32312892 3:0.20383036 4:0.15972984 5:0.17647059 6:0.13762337 7:0.16156662 8:0.08198952 9:0.034488555 
0.001 1:0.020458468 2:0.11708412 3:0.22662556 4:0.051685684 5:0.11764706 6:0.20269125 7:0.04041725 8:0.15613763 9:0.12607651 
0.001 1:0.1938719 2:0.17386116 3:0.0046125901 4:0.08345375 5:0.11764706 6:0.013738989 7:0.22407314 8:0.17703347 9:0.070531462 
0.001 1:0.06981795 2:0.090065733 3:0.050319084 4:0.14840318 5:0.11764706 6:0.11506296 7:0.15864498 8:0.16609086 9:0.14277173 
0.001 1:0.078462072 2:0.094155925 3:0.0095266835 4:0.14824583 5:0.11764706 6:0.14389617 7:0.15720151 8:0.13818343 9:0.17150486 
0.001 1:0.1823273 2:0.14153726 3:0.1858876 4:0.080187553 5:0.11764706 6:-0.018309333 7:0.13015908 8:0.12434658 9:0.11504044 
0.001 1:0.11800197 2:0.087490359 3:0.051892635 4:0.13946244 5:0.11764706 6:0.15088963 7:0.13407782 8:0.11904105 9:0.14032057 
0.001 1:0.17844385 2:0.12996231 3:0.078292132 4:0.21191573 5:0.11764706 6:0.12936806 7:0.10035884 8:0.062819453 9:0.050016109 
0.001 1:0.27979208 2:-0.041106818 3:-0.11203229 4:0.31701805 5:0.11764706 6:0.087315324 7:0.18528927 8:0.16326522 9:0.061635629 
0.001 1:0.4103742 2:0.31244333 3:0.32725393 4:0.41008384 5:0.23529412 6:0.30121689 7:0.12672308 8:-0.0053286298 9:-0.00041370549 
0.001 1:0.22815597 2:0.33814425 3:0.14084404 4:0.33739305 5:0.17647059 6:0.129452 7:0.17731431 8:0.015531318 9:0.044929771 
0.001 1:0.26558364 2:0.15458891 3:0.025502254 4:0.41478132 5:0.23529412 6:0.19495502 7:0.39299823 8:0.28888191 9:0.14506166 
0.001 1:0.013402897 2:0.18566909 3:0.11302181 4:0.17122207 5:0.17647059 6:0.26768141 7:0.13971011 8:0.2576564 9:0.26340091 
0.001 1:0.27836155 2:0.14490372 3:-0.010462187 4:0.29014352 5:0.17647059 6:0.096569708 7:0.32552962 8:0.22038244 9:0.06633633 
0.001 1:0.13842466 2:0.11127596 3:0.11240903 4:0.21103756 5:0.17647059 6:0.19524841 7:0.21512853 8:0.20363927 9:0.22460129 
0.001 1:0.21645631 2:0.25185646 3:0.25446767 4:-0.061243043 5:0.17647059 6:0.25892842 7:0.07808826 8:0.15458897 9:0.25862166 
0.001 1:-0.014546037 2:0.030512317 3:0.12907887 4:0.18319538 5:0.17647059 6:0.33715223 7:0.17542974 8:0.26005727 9:0.31088494 
0.001 1:0.19336046 2:0.29411321 3:0.20617074 4:0.24931103 5:0.17647059 6:0.25245827 7:0.018216183 8:0.17592746 9:0.022207352 
0.001 1:0.14566231 2:0.025802389 3:0.068986278 4:0.25437571 5:0.17647059 6:0.24170569 7:0.25485264 8:0.1811072 9:0.23927248 
0.001 1:0.19745604 2:0.28630871 3:0.21076263 4:0.035679016 5:0.17647059 6:0.11579508 7:0.13692068 8:0.23301114 9:0.19583141 
0.001 1:0.065987424 2:0.38541807 3:0.34926086 4:-0.062294718 5:0.17647059 6:0.34314702 7:-0.15585852 8:0.26650806 9:0.21959651 
0.001 1:0.22517933 2:0.11902505 3:0.071179933 4:0.13755551 5:0.11764706 6:0.022022798 7:0.17972495 8:0.11684739 9:0.069641499 
0.001 1:0.16877268 2:0.10346582 3:0.038108472 4:0.16101071 5:0.11764706 6:0.04787383 7:0.1563511 8:0.15959842 9:0.10599544 
0.001 1:0.074050302 2:0.17113533 3:0.16806524 4:0.10042782 5:0.11764706 6:0.12085512 7:0.11665925 8:0.13434806 9:0.055635345 
0.001 1:0.18213179 2:0.14339859 3:0.11839253 4:0.18751071 5:0.11764706 6:0.1219368 7:0.091213835 8:0.074992148 9:0.021600064 
0.001 1:0.16327073 2:0.18143855 3:0.16207738 4:0.13759166 5:0.11764706 6:0.085192798 7:0.083903532 8:0.059621852 9:0.06807996 
0.001 1:0.089775332 2:0.094057688 3:0.089969552 4:0.13211874 5:0.11764706 6:0.099722487 7:0.16852038 8:0.13463823 9:0.13237406 
0.001 1:0.072104349 2:0.034371548 3:0.088307273 4:0.12715062 5:0.11764706 6:0.17046481 7:0.13836417 8:0.14397252 9:0.16644118 
0.001 1:0.069349754 2:0.23440121 3:0.18090989 4:0.048432935 5:0.11764706 6:0.11340971 7:0.042072106 8:0.092543742 9:0.16005713 
0.001 1:0.2084201 2:0.19497803 3:0.11127842 4:0.15619606 5:0.11764706 6:0.088536307 7:0.075394794 8:0.15058676 9:-0.044214003 
0.001 1:0.17191478 2:0.46123256 3:0.0049669157 4:0.35475794 5:0.11764706 6:-0.1769189 7:0.35097232 8:-0.13624441 9:-0.089504733 
0.001 1:0.10892574 2:0.061311151 3:-0.076292892 4:0.29639518 5:0.17647059 6:0.20471526 7:0.33108825 8:0.22243414 9:0.26318787 
0.001 1:0.2081722 2:0.34766157 3:0.50319765 4:0.13940992 5:0.17647059 6:0.3752406 7:-0.17686775 8:-0.057401477 9:0.072352011 
0.001 1:0.09055896 2:-0.028436876 3:0.23778921 4:0.081564567 5:0.17647059 6:0.29313583 7:0.13732423 8:0.29368599 9:0.30614279 
0.001 1:0.072094446 2:0.12749151 3:0.26382848 4:0.22969443 5:0.17647059 6:0.33831005 7:0.062107023 8:0.090859756 9:0.22737901 
0.001 1:0.066681313 2:0.21672242 3:0.14636588 4:0.076499489 5:0.17647059 6:0.14797887 7:0.23240875 8:0.28019398 9:0.244914 
0.001 1:0.28228572 2:0.33127639 3:0.2878131 4:0.046120978 5:0.17647059 6:0.13504923 7:0.060019864 8:0.1489107 9:0.12028873 
0.001 1:0.16762959 2:0.032184984 3:0.014804346 4:0.47187529 5:0.17647059 6:0.41871887 7:0.19995397 8:0.0022419129 9:0.10435574 
0.001 1:0.23149813 2:0.17560555 3:0.21158874 4:0.13622573 5:0.17647059 6:0.04196868 7:0.21158138 8:0.2294867 9:0.17380979 
0.001 1:0.1083016 2:0.068953026 3:0.019599138 4:0.17591381 5:0.11764706 6:0.16456567 7:0.16892002 8:0.11734044 9:0.11758276 
0.001 1:0.17517841 2:0.15722825 3:0.1036077 4:0.16251085 5:0.11764706 6:0.11177063 7:0.11462271 8:0.077767806 9:0.038490114 
0.001 1:0.096318035 2:0.053239005 3:0.050861713 4:0.16324555 5:0.11764706 6:0.14897628 7:0.14371739 8:0.13822005 9:0.14659844 
0.001 1:0.19212043 2:0.20578907 3:0.1997167 4:0.19462056 5:0.17647059 6:0.18795086 7:0.12978998 8:0.13889246 9:0.16288465 
0.001 1:0.17605057 2:0.15583728 3:0.11429511 4:0.16976499 5:0.11764706 6:0.098330948 7:0.095270025 8:0.095407818 9:0.036219734 
0.001 1:0.00058364706 2:0.18819534 3:0.09527292 4:0.13595136 5:0.17647059 6:0.23112551 7:0.18011887 8:0.31933907 9:0.26117798 
0.001 1:0.19535087 2:0.17729886 3:0.22487067 4:0.19139354 5:0.17647059 6:0.22636696 7:0.13993539 8:0.089565344 9:0.16698307 
0.001 1:0.11329069 2:0.17558786 3:0.10176848 4:0.16071051 5:0.17647059 6:0.20615287 7:0.19526641 8:0.26038161 9:0.19860628 
0.001 1:0.16173711 2:0.24702019 3:0.24596071 4:0.19343582 5:0.17647059 6:0.17184979 7:0.036065498 8:0.22421756 9:0.13147803 
0.001 1:0.22748799 2:0.23179579 3:0.18935275 4:0.10343431 5:0.11764706 6:0.10151773 7:-0.070849371 8:0.18002119 9:-0.021583918 
0.001 1:0.090286419 2:0.2120674 3:0.0782459 4:0.11683576 5:0.11764706 6:0.11270851 7:0.13092154 8:0.09241985 9:0.10769109 
0.001 1:0.072018077 2:0.035792367 3:0.093962087 4:0.15160515 5:0.11764706 6:0.17397727 7:0.12511348 8:0.12111067 9:0.16759736 
0.001 1:0.18642001 2:0.11752776 3:0.13629388 4:0.26139593 5:0.11764706 6:0.13737675 7:0.073604512 8:0.0083315636 9:0.020226065 
0.001 1:0.13238317 2:0.13320806 3:0.085359115 4:0.12564977 5:0.11764706 6:0.1241103 7:0.10715432 8:0.17240473 9:0.06090701 
0.001 1:0.13752259 2:0.015856769 3:-0.025191802 4:0.1592477 5:0.11764706 6:0.10318851 7:0.21785877 8:0.19730158 9:0.13539236 
0.001 1:0.19052387 2:0.11078158 3:0.2232434 4:0.092371147 5:0.11764706 6:0.23617677 7:-0.028579285 8:0.021010312 9:0.095648687 
0.001 1:0.085596567 2:-0.015354827 3:0.091935843 4:0.14939525 5:0.11764706 6:0.17543873 7:0.078122902 8:0.11778852 9:0.25825349 
0.001 1:-0.022303405 2:0.10999078 3:0.66050625 4:-0.068801246 5:0.11764706 6:0.0800959 7:-0.16676684 8:0.1407528 9:0.20770222 
0.001 1:-0.11785962 2:-0.069519199 3:0.048819017 4:0.40485367 5:0.17647059 6:0.50522193 7:0.16830912 8:0.29163674 9:0.18030304 
0.001 1:0.28320491 2:0.27562888 3:0.25512385 4:0.2589291 5:0.17647059 6:0.26308609 7:-0.045880308 8:0.095399621 9:0.026272565 
0.001 1:0.075883341 2:0.10115554 3:0.099693694 4:0.37455276 5:0.17647059 6:0.35275431 7:0.10900009 8:0.15030492 9:0.14842006 
0.001 1:0.33903955 2:0.3360301 3:0.23697604 4:0.2861156 5:0.17647059 6:0.11174047 7:0.11225838 8:0.036574751 9:-0.046970189 
0.001 1:0.031727734 2:0.24927846 3:0.29085485 4:-0.0019145568 5:0.17647059 6:0.12644111 7:0.203072 8:0.26767828 9:0.24462684 
0.001 1:0.33463183 2:0.50956098 3:0.23464007 4:-0.0037117947 5:0.17647059 6:-0.065233898 7:0.10269937 8:0.21991835 9:0.07925981 
0.001 1:0.16008725 2:0.029920513 3:-0.024764898 4:0.43941083 5:0.23529412 6:0.34025307 7:0.37158236 8:0.26497153 9:0.30089227 
0.001 1:0.11224167 2:0.048244862 3:0.164068 4:0.2034793 5:0.17647059 6:0.19213563 7:0.25087412 8:0.21505459 9:0.22566654 
0.001 1:0.15907484 2:0.12859828 3:0.14892065 4:0.13787455 5:0.11764706 6:0.14070587 7:0.047160813 8:0.056726896 9:0.12211457 
0.001 1:0.16702897 2:0.082890822 3:0.1253459 4:0.17587124 5:0.11764706 6:0.12887536 7:0.1106079 8:0.064613414 9:0.08594287 
0.001 1:0.18113494 2:0.14792013 3:0.10518824 4:0.22556352 5:0.17647059 6:0.13410637 7:0.2360507 8:0.22068286 9:0.16111794 
0.001 1:0.17241156 2:0.15090702 3:0.11214732 4:0.20944281 5:0.17647059 6:0.18248157 7:0.20459849 8:0.19612161 9:0.18365432 
0.001 1:0.14918349 2:0.14677339 3:0.11296933 4:0.15226964 5:0.11764706 6:0.13322696 7:0.098472603 8:0.090384418 9:0.057896629 
0.001 1:0.11046159 2:0.059675769 3:0.075749852 4:0.15146446 5:0.11764706 6:0.13042814 7:0.12286151 8:0.12383903 9:0.16669613 
0.001 1:0.17351779 2:0.12689055 3:0.14103516 4:0.053580146 5:0.11764706 6:0.080528138 7:0.10815938 8:0.13372624 9:0.12373905 
0.001 1:0.22989333 2:0.22183469 3:0.17454247 4:0.32859962 5:0.17647059 6:0.079505927 7:0.28510908 8:0.13347815 9:-0.041198556 
0.001 1:0.2216934 2:0.19932004 3:0.20954898 4:0.22794933 5:0.17647059 6:0.21552906 7:0.13862495 8:0.080259686 9:0.11883927 
0.001 1:0.22406132 2:0.13797378 3:0.20726094 4:0.26660044 5:0.17647059 6:0.21707183 7:0.13108111 8:0.086412524 9:0.14130275 
0.001 1:0.23113389 2:0.12488048 3:0.03263531 4:0.24605349 5:0.17647059 6:0.11185111 7:0.2918223 8:0.21727858 9:0.15610954 
0.001 1:0.24639223 2:0.22019887 3:0.16683296 4:0.28297976 5:0.17647059 6:0.168453 7:0.16286377 8:0.12282185 9:0.04122225 
0.001 1:0.13510676 2:0.13335873 3:0.31668619 4:0.18206836 5:0.17647059 6:0.31258066 7:0.12410386 8:0.076547039 9:0.1313131 
3.3666280247552303e-05 1:-0.028628459 2:-0.10437363 3:0.13627544 4:0.2619639 5:0.23529412 6:0.21568973 7:0.31722826 8:0.51815299 9:0.5660447 
0.001 1:0.18403881 2:0.21846488 3:0.18410354 4:0.099669863 5:0.11764706 6:0.19992052 7:0.0051223243 8:-0.058255446 9:0.10811197 
0.001 1:0.078950292 2:0.12438163 3:0.22533632 4:0.050273629 5:0.11764706 6:0.088496871 7:0.18554019 8:0.063450262 9:0.12474728 
0.001 1:0.087369104 2:0.22428668 3:0.17230861 4:0.10233298 5:0.11764706 6:0.24474296 7:0.064264594 8:-0.10132445 9:0.14719601 
0.001 1:0.14261508 2:-0.034449202 3:0.0094360552 4:0.21064038 5:0.11764706 6:0.13437098 7:0.19698848 8:0.11980677 9:0.16176792 
0.001 1:0.11226321 2:0.073577831 3:0.18336578 4:0.13250036 5:0.11764706 6:0.21115617 7:0.067249248 8:0.050051533 9:0.11101233 
0.001 1:0.24655833 2:0.12230327 3:0.11522209 4:0.22020888 5:0.11764706 6:0.06058225 7:0.11412687 8:0.014927838 9:0.047246943 
0.001 1:-0.085165548 2:0.042090315 3:0.056926961 4:0.13584184 5:0.11764706 6:0.12081772 7:0.21889043 8:0.26328824 9:0.18848651 
0.001 1:0.2927844 2:0.23914281 3:0.19361995 4:0.095659755 5:0.11764706 6:0.093504806 7:-0.22183003 8:0.1128702 9:0.13542458 
0.001 1:0.21079299 2:0.188953 3:0.19230412 4:0.21672404 5:0.17647059 6:0.16759696 7:0.16415882 8:0.11904513 9:0.15218964 
0.001 1:0.40012385 2:0.18839504 3:0.37807189 4:0.055363189 5:0.11764706 6:-0.34830332 7:0.18201717 8:0.065673002 9:0.019835641 
0.001 1:0.067546425 2:-0.11124563 3:0.11727552 4:0.33996047 5:0.17647059 6:0.16844296 7:0.3820063 8:0.25502241 9:0.19275625 
0.001 1:0.25239113 2:0.30453292 3:0.20666515 4:0.20626364 5:0.17647059 6:0.11379137 7:0.082778485 8:0.2509324 9:-0.0055903829 
0.001 1:0.20041904 2:0.28791385 3:0.29081095 4:0.19881883 5:0.17647059 6:0.29665623 7:-0.040088416 8:0.11257568 9:0.064658534 
0.0001020554516460449 1:0.44886279 2:0.32453434 3:0.20646771 4:0.44599692 5:0.23529412 6:0.1668952 7:0.23783894 8:0.091020468 9:-0.03926342 
